<?xml version="1.0" encoding="UTF-8"?>
<!-- This network was created in GeNIe Academic, which can be used for academic teaching and research purposes only -->
<smile version="1.0" id="minors" numsamples="10000" discsamples="10000">
	<nodes>
		<cpt id="prevHF">
			<state id="D_0_3_0_1_5__7s" />
			<state id="D_0_3_0_1_5__empty" />
			<state id="D_0_3_0_1_empty__7s" />
			<state id="D_0_3_0_1_empty__empty" />
			<state id="D_0_3_0_3_5__7s" />
			<state id="D_0_3_0_3_empty__7s" />
			<state id="D_0_3_0_3_empty__empty" />
			<state id="D_0_3_0_5_1__empty" />
			<state id="D_0_3_0_5_empty__empty" />
			<state id="D_0_5_0_1_5__7" />
			<state id="D_0_5_0_1_5__empty" />
			<state id="D_0_5_0_1_empty__7" />
			<state id="D_0_5_0_1_empty__empty" />
			<state id="D_0_5_0_3b_5__7" />
			<state id="D_0_5_0_3b_empty__7" />
			<state id="D_0_5_0_3b_empty__empty" />
			<state id="D_0_5_0_5_empty__7" />
			<state id="D_0_5_0_5_empty__empty" />
			<state id="D_0_5_1_1_5_1_7" />
			<state id="D_0_5_1_1_5_2_7" />
			<state id="D_0_5_1_1_5_3_7" />
			<state id="D_0_5_1_1_5_4_7" />
			<state id="D_0_5_1_1_5_6_7" />
			<state id="D_0_5_1_1_5__7" />
			<state id="D_0_5_1_1_5__7_9" />
			<state id="D_0_5_1_1_5__7_9b" />
			<state id="D_0_5_1_1_5__empty" />
			<state id="D_0_5_1_1_empty_1_7" />
			<state id="D_0_5_1_1_empty_2_7" />
			<state id="D_0_5_1_1_empty_3_7" />
			<state id="D_0_5_1_1_empty_4_7" />
			<state id="D_0_5_1_1_empty_5_7" />
			<state id="D_0_5_1_1_empty_6_7" />
			<state id="D_0_5_1_1_empty__7" />
			<state id="D_0_5_1_1_empty__empty" />
			<state id="D_0_5_1_3_1_3_7" />
			<state id="D_0_5_1_3_1_4_7" />
			<state id="D_0_5_1_3_1_5_7" />
			<state id="D_0_5_1_3_1_6_7" />
			<state id="D_0_5_1_3_1__7" />
			<state id="D_0_5_1_3_1__7_9b" />
			<state id="D_0_5_1_3_1__empty" />
			<state id="D_0_5_1_3_5_1_7" />
			<state id="D_0_5_1_3_5_2_7" />
			<state id="D_0_5_1_3_5_6_7" />
			<state id="D_0_5_1_3_5__7" />
			<state id="D_0_5_1_3_empty_1_7" />
			<state id="D_0_5_1_3_empty_2_7" />
			<state id="D_0_5_1_3_empty_3_7" />
			<state id="D_0_5_1_3_empty_4_7" />
			<state id="D_0_5_1_3_empty_5_7" />
			<state id="D_0_5_1_3_empty_6_7" />
			<state id="D_0_5_1_3_empty__7" />
			<state id="D_0_5_1_3_empty__empty" />
			<state id="D_0_5_1_5_1_2_7" />
			<state id="D_0_5_1_5_1_3_7" />
			<state id="D_0_5_1_5_1_4_7" />
			<state id="D_0_5_1_5_1_5_7" />
			<state id="D_0_5_1_5_1_6_7" />
			<state id="D_0_5_1_5_1__7" />
			<state id="D_0_5_1_5_1__7_9b" />
			<state id="D_0_5_1_5_empty_2_7" />
			<state id="D_0_5_1_5_empty_3_7" />
			<state id="D_0_5_1_5_empty_4_7" />
			<state id="D_0_5_1_5_empty_5_7" />
			<state id="D_0_5_1_5_empty_6_7" />
			<state id="D_0_5_1_5_empty__7" />
			<state id="D_0_5_1_5_empty__empty" />
			<state id="D_0_5_1_7_1_2_7" />
			<state id="D_0_5_1_7_5_4_7" />
			<state id="D_0_5_1_7_empty_2_7" />
			<state id="D_0_5_1_7_empty_6_7" />
			<state id="D_0_7_0_1_5__7s" />
			<state id="D_0_7_0_1_5__empty" />
			<state id="D_0_7_0_1_empty__7s" />
			<state id="D_0_7_0_1_empty__empty" />
			<state id="D_0_7_0_3_1__7s" />
			<state id="D_0_7_0_3_empty__empty" />
			<state id="D_0_7_0_5_1__7s" />
			<state id="D_0_7_0_5_1__empty" />
			<state id="D_0_7_0_5_empty__empty" />
			<state id="S_0_2_0_1_5b__7" />
			<state id="S_0_2_0_1_5b__empty" />
			<state id="S_0_2_0_1_empty__7" />
			<state id="S_0_2_0_1_empty__empty" />
			<state id="S_0_2_0_3b_5b__7" />
			<state id="S_0_2_0_3b_empty__empty" />
			<state id="S_0_2_0_5b_1__empty" />
			<state id="S_0_2_0_5b_empty__empty" />
			<state id="S_0_4_0_1_5__empty" />
			<state id="S_0_4_0_1_empty_3_empty" />
			<state id="S_0_4_0_1_empty__6" />
			<state id="S_0_4_0_1_empty__empty" />
			<state id="S_0_4_0_3b_1__6" />
			<state id="S_0_4_0_3b_empty_3_empty" />
			<state id="S_0_4_0_3b_empty__6" />
			<state id="S_0_4_0_3b_empty__empty" />
			<state id="S_0_4_0_5_1__6" />
			<state id="S_0_4_0_5_empty_3_empty" />
			<state id="S_0_4_0_5_empty__6" />
			<state id="S_0_4_0_5_empty__empty" />
			<state id="S_0_4_1_1_5__6" />
			<state id="S_0_4_1_1_5__empty" />
			<state id="S_0_4_1_1_empty__empty" />
			<state id="S_0_4_1_3_1__6" />
			<state id="S_0_4_1_3_1__empty" />
			<state id="S_0_4_1_3_5__6" />
			<state id="S_0_4_1_3_empty__6" />
			<state id="S_0_4_1_3_empty__empty" />
			<state id="S_0_4_1_5_empty__6" />
			<state id="S_0_4_1_5_empty__empty" />
			<state id="T_0_1_0_1_5__empty" />
			<state id="T_0_1_0_1_empty__empty" />
			<state id="T_0_1_0_3b_empty__empty" />
			<state id="T_0_1_0_5_1__empty" />
			<state id="T_0_1_0_5_empty__empty" />
			<state id="T_0_1_1_1_5__empty" />
			<state id="T_0_1_1_1_empty__empty" />
			<state id="T_0_1_1_3_empty__empty" />
			<state id="T_0_1_1_5_empty__empty" />
			<state id="T_0_6_0_1_5__7s" />
			<state id="T_0_6_0_1_5__empty" />
			<state id="T_0_6_0_1_empty__7s" />
			<state id="T_0_6_0_1_empty__empty" />
			<state id="T_0_6_0_3_5__7s" />
			<state id="T_0_6_0_3_empty__7s" />
			<state id="T_0_6_0_3_empty__empty" />
			<state id="T_0_6_0_5_1__empty" />
			<state id="T_0_6_0_5_empty__7s" />
			<state id="T_0_6_0_5_empty__empty" />
			<state id="T_0_6_0_7_1__7s" />
			<probabilities>0.001382934587194026 0.004840271055179091 0.001659521504632831 0.08767805282810123 0.0008297607523164155 0.000968054211035818 0.03623288618448348 0.0001382934587194026 0.005116857972617895 0.001382934587194026 0.002212695339510441 0.003872216844143272 0.02835015903747753 0.0001382934587194026 0.001382934587194026 0.009680542110358181 0.005808325266214908 0.002350988798229844 0.0002765869174388052 0.001936108422071636 0.000968054211035818 0.0005531738348776103 0.0005531738348776103 0.001244641128474623 0.0002765869174388052 0.0001382934587194026 0.001106347669755221 0.0004148803761582077 0.004010510302862674 0.003042456091826857 0.0006914672935970129 0.004701977596459688 0.007467846770847739 0.002904162633107454 0.08256119485548334 0.0008297607523164155 0.0002765869174388052 0.0004148803761582077 0.002212695339510441 0.002489282256949246 0.004010510302862674 0.0001382934587194026 0.0006914672935970129 0.0001382934587194026 0.0001382934587194026 0.0001382934587194026 0.0001382934587194026 0.003595629926704467 0.003872216844143272 0.002350988798229844 0.0006914672935970129 0.009403955192919375 0.004701977596459688 0.02475452911077306 0.0002765869174388052 0.001659521504632831 0.001659521504632831 0.001382934587194026 0.003595629926704467 0.01023371594523579 0.002350988798229844 0.000968054211035818 0.0002765869174388052 0.0002765869174388052 0.001106347669755221 0.001521228045913428 0.001244641128474623 0.0006914672935970129 0.0001382934587194026 0.0001382934587194026 0.0002765869174388052 0.0001382934587194026 0.0005531738348776103 0.001659521504632831 0.0001382934587194026 0.06237034988245056 0.005808325266214908 0.02945650670723275 0.001797814963352233 0.0001382934587194026 0.001797814963352233 0.005808325266214908 0.001106347669755221 0.002350988798229844 0.003872216844143272 0.0001382934587194026 0.01313787857834325 0.0001382934587194026 0.003595629926704467 0.001797814963352233 0.001521228045913428 0.021297192642788 0.03899875535887153 0.0001382934587194026 0.002212695339510441 0.01216982436730743 0.03056285437698797 0.0001382934587194026 0.0001382934587194026 0.004701977596459688 0.001106347669755221 0.003042456091826857 0.0005531738348776103 0.0159037477527313 0.0001382934587194026 0.0004148803761582077 0.0002765869174388052 0.001106347669755221 0.01230811782602683 0.0005531738348776103 0.0002765869174388052 0.006776379477250726 0.162494813995298 0.04217950490941778 0.0005531738348776103 0.01106347669755221 0.0004148803761582077 0.01783985617480293 0.008989074816761167 0.0004148803761582077 0.005808325266214908 0.000968054211035818 0.004978564513898493 0.04148803761582077 0.0005531738348776103 0.003457336467985064 0.01106347669755221 0.0002765869174388052 0.0002765869174388052 0.001106347669755221 0.0002765869174388052</probabilities>
		</cpt>
		<cpt id="prevNote">
			<state id="S0" />
			<state id="S0_" />
			<state id="S1" />
			<state id="S1b" />
			<state id="S2" />
			<state id="S2_" />
			<state id="S3" />
			<state id="S3_" />
			<state id="S4" />
			<state id="S5" />
			<state id="S5_" />
			<state id="S6" />
			<state id="S6_" />
			<parents>prevHF</parents>
			<probabilities>0.006993006993006995 0.006993006993006995 0.006993006993006995 0.006993006993006995 0.006993006993006995 0.006993006993006995 0.006993006993006995 0.006993006993006995 0.9160839160839163 0.006993006993006995 0.006993006993006995 0.006993006993006995 0.006993006993006995 0.002136752136752136 0.002136752136752136 0.002136752136752136 0.002136752136752136 0.4465811965811964 0.002136752136752136 0.002136752136752136 0.002136752136752136 0.5299145299145297 0.002136752136752136 0.002136752136752136 0.002136752136752136 0.002136752136752136 0.005917159763313611 0.005917159763313611 0.5443786982248522 0.005917159763313611 0.005917159763313611 0.005917159763313611 0.005917159763313611 0.005917159763313611 0.3905325443786983 0.005917159763313611 0.005917159763313611 0.005917159763313611 0.005917159763313611 0.0001211387038158692 0.0001211387038158692 0.0001211387038158692 0.0001211387038158692 0.2268927922471229 0.0001211387038158692 0.0001211387038158692 0.0001211387038158692 0.626892792247123 0.0001211387038158692 0.0001211387038158692 0.1450030284675954 0.0001211387038158692 0.01098901098901099 0.01098901098901099 0.1538461538461539 0.01098901098901099 0.7252747252747255 0.01098901098901099 0.01098901098901099 0.01098901098901099 0.01098901098901099 0.01098901098901099 0.01098901098901099 0.01098901098901099 0.01098901098901099 0.009615384615384618 0.009615384615384618 0.2596153846153847 0.009615384615384618 0.6346153846153847 0.009615384615384618 0.009615384615384618 0.009615384615384618 0.009615384615384618 0.009615384615384618 0.009615384615384618 0.009615384615384618 0.009615384615384618 0.0002924831822170225 0.0002924831822170225 0.0002924831822170225 0.0002924831822170225 0.5820415326118747 0.0002924831822170225 0.0002924831822170225 0.0002924831822170225 0.1751974261479965 0.0002924831822170225 0.0002924831822170225 0.2398362094179585 0.0002924831822170225 0.03846153846153847 0.03846153846153847 0.03846153846153847 0.03846153846153847 0.03846153846153847 0.03846153846153847 0.03846153846153847 0.03846153846153847 0.5384615384615385 0.03846153846153847 0.03846153846153847 0.03846153846153847 0.03846153846153847 0.002024291497975708 0.002024291497975708 0.002024291497975708 0.002024291497975708 0.4493927125506071 0.002024291497975708 0.002024291497975708 0.002024291497975708 0.4757085020242913 0.002024291497975708 0.002024291497975708 0.05465587044534412 0.002024291497975708 0.006993006993006994 0.006993006993006994 0.006993006993006994 0.006993006993006994 0.006993006993006994 0.006993006993006994 0.006993006993006994 0.006993006993006994 0.2797202797202797 0.006993006993006994 0.006993006993006994 0.6433566433566433 0.006993006993006994 0.004524886877828056 0.004524886877828056 0.004524886877828056 0.004524886877828056 0.004524886877828056 0.004524886877828056 0.004524886877828056 0.004524886877828056 0.5339366515837105 0.004524886877828056 0.004524886877828056 0.4162895927601811 0.004524886877828056 0.002652519893899205 0.002652519893899205 0.1405835543766578 0.002652519893899205 0.002652519893899205 0.002652519893899205 0.4854111405835544 0.002652519893899205 0.002652519893899205 0.002652519893899205 0.002652519893899205 0.3474801061007958 0.002652519893899205 0.0003734129947722182 0.0003734129947722182 0.1265870052277819 0.0003734129947722182 0.0003734129947722182 0.0003734129947722182 0.0003734129947722182 0.0003734129947722182 0.1411501120238984 0.0003734129947722182 0.0003734129947722182 0.7285287528005975 0.0003734129947722182 0.03846153846153847 0.03846153846153847 0.03846153846153847 0.03846153846153847 0.03846153846153847 0.03846153846153847 0.03846153846153847 0.03846153846153847 0.5384615384615385 0.03846153846153847 0.03846153846153847 0.03846153846153847 0.03846153846153847 0.006993006993006995 0.006993006993006995 0.09790209790209792 0.006993006993006995 0.006993006993006995 0.006993006993006995 0.006993006993006995 0.006993006993006995 0.8251748251748253 0.006993006993006995 0.006993006993006995 0.006993006993006995 0.006993006993006995 0.001083423618634886 0.001083423618634886 0.3109425785482123 0.001083423618634886 0.001083423618634886 0.001083423618634886 0.001083423618634886 0.001083423618634886 0.4799566630552545 0.001083423618634886 0.001083423618634886 0.1982665222101841 0.001083423618634886 0.001788908765652951 0.001788908765652951 0.001788908765652951 0.001788908765652951 0.001788908765652951 0.001788908765652951 0.2343470483005366 0.001788908765652951 0.7459749552772807 0.001788908765652951 0.001788908765652951 0.001788908765652951 0.001788908765652951 0.004273504273504275 0.004273504273504275 0.004273504273504275 0.004273504273504275 0.004273504273504275 0.004273504273504275 0.004273504273504275 0.004273504273504275 0.2264957264957265 0.004273504273504275 0.004273504273504275 0.7264957264957266 0.004273504273504275 0.02564102564102564 0.3589743589743589 0.02564102564102564 0.02564102564102564 0.02564102564102564 0.02564102564102564 0.02564102564102564 0.02564102564102564 0.02564102564102564 0.02564102564102564 0.3589743589743589 0.02564102564102564 0.02564102564102564 0.005128205128205129 0.005128205128205129 0.4051282051282052 0.005128205128205129 0.005128205128205129 0.005128205128205129 0.005128205128205129 0.005128205128205129 0.005128205128205129 0.2051282051282052 0.005128205128205129 0.3384615384615385 0.005128205128205129 0.5096153846153848 0.009615384615384619 0.009615384615384619 0.009615384615384619 0.009615384615384619 0.2596153846153847 0.009615384615384619 0.009615384615384619 0.009615384615384619 0.009615384615384619 0.009615384615384619 0.1346153846153847 0.009615384615384619 0.2153846153846154 0.01538461538461539 0.4153846153846155 0.01538461538461539 0.01538461538461539 0.01538461538461539 0.01538461538461539 0.2153846153846154 0.01538461538461539 0.01538461538461539 0.01538461538461539 0.01538461538461539 0.01538461538461539 0.01538461538461539 0.01538461538461539 0.01538461538461539 0.01538461538461539 0.8153846153846157 0.01538461538461539 0.01538461538461539 0.01538461538461539 0.01538461538461539 0.01538461538461539 0.01538461538461539 0.01538461538461539 0.01538461538461539 0.007692307692307693 0.007692307692307693 0.007692307692307693 0.007692307692307693 0.007692307692307693 0.007692307692307693 0.3076923076923077 0.007692307692307693 0.3076923076923077 0.007692307692307693 0.007692307692307693 0.007692307692307693 0.3076923076923077 0.02564102564102564 0.02564102564102564 0.02564102564102564 0.02564102564102564 0.02564102564102564 0.02564102564102564 0.02564102564102564 0.02564102564102564 0.02564102564102564 0.02564102564102564 0.3589743589743589 0.02564102564102564 0.3589743589743589 0.03846153846153847 0.03846153846153847 0.03846153846153847 0.03846153846153847 0.03846153846153847 0.03846153846153847 0.5384615384615385 0.03846153846153847 0.03846153846153847 0.03846153846153847 0.03846153846153847 0.03846153846153847 0.03846153846153847 0.00854700854700855 0.00854700854700855 0.00854700854700855 0.00854700854700855 0.00854700854700855 0.00854700854700855 0.00854700854700855 0.00854700854700855 0.8974358974358976 0.00854700854700855 0.00854700854700855 0.00854700854700855 0.00854700854700855 0.01923076923076923 0.01923076923076923 0.01923076923076923 0.01923076923076923 0.01923076923076923 0.01923076923076923 0.01923076923076923 0.01923076923076923 0.7692307692307691 0.01923076923076923 0.01923076923076923 0.01923076923076923 0.01923076923076923 0.002564102564102564 0.002564102564102564 0.1025641025641026 0.002564102564102564 0.002564102564102564 0.002564102564102564 0.6025641025641025 0.002564102564102564 0.002564102564102564 0.2692307692307692 0.002564102564102564 0.002564102564102564 0.002564102564102564 0.003344481605351171 0.003344481605351171 0.003344481605351171 0.003344481605351171 0.003344481605351171 0.09030100334448161 0.003344481605351171 0.003344481605351171 0.2207357859531772 0.003344481605351171 0.003344481605351171 0.6555183946488294 0.003344481605351171 0.1794871794871795 0.01282051282051283 0.01282051282051283 0.01282051282051283 0.01282051282051283 0.01282051282051283 0.01282051282051283 0.01282051282051283 0.01282051282051283 0.01282051282051283 0.6794871794871796 0.01282051282051283 0.01282051282051283 0.002197802197802198 0.002197802197802198 0.002197802197802198 0.4021978021978022 0.002197802197802198 0.002197802197802198 0.002197802197802198 0.002197802197802198 0.2307692307692308 0.002197802197802198 0.002197802197802198 0.3450549450549451 0.002197802197802198 0.5104895104895103 0.001398601398601398 0.001398601398601398 0.001398601398601398 0.4195804195804194 0.001398601398601398 0.001398601398601398 0.001398601398601398 0.001398601398601398 0.001398601398601398 0.05594405594405592 0.001398601398601398 0.001398601398601398 0.003496503496503497 0.003496503496503497 0.5944055944055945 0.003496503496503497 0.003496503496503497 0.003496503496503497 0.3216783216783217 0.003496503496503497 0.003496503496503497 0.003496503496503497 0.003496503496503497 0.003496503496503497 0.04895104895104896 0.0001286339078981219 0.0001286339078981219 0.5937741188577308 0.0001286339078981219 0.0001286339078981219 0.0001286339078981219 0.0001286339078981219 0.0001286339078981219 0.214175456650373 0.0001286339078981219 0.0001286339078981219 0.0001286339078981219 0.1907640854129148 0.01098901098901099 0.01098901098901099 0.01098901098901099 0.01098901098901099 0.01098901098901099 0.01098901098901099 0.01098901098901099 0.01098901098901099 0.2967032967032967 0.01098901098901099 0.01098901098901099 0.5824175824175823 0.01098901098901099 0.3589743589743589 0.02564102564102564 0.02564102564102564 0.02564102564102564 0.02564102564102564 0.02564102564102564 0.02564102564102564 0.02564102564102564 0.02564102564102564 0.02564102564102564 0.3589743589743589 0.02564102564102564 0.02564102564102564 0.01923076923076923 0.01923076923076923 0.01923076923076923 0.01923076923076923 0.01923076923076923 0.01923076923076923 0.01923076923076923 0.01923076923076923 0.2692307692307692 0.01923076923076923 0.01923076923076923 0.5192307692307693 0.01923076923076923 0.4162895927601811 0.004524886877828056 0.004524886877828056 0.004524886877828056 0.5339366515837105 0.004524886877828056 0.004524886877828056 0.004524886877828056 0.004524886877828056 0.004524886877828056 0.004524886877828056 0.004524886877828056 0.004524886877828056 0.004048582995951418 0.004048582995951418 0.3724696356275304 0.004048582995951418 0.004048582995951418 0.004048582995951418 0.5303643724696357 0.004048582995951418 0.004048582995951418 0.004048582995951418 0.004048582995951418 0.004048582995951418 0.05668016194331985 0.002564102564102565 0.002564102564102565 0.3025641025641026 0.002564102564102565 0.002564102564102565 0.002564102564102565 0.635897435897436 0.002564102564102565 0.002564102564102565 0.0358974358974359 0.002564102564102565 0.002564102564102565 0.002564102564102565 0.03846153846153847 0.03846153846153847 0.5384615384615385 0.03846153846153847 0.03846153846153847 0.03846153846153847 0.03846153846153847 0.03846153846153847 0.03846153846153847 0.03846153846153847 0.03846153846153847 0.03846153846153847 0.03846153846153847 0.01282051282051282 0.01282051282051282 0.01282051282051282 0.01282051282051282 0.01282051282051282 0.01282051282051282 0.01282051282051282 0.01282051282051282 0.01282051282051282 0.01282051282051282 0.8461538461538463 0.01282051282051282 0.01282051282051282 0.03846153846153847 0.03846153846153847 0.5384615384615385 0.03846153846153847 0.03846153846153847 0.03846153846153847 0.03846153846153847 0.03846153846153847 0.03846153846153847 0.03846153846153847 0.03846153846153847 0.03846153846153847 0.03846153846153847 0.03846153846153847 0.03846153846153847 0.03846153846153847 0.03846153846153847 0.03846153846153847 0.03846153846153847 0.5384615384615385 0.03846153846153847 0.03846153846153847 0.03846153846153847 0.03846153846153847 0.03846153846153847 0.03846153846153847 0.03846153846153847 0.03846153846153847 0.03846153846153847 0.03846153846153847 0.03846153846153847 0.03846153846153847 0.03846153846153847 0.03846153846153847 0.5384615384615385 0.03846153846153847 0.03846153846153847 0.03846153846153847 0.03846153846153847 0.03846153846153847 0.03846153846153847 0.03846153846153847 0.03846153846153847 0.03846153846153847 0.03846153846153847 0.03846153846153847 0.03846153846153847 0.03846153846153847 0.03846153846153847 0.5384615384615385 0.03846153846153847 0.03846153846153847 0.002849002849002849 0.002849002849002849 0.002849002849002849 0.002849002849002849 0.002849002849002849 0.002849002849002849 0.002849002849002849 0.002849002849002849 0.002849002849002849 0.6324786324786325 0.002849002849002849 0.3361823361823362 0.002849002849002849 0.4164456233421751 0.002652519893899205 0.002652519893899205 0.002652519893899205 0.002652519893899205 0.002652519893899205 0.002652519893899205 0.002652519893899205 0.2785145888594165 0.002652519893899205 0.002652519893899205 0.2785145888594165 0.002652519893899205 0.4487179487179488 0.004273504273504275 0.4487179487179488 0.004273504273504275 0.004273504273504275 0.004273504273504275 0.004273504273504275 0.004273504273504275 0.004273504273504275 0.004273504273504275 0.05982905982905984 0.004273504273504275 0.004273504273504275 0.01282051282051282 0.01282051282051282 0.01282051282051282 0.01282051282051282 0.1794871794871795 0.01282051282051282 0.01282051282051282 0.01282051282051282 0.01282051282051282 0.01282051282051282 0.01282051282051282 0.6794871794871795 0.01282051282051282 0.1025641025641025 0.001114827201783723 0.001114827201783723 0.001114827201783723 0.3779264214046821 0.001114827201783723 0.5083612040133777 0.001114827201783723 0.001114827201783723 0.001114827201783723 0.001114827201783723 0.001114827201783723 0.001114827201783723 0.002197802197802197 0.002197802197802197 0.4307692307692306 0.002197802197802197 0.002197802197802197 0.002197802197802197 0.402197802197802 0.002197802197802197 0.145054945054945 0.002197802197802197 0.002197802197802197 0.002197802197802197 0.002197802197802197 0.0004273504273504274 0.0004273504273504274 0.405982905982906 0.0004273504273504274 0.0004273504273504274 0.0004273504273504274 0.0004273504273504274 0.0004273504273504274 0.5893162393162393 0.0004273504273504274 0.0004273504273504274 0.0004273504273504274 0.0004273504273504274 0.02564102564102563 0.02564102564102563 0.02564102564102563 0.02564102564102563 0.02564102564102563 0.02564102564102563 0.6923076923076921 0.02564102564102563 0.02564102564102563 0.02564102564102563 0.02564102564102563 0.02564102564102563 0.02564102564102563 0.00591715976331361 0.00591715976331361 0.00591715976331361 0.00591715976331361 0.00591715976331361 0.00591715976331361 0.00591715976331361 0.00591715976331361 0.7751479289940829 0.00591715976331361 0.00591715976331361 0.1597633136094675 0.00591715976331361 0.1597633136094675 0.00591715976331361 0.00591715976331361 0.00591715976331361 0.00591715976331361 0.00591715976331361 0.00591715976331361 0.00591715976331361 0.00591715976331361 0.00591715976331361 0.7751479289940829 0.00591715976331361 0.00591715976331361 0.006993006993006994 0.006993006993006994 0.006993006993006994 0.006993006993006994 0.006993006993006994 0.006993006993006994 0.006993006993006994 0.006993006993006994 0.0979020979020979 0.006993006993006994 0.006993006993006994 0.8251748251748252 0.006993006993006994 0.1880341880341881 0.00284900284900285 0.00284900284900285 0.00284900284900285 0.07692307692307694 0.00284900284900285 0.00284900284900285 0.00284900284900285 0.00284900284900285 0.00284900284900285 0.7065527065527066 0.00284900284900285 0.00284900284900285 0.001025641025641025 0.001025641025641025 0.5210256410256409 0.001025641025641025 0.001025641025641025 0.001025641025641025 0.121025641025641 0.001025641025641025 0.001025641025641025 0.001025641025641025 0.001025641025641025 0.001025641025641025 0.3476923076923076 0.004273504273504274 0.004273504273504274 0.004273504273504274 0.004273504273504274 0.004273504273504274 0.004273504273504274 0.6709401709401709 0.004273504273504274 0.004273504273504274 0.05982905982905982 0.004273504273504274 0.004273504273504274 0.2264957264957265 0.009615384615384618 0.009615384615384618 0.5096153846153847 0.009615384615384618 0.009615384615384618 0.009615384615384618 0.009615384615384618 0.009615384615384618 0.009615384615384618 0.1346153846153846 0.009615384615384618 0.2596153846153847 0.009615384615384618 0.358974358974359 0.02564102564102564 0.02564102564102564 0.02564102564102564 0.02564102564102564 0.02564102564102564 0.02564102564102564 0.02564102564102564 0.02564102564102564 0.02564102564102564 0.02564102564102564 0.358974358974359 0.02564102564102564 0.6923076923076918 0.02564102564102562 0.02564102564102562 0.02564102564102562 0.02564102564102562 0.02564102564102562 0.02564102564102562 0.02564102564102562 0.02564102564102562 0.02564102564102562 0.02564102564102562 0.02564102564102562 0.02564102564102562 0.00854700854700855 0.00854700854700855 0.00854700854700855 0.2307692307692308 0.452991452991453 0.00854700854700855 0.00854700854700855 0.00854700854700855 0.2307692307692308 0.00854700854700855 0.00854700854700855 0.00854700854700855 0.00854700854700855 0.006410256410256411 0.006410256410256411 0.006410256410256411 0.006410256410256411 0.5064102564102565 0.006410256410256411 0.2564102564102564 0.006410256410256411 0.006410256410256411 0.006410256410256411 0.1730769230769231 0.006410256410256411 0.006410256410256411 0.007692307692307694 0.007692307692307694 0.007692307692307694 0.007692307692307694 0.007692307692307694 0.007692307692307694 0.5076923076923078 0.007692307692307694 0.4076923076923077 0.007692307692307694 0.007692307692307694 0.007692307692307694 0.007692307692307694 0.01282051282051283 0.01282051282051283 0.8461538461538465 0.01282051282051283 0.01282051282051283 0.01282051282051283 0.01282051282051283 0.01282051282051283 0.01282051282051283 0.01282051282051283 0.01282051282051283 0.01282051282051283 0.01282051282051283 0.03846153846153847 0.03846153846153847 0.03846153846153847 0.03846153846153847 0.03846153846153847 0.03846153846153847 0.5384615384615385 0.03846153846153847 0.03846153846153847 0.03846153846153847 0.03846153846153847 0.03846153846153847 0.03846153846153847 0.03846153846153847 0.03846153846153847 0.5384615384615385 0.03846153846153847 0.03846153846153847 0.03846153846153847 0.03846153846153847 0.03846153846153847 0.03846153846153847 0.03846153846153847 0.03846153846153847 0.03846153846153847 0.03846153846153847 0.02564102564102564 0.02564102564102564 0.358974358974359 0.02564102564102564 0.02564102564102564 0.02564102564102564 0.02564102564102564 0.02564102564102564 0.02564102564102564 0.02564102564102564 0.02564102564102564 0.358974358974359 0.02564102564102564 0.03846153846153847 0.03846153846153847 0.03846153846153847 0.03846153846153847 0.03846153846153847 0.03846153846153847 0.5384615384615385 0.03846153846153847 0.03846153846153847 0.03846153846153847 0.03846153846153847 0.03846153846153847 0.03846153846153847 0.01538461538461538 0.01538461538461538 0.6153846153846153 0.01538461538461538 0.01538461538461538 0.01538461538461538 0.01538461538461538 0.01538461538461538 0.01538461538461538 0.01538461538461538 0.2153846153846153 0.01538461538461538 0.01538461538461538 0.005917159763313611 0.005917159763313611 0.4674556213017753 0.005917159763313611 0.005917159763313611 0.005917159763313611 0.005917159763313611 0.005917159763313611 0.005917159763313611 0.005917159763313611 0.005917159763313611 0.4674556213017753 0.005917159763313611 0.03846153846153847 0.03846153846153847 0.5384615384615385 0.03846153846153847 0.03846153846153847 0.03846153846153847 0.03846153846153847 0.03846153846153847 0.03846153846153847 0.03846153846153847 0.03846153846153847 0.03846153846153847 0.03846153846153847 0.0001701837985023825 0.0001701837985023825 0.4249489448604492 0.0001701837985023825 0.0001701837985023825 0.0001701837985023825 0.4581347855684137 0.0001701837985023825 0.0001701837985023825 0.0001701837985023825 0.0001701837985023825 0.115214431586113 0.0001701837985023825 0.001788908765652952 0.001788908765652952 0.2110912343470483 0.001788908765652952 0.001788908765652952 0.001788908765652952 0.3971377459749553 0.001788908765652952 0.001788908765652952 0.001788908765652952 0.3738819320214669 0.001788908765652952 0.001788908765652952 0.0003594536304816679 0.0003594536304816679 0.0424155283968368 0.0003594536304816679 0.0003594536304816679 0.0003594536304816679 0.4816678648454349 0.0003594536304816679 0.0003594536304816679 0.0003594536304816679 0.0003594536304816679 0.4723220704529116 0.0003594536304816679 0.005494505494505497 0.005494505494505497 0.9340659340659344 0.005494505494505497 0.005494505494505497 0.005494505494505497 0.005494505494505497 0.005494505494505497 0.005494505494505497 0.005494505494505497 0.005494505494505497 0.005494505494505497 0.005494505494505497 0.03846153846153847 0.03846153846153847 0.5384615384615385 0.03846153846153847 0.03846153846153847 0.03846153846153847 0.03846153846153847 0.03846153846153847 0.03846153846153847 0.03846153846153847 0.03846153846153847 0.03846153846153847 0.03846153846153847 0.005494505494505497 0.005494505494505497 0.5054945054945057 0.005494505494505497 0.005494505494505497 0.005494505494505497 0.3626373626373627 0.005494505494505497 0.005494505494505497 0.005494505494505497 0.005494505494505497 0.07692307692307694 0.005494505494505497 0.04830053667262968 0.001788908765652951 0.1645796064400715 0.001788908765652951 0.001788908765652951 0.001788908765652951 0.7692307692307689 0.001788908765652951 0.001788908765652951 0.001788908765652951 0.001788908765652951 0.001788908765652951 0.001788908765652951 0.00854700854700855 0.00854700854700855 0.2307692307692308 0.00854700854700855 0.00854700854700855 0.00854700854700855 0.6752136752136754 0.00854700854700855 0.00854700854700855 0.00854700854700855 0.00854700854700855 0.00854700854700855 0.00854700854700855 0.1153846153846154 0.004273504273504274 0.004273504273504274 0.004273504273504274 0.004273504273504274 0.004273504273504274 0.5598290598290597 0.004273504273504274 0.004273504273504274 0.282051282051282 0.004273504273504274 0.004273504273504274 0.004273504273504274 0.002652519893899205 0.002652519893899205 0.1405835543766578 0.002652519893899205 0.002652519893899205 0.002652519893899205 0.4854111405835544 0.002652519893899205 0.002652519893899205 0.3474801061007958 0.002652519893899205 0.002652519893899205 0.002652519893899205 0.03846153846153847 0.03846153846153847 0.5384615384615385 0.03846153846153847 0.03846153846153847 0.03846153846153847 0.03846153846153847 0.03846153846153847 0.03846153846153847 0.03846153846153847 0.03846153846153847 0.03846153846153847 0.03846153846153847 0.0008012820512820511 0.0008012820512820511 0.6049679487179486 0.0008012820512820511 0.0008012820512820511 0.0008012820512820511 0.2612179487179487 0.0008012820512820511 0.0008012820512820511 0.125801282051282 0.0008012820512820511 0.0008012820512820511 0.0008012820512820511 0.03846153846153847 0.03846153846153847 0.03846153846153847 0.03846153846153847 0.03846153846153847 0.03846153846153847 0.5384615384615385 0.03846153846153847 0.03846153846153847 0.03846153846153847 0.03846153846153847 0.03846153846153847 0.03846153846153847 0.00284900284900285 0.00284900284900285 0.150997150997151 0.00284900284900285 0.00284900284900285 0.00284900284900285 0.7806267806267807 0.00284900284900285 0.00284900284900285 0.03988603988603989 0.00284900284900285 0.00284900284900285 0.00284900284900285 0.005494505494505496 0.005494505494505496 0.005494505494505496 0.005494505494505496 0.005494505494505496 0.005494505494505496 0.5054945054945056 0.005494505494505496 0.005494505494505496 0.4340659340659341 0.005494505494505496 0.005494505494505496 0.005494505494505496 0.006410256410256411 0.006410256410256411 0.006410256410256411 0.006410256410256411 0.006410256410256411 0.006410256410256411 0.4230769230769231 0.006410256410256411 0.006410256410256411 0.006410256410256411 0.006410256410256411 0.5064102564102565 0.006410256410256411 0.1166253101736973 0.0004962779156327547 0.7746898263027301 0.0004962779156327547 0.0004962779156327547 0.0004962779156327547 0.0004962779156327547 0.0004962779156327547 0.0004962779156327547 0.1037220843672457 0.0004962779156327547 0.0004962779156327547 0.0004962779156327547 0.2052188094590921 0.0002718129926610491 0.0002718129926610491 0.0002718129926610491 0.0002718129926610491 0.0002718129926610491 0.3571622723566186 0.0002718129926610491 0.0002718129926610491 0.4349007882576786 0.0002718129926610491 0.0002718129926610491 0.0002718129926610491 0.03846153846153847 0.03846153846153847 0.5384615384615385 0.03846153846153847 0.03846153846153847 0.03846153846153847 0.03846153846153847 0.03846153846153847 0.03846153846153847 0.03846153846153847 0.03846153846153847 0.03846153846153847 0.03846153846153847 0.004524886877828056 0.004524886877828056 0.004524886877828056 0.004524886877828056 0.004524886877828056 0.004524886877828056 0.2398190045248869 0.004524886877828056 0.004524886877828056 0.004524886877828056 0.004524886877828056 0.7104072398190047 0.004524886877828056 0.09075194468452892 0.0008643042350907518 0.0570440795159896 0.0008643042350907518 0.0008643042350907518 0.0008643042350907518 0.8435609334485736 0.0008643042350907518 0.0008643042350907518 0.0008643042350907518 0.0008643042350907518 0.0008643042350907518 0.0008643042350907518 0.1715176715176716 0.0003465003465003466 0.0003465003465003466 0.0003465003465003466 0.0003465003465003466 0.0003465003465003466 0.7480942480942482 0.0003465003465003466 0.0003465003465003466 0.07692307692307694 0.0003465003465003466 0.0003465003465003466 0.0003465003465003466 0.03846153846153847 0.03846153846153847 0.03846153846153847 0.03846153846153847 0.03846153846153847 0.03846153846153847 0.03846153846153847 0.03846153846153847 0.03846153846153847 0.5384615384615385 0.03846153846153847 0.03846153846153847 0.03846153846153847 0.03846153846153847 0.03846153846153847 0.03846153846153847 0.03846153846153847 0.03846153846153847 0.03846153846153847 0.5384615384615385 0.03846153846153847 0.03846153846153847 0.03846153846153847 0.03846153846153847 0.03846153846153847 0.03846153846153847 0.002197802197802198 0.002197802197802198 0.4021978021978021 0.002197802197802198 0.002197802197802198 0.002197802197802198 0.4879120879120878 0.002197802197802198 0.002197802197802198 0.08791208791208791 0.002197802197802198 0.002197802197802198 0.002197802197802198 0.1196581196581196 0.008547008547008548 0.008547008547008548 0.008547008547008548 0.008547008547008548 0.008547008547008548 0.2307692307692308 0.008547008547008548 0.008547008547008548 0.564102564102564 0.008547008547008548 0.008547008547008548 0.008547008547008548 0.003344481605351171 0.003344481605351171 0.5685618729096991 0.003344481605351171 0.003344481605351171 0.003344481605351171 0.1772575250836121 0.003344481605351171 0.003344481605351171 0.003344481605351171 0.2207357859531773 0.003344481605351171 0.003344481605351171 0.01538461538461539 0.01538461538461539 0.01538461538461539 0.01538461538461539 0.01538461538461539 0.01538461538461539 0.6153846153846154 0.01538461538461539 0.01538461538461539 0.01538461538461539 0.2153846153846154 0.01538461538461539 0.01538461538461539 0.569628647214854 0.0006631299734748008 0.0006631299734748008 0.0006631299734748008 0.0006631299734748008 0.0006631299734748008 0.1644562334217506 0.0006631299734748008 0.0006631299734748008 0.0006631299734748008 0.2592838196286471 0.0006631299734748008 0.0006631299734748008 0.03846153846153847 0.03846153846153847 0.5384615384615385 0.03846153846153847 0.03846153846153847 0.03846153846153847 0.03846153846153847 0.03846153846153847 0.03846153846153847 0.03846153846153847 0.03846153846153847 0.03846153846153847 0.03846153846153847 0.5192307692307691 0.01923076923076922 0.01923076923076922 0.01923076923076922 0.01923076923076922 0.01923076923076922 0.01923076923076922 0.01923076923076922 0.01923076923076922 0.01923076923076922 0.2692307692307691 0.01923076923076922 0.01923076923076922 0.02564102564102564 0.02564102564102564 0.02564102564102564 0.02564102564102564 0.02564102564102564 0.02564102564102564 0.02564102564102564 0.02564102564102564 0.02564102564102564 0.02564102564102564 0.6923076923076922 0.02564102564102564 0.02564102564102564 0.1196581196581197 0.008547008547008551 0.3418803418803421 0.008547008547008551 0.008547008547008551 0.008547008547008551 0.4529914529914532 0.008547008547008551 0.008547008547008551 0.008547008547008551 0.008547008547008551 0.008547008547008551 0.008547008547008551 0.3341880341880341 0.0008547008547008545 0.0008547008547008545 0.0008547008547008545 0.0008547008547008545 0.0008547008547008545 0.6564102564102563 0.0008547008547008545 0.0008547008547008545 0.0008547008547008545 0.0008547008547008545 0.0008547008547008545 0.0008547008547008545 0.01538461538461539 0.01538461538461539 0.4153846153846155 0.01538461538461539 0.01538461538461539 0.01538461538461539 0.4153846153846155 0.01538461538461539 0.01538461538461539 0.01538461538461539 0.01538461538461539 0.01538461538461539 0.01538461538461539 0.02564102564102564 0.02564102564102564 0.02564102564102564 0.02564102564102564 0.02564102564102564 0.02564102564102564 0.3589743589743589 0.02564102564102564 0.02564102564102564 0.02564102564102564 0.3589743589743589 0.02564102564102564 0.02564102564102564 0.3415384615384613 0.001538461538461538 0.001538461538461538 0.001538461538461538 0.6415384615384613 0.001538461538461538 0.001538461538461538 0.001538461538461538 0.001538461538461538 0.001538461538461538 0.001538461538461538 0.001538461538461538 0.001538461538461538 0.2611198325484039 6.541077969649397e-05 6.541077969649397e-05 6.541077969649397e-05 0.5255756148613291 6.541077969649397e-05 6.541077969649397e-05 6.541077969649397e-05 0.2126504447933019 6.541077969649397e-05 6.541077969649397e-05 6.541077969649397e-05 6.541077969649397e-05 0.5329311211664153 0.0002513826043237808 0.0002513826043237808 0.0002513826043237808 0.2094017094017094 0.0002513826043237808 0.0002513826043237808 0.0002513826043237808 0.2551533433886375 0.0002513826043237808 0.0002513826043237808 0.0002513826043237808 0.0002513826043237808 0.01538461538461539 0.01538461538461539 0.01538461538461539 0.01538461538461539 0.8153846153846157 0.01538461538461539 0.01538461538461539 0.01538461538461539 0.01538461538461539 0.01538461538461539 0.01538461538461539 0.01538461538461539 0.01538461538461539 0.2108262108262108 0.0009496676163342827 0.0009496676163342827 0.0009496676163342827 0.7169990503323834 0.0009496676163342827 0.0009496676163342827 0.0009496676163342827 0.06267806267806265 0.0009496676163342827 0.0009496676163342827 0.0009496676163342827 0.0009496676163342827 0.7692307692307689 0.01923076923076922 0.01923076923076922 0.01923076923076922 0.01923076923076922 0.01923076923076922 0.01923076923076922 0.01923076923076922 0.01923076923076922 0.01923076923076922 0.01923076923076922 0.01923076923076922 0.01923076923076922 0.2082840236686391 0.0005917159763313611 0.0005917159763313611 0.0005917159763313611 0.0005917159763313611 0.185207100591716 0.0005917159763313611 0.0005917159763313611 0.6005917159763315 0.0005917159763313611 0.0005917159763313611 0.0005917159763313611 0.0005917159763313611 0.6223776223776221 0.001165501165501165 0.001165501165501165 0.001165501165501165 0.001165501165501165 0.001165501165501165 0.001165501165501165 0.001165501165501165 0.3648018648018646 0.001165501165501165 0.001165501165501165 0.001165501165501165 0.001165501165501165 0.01923076923076923 0.01923076923076923 0.01923076923076923 0.01923076923076923 0.01923076923076923 0.2692307692307692 0.01923076923076923 0.01923076923076923 0.5192307692307692 0.01923076923076923 0.01923076923076923 0.01923076923076923 0.01923076923076923 0.9320214669051869 0.00178890876565295 0.00178890876565295 0.00178890876565295 0.00178890876565295 0.00178890876565295 0.00178890876565295 0.00178890876565295 0.04830053667262965 0.00178890876565295 0.00178890876565295 0.00178890876565295 0.00178890876565295 0.5096153846153848 0.009615384615384619 0.009615384615384619 0.009615384615384619 0.009615384615384619 0.009615384615384619 0.009615384615384619 0.009615384615384619 0.009615384615384619 0.3846153846153848 0.009615384615384619 0.009615384615384619 0.009615384615384619 0.3534303534303533 0.002079002079002078 0.002079002079002078 0.002079002079002078 0.2182952182952182 0.002079002079002078 0.002079002079002078 0.002079002079002078 0.4074844074844073 0.002079002079002078 0.002079002079002078 0.002079002079002078 0.002079002079002078 0.6613851265014052 0.0002555583950932788 0.0002555583950932788 0.0002555583950932788 0.3225146946077178 0.0002555583950932788 0.0002555583950932788 0.0002555583950932788 0.0002555583950932788 0.01354459493994377 0.0002555583950932788 0.0002555583950932788 0.0002555583950932788 0.4153846153846155 0.01538461538461539 0.01538461538461539 0.01538461538461539 0.01538461538461539 0.01538461538461539 0.01538461538461539 0.01538461538461539 0.2153846153846154 0.2153846153846154 0.01538461538461539 0.01538461538461539 0.01538461538461539 0.002958579881656805 0.002958579881656805 0.002958579881656805 0.002958579881656805 0.04142011834319527 0.002958579881656805 0.002958579881656805 0.002958579881656805 0.1183431952662722 0.8106508875739645 0.002958579881656805 0.002958579881656805 0.002958579881656805 0.1614434947768281 0.0009496676163342828 0.0009496676163342828 0.0009496676163342828 0.2231718898385565 0.0009496676163342828 0.0009496676163342828 0.0009496676163342828 0.0009496676163342828 0.6058879392212725 0.0009496676163342828 0.0009496676163342828 0.0009496676163342828 0.02564102564102563 0.02564102564102563 0.02564102564102563 0.02564102564102563 0.692307692307692 0.02564102564102563 0.02564102564102563 0.02564102564102563 0.02564102564102563 0.02564102564102563 0.02564102564102563 0.02564102564102563 0.02564102564102563 0.02564102564102564 0.02564102564102564 0.02564102564102564 0.02564102564102564 0.02564102564102564 0.02564102564102564 0.02564102564102564 0.02564102564102564 0.3589743589743589 0.3589743589743589 0.02564102564102564 0.02564102564102564 0.02564102564102564 0.3418803418803419 0.00854700854700855 0.00854700854700855 0.00854700854700855 0.1196581196581197 0.00854700854700855 0.00854700854700855 0.00854700854700855 0.00854700854700855 0.452991452991453 0.00854700854700855 0.00854700854700855 0.00854700854700855 0.02564102564102563 0.02564102564102563 0.02564102564102563 0.02564102564102563 0.692307692307692 0.02564102564102563 0.02564102564102563 0.02564102564102563 0.02564102564102563 0.02564102564102563 0.02564102564102563 0.02564102564102563 0.02564102564102563</probabilities>
		</cpt>
		<cpt id="currentNote">
			<state id="S0" />
			<state id="S0_" />
			<state id="S1" />
			<state id="S1b" />
			<state id="S2" />
			<state id="S2_" />
			<state id="S3" />
			<state id="S3_" />
			<state id="S4" />
			<state id="S5" />
			<state id="S5_" />
			<state id="S6" />
			<state id="S6_" />
			<parents>prevNote</parents>
			<probabilities>0.1775557775557775 6.66000666000666e-05 0.2546120546120546 6.66000666000666e-05 0.1368631368631369 0.001798201798201798 0.04422244422244422 6.66000666000666e-05 0.08318348318348319 0.02257742257742258 0.005261405261405261 0.1844821844821845 0.08924408924408925 0.03846153846153847 0.03846153846153847 0.03846153846153847 0.03846153846153847 0.03846153846153847 0.03846153846153847 0.03846153846153847 0.03846153846153847 0.03846153846153847 0.03846153846153847 0.03846153846153847 0.5384615384615385 0.03846153846153847 0.3721855245400951 0.0009943888060231548 0.1376518218623481 0.00838127707933802 0.3315576390368634 0.001917749840187513 0.03146530293344697 7.102777185879678e-05 0.05362596775339157 7.102777185879678e-05 7.102777185879678e-05 0.03238866396761134 0.02961858086511826 0.1221719457013575 0.004524886877828056 0.2986425339366516 0.004524886877828056 0.1221719457013575 0.004524886877828056 0.004524886877828056 0.004524886877828056 0.004524886877828056 0.004524886877828056 0.004524886877828056 0.4162895927601811 0.004524886877828056 0.04245035812030513 5.823094392360099e-05 0.44744657310895 0.001572235485937227 0.1438886624352181 0.001572235485937227 0.2597100098992605 5.823094392360099e-05 0.07348745123158446 0.01065626273801898 5.823094392360099e-05 0.01822628544808711 0.0008152332149304139 0.0358974358974359 0.002564102564102565 0.435897435897436 0.002564102564102565 0.0358974358974359 0.0358974358974359 0.435897435897436 0.002564102564102565 0.002564102564102565 0.002564102564102565 0.002564102564102565 0.002564102564102565 0.002564102564102565 0.04274297131439989 7.135721421435708e-05 0.09098044812330527 7.135721421435708e-05 0.3414442700156986 0.01027543884686742 0.1577708006279435 7.135721421435708e-05 0.3163978878264593 0.01305837020122734 0.000999000999000999 0.02511773940345369 0.000999000999000999 0.03846153846153847 0.03846153846153847 0.03846153846153847 0.03846153846153847 0.03846153846153847 0.03846153846153847 0.03846153846153847 0.03846153846153847 0.5384615384615385 0.03846153846153847 0.03846153846153847 0.03846153846153847 0.03846153846153847 0.08964087623956525 5.602554764972828e-05 0.02481931760882963 5.602554764972828e-05 0.1151325004201916 0.006611014622667936 0.3081405120735056 0.0007843576670961958 0.2425906213233235 0.08891254412011879 0.03574429940052665 0.08527088352288645 0.002241021905989131 0.02572268495835374 0.0002449779519843214 0.006614404703576677 0.0002449779519843214 0.0002449779519843214 0.0002449779519843214 0.08304752572268494 0.0002449779519843214 0.6467417932386084 0.07030867221950023 0.003429691327780499 0.1531112199902009 0.009799118079372855 0.01959361393323657 0.0007256894049346878 0.0007256894049346878 0.0007256894049346878 0.0007256894049346878 0.0007256894049346878 0.01959361393323657 0.0007256894049346878 0.3026124818577648 0.01959361393323657 0.01959361393323657 0.5290275761973874 0.08563134978229316 0.2452237305178482 0.0001256913021618904 0.006661639014580191 0.008295625942684766 0.1128707893413776 0.001759678230266466 0.02300150829562594 0.0001256913021618904 0.1994720965309201 0.1913021618903972 0.07528908999497236 0.1341126194067371 0.001759678230266466 0.6362710137544575 0.0005094243504839531 0.02699949057564952 0.0005094243504839531 0.02699949057564952 0.007131940906775344 0.0005094243504839531 0.0005094243504839531 0.1462047885888945 0.007131940906775344 0.007131940906775344 0.02037697401935813 0.119714722363729</probabilities>
		</cpt>
		<cpt id="prevStrongPlace">
			<state id="State0" />
			<state id="State1" />
			<parents>prevNote currentNote</parents>
			<probabilities>0.424390243902439 0.5756097560975609 0.5 0.5 0.4251700680272109 0.5748299319727891 0.5 0.5 0.5 0.5 0.1666666666666667 0.8333333333333333 0.7450980392156863 0.2549019607843137 0.5 0.5 0.15625 0.84375 0.2307692307692308 0.7692307692307693 0.3333333333333333 0.6666666666666666 0.5727699530516432 0.4272300469483568 0.4174757281553398 0.5825242718446602 0.5 0.5 0.5 0.5 0.5 0.5 0.5 0.5 0.5 0.5 0.5 0.5 0.5 0.5 0.5 0.5 0.5 0.5 0.5 0.5 0.5 0.5 0.75 0.25 0.5 0.5 0.4689826302729528 0.5310173697270472 0.25 0.75 0.2080536912751678 0.7919463087248322 0.7777777777777777 0.2222222222222222 0.7576601671309192 0.2423398328690808 0.5 0.5 0.3529411764705882 0.6470588235294118 0.5 0.5 0.2413793103448276 0.7586206896551724 0.5 0.5 0.5 0.5 0.2 0.7999999999999999 0.78125 0.21875 0.1666666666666667 0.8333333333333333 0.5 0.5 0.4 0.6000000000000001 0.5 0.5 0.1666666666666667 0.8333333333333333 0.5 0.5 0.5 0.5 0.5 0.5 0.5 0.5 0.5 0.5 0.5 0.5 0.4285714285714285 0.5714285714285714 0.5 0.5 0.1964285714285714 0.8035714285714285 0.5 0.5 0.5939086294416244 0.4060913705583756 0.5 0.5 0.3 0.7 0.1666666666666667 0.8333333333333333 0.3965014577259475 0.6034985422740524 0.5 0.5 0.1855670103092784 0.8144329896907216 0.9666666666666667 0.03333333333333333 0.5 0.5 0.25 0.75 0.75 0.25 0.75 0.25 0.5 0.5 0.7692307692307693 0.2307692307692308 0.5 0.5 0.75 0.25 0.25 0.75 0.9230769230769231 0.07692307692307693 0.5 0.5 0.5 0.5 0.5 0.5 0.5 0.5 0.5 0.5 0.5 0.5 0.3913043478260869 0.6086956521739131 0.5 0.5 0.4591836734693877 0.5408163265306122 0.5 0.5 0.4130434782608696 0.5869565217391304 0.2727272727272727 0.7272727272727273 0.2176470588235294 0.7823529411764706 0.5 0.5 0.7360703812316716 0.2639296187683284 0.5714285714285714 0.4285714285714285 0.25 0.75 0.6296296296296295 0.3703703703703703 0.75 0.25 0.5 0.5 0.5 0.5 0.5 0.5 0.5 0.5 0.5 0.5 0.5 0.5 0.5 0.5 0.5 0.5 0.75 0.25 0.5 0.5 0.5 0.5 0.5 0.5 0.5 0.5 0.5853658536585367 0.4146341463414634 0.5 0.5 0.4705882352941176 0.5294117647058824 0.5 0.5 0.4746835443037974 0.5253164556962026 0.1111111111111111 0.8888888888888888 0.6619385342789598 0.3380614657210402 0.25 0.75 0.2372372372372372 0.7627627627627628 0.7131147540983607 0.2868852459016394 0.3877551020408163 0.6122448979591836 0.6153846153846154 0.3846153846153846 0.3333333333333333 0.6666666666666666 0.125 0.875 0.5 0.5 0.1666666666666667 0.8333333333333333 0.5 0.5 0.5 0.5 0.5 0.5 0.3076923076923077 0.6923076923076923 0.5 0.5 0.4679802955665024 0.5320197044334976 0.1818181818181818 0.8181818181818182 0.25 0.75 0.5625 0.4375 0.875 0.125 0.1666666666666667 0.8333333333333333 0.5 0.5 0.5 0.5 0.5 0.5 0.5 0.5 0.5 0.5 0.5 0.5 0.5 0.5 0.8125 0.1875 0.5 0.5 0.1666666666666667 0.8333333333333333 0.9464285714285714 0.05357142857142857 0.6666666666666666 0.3333333333333333 0.52 0.48 0.5 0.5 0.75 0.25 0.6000000000000001 0.4 0.4782608695652174 0.5217391304347826 0.75 0.25 0.1428571428571428 0.8571428571428571 0.5 0.5 0.2131147540983607 0.7868852459016393 0.5726495726495727 0.4273504273504274 0.2173913043478261 0.7826086956521738 0.2926829268292683 0.7073170731707318 0.25 0.75 0.6145833333333333 0.3854166666666666 0.5 0.5 0.25 0.75 0.5 0.5 0.25 0.75 0.25 0.75 0.5 0.5 0.5 0.5 0.04545454545454546 0.9545454545454546 0.25 0.75 0.25 0.75 0.125 0.875 0.1111111111111111 0.8888888888888888</probabilities>
		</cpt>
		<cpt id="currentHF">
			<state id="D_0_3_0_1_5__7s" />
			<state id="D_0_3_0_1_5__empty" />
			<state id="D_0_3_0_1_empty__7s" />
			<state id="D_0_3_0_1_empty__empty" />
			<state id="D_0_3_0_3_5__7s" />
			<state id="D_0_3_0_3_empty__7s" />
			<state id="D_0_3_0_3_empty__empty" />
			<state id="D_0_3_0_5_1__empty" />
			<state id="D_0_3_0_5_empty__empty" />
			<state id="D_0_5_0_1_5__7" />
			<state id="D_0_5_0_1_5__empty" />
			<state id="D_0_5_0_1_empty__7" />
			<state id="D_0_5_0_1_empty__empty" />
			<state id="D_0_5_0_3b_5__7" />
			<state id="D_0_5_0_3b_empty__7" />
			<state id="D_0_5_0_3b_empty__empty" />
			<state id="D_0_5_0_5_empty__7" />
			<state id="D_0_5_0_5_empty__empty" />
			<state id="D_0_5_1_1_5_1_7" />
			<state id="D_0_5_1_1_5_2_7" />
			<state id="D_0_5_1_1_5_3_7" />
			<state id="D_0_5_1_1_5_4_7" />
			<state id="D_0_5_1_1_5_6_7" />
			<state id="D_0_5_1_1_5__7" />
			<state id="D_0_5_1_1_5__7_9" />
			<state id="D_0_5_1_1_5__7_9b" />
			<state id="D_0_5_1_1_5__empty" />
			<state id="D_0_5_1_1_empty_1_7" />
			<state id="D_0_5_1_1_empty_2_7" />
			<state id="D_0_5_1_1_empty_3_7" />
			<state id="D_0_5_1_1_empty_4_7" />
			<state id="D_0_5_1_1_empty_5_7" />
			<state id="D_0_5_1_1_empty_6_7" />
			<state id="D_0_5_1_1_empty__7" />
			<state id="D_0_5_1_1_empty__empty" />
			<state id="D_0_5_1_3_1_3_7" />
			<state id="D_0_5_1_3_1_4_7" />
			<state id="D_0_5_1_3_1_5_7" />
			<state id="D_0_5_1_3_1_6_7" />
			<state id="D_0_5_1_3_1__7" />
			<state id="D_0_5_1_3_1__7_9b" />
			<state id="D_0_5_1_3_1__empty" />
			<state id="D_0_5_1_3_5_1_7" />
			<state id="D_0_5_1_3_5_2_7" />
			<state id="D_0_5_1_3_5_4_7" />
			<state id="D_0_5_1_3_5_6_7" />
			<state id="D_0_5_1_3_5__7" />
			<state id="D_0_5_1_3_5__7_9b" />
			<state id="D_0_5_1_3_empty_1_7" />
			<state id="D_0_5_1_3_empty_2_7" />
			<state id="D_0_5_1_3_empty_3_7" />
			<state id="D_0_5_1_3_empty_4_7" />
			<state id="D_0_5_1_3_empty_5_7" />
			<state id="D_0_5_1_3_empty_6_7" />
			<state id="D_0_5_1_3_empty__7" />
			<state id="D_0_5_1_3_empty__empty" />
			<state id="D_0_5_1_5_1_2_7" />
			<state id="D_0_5_1_5_1_3_7" />
			<state id="D_0_5_1_5_1_4_7" />
			<state id="D_0_5_1_5_1_5_7" />
			<state id="D_0_5_1_5_1_6_7" />
			<state id="D_0_5_1_5_1__7" />
			<state id="D_0_5_1_5_1__7_9b" />
			<state id="D_0_5_1_5_empty_2_7" />
			<state id="D_0_5_1_5_empty_3_7" />
			<state id="D_0_5_1_5_empty_4_7" />
			<state id="D_0_5_1_5_empty_5_7" />
			<state id="D_0_5_1_5_empty_6_7" />
			<state id="D_0_5_1_5_empty__7" />
			<state id="D_0_5_1_5_empty__empty" />
			<state id="D_0_5_1_7_1_2_7" />
			<state id="D_0_5_1_7_5_4_7" />
			<state id="D_0_5_1_7_empty_2_7" />
			<state id="D_0_5_1_7_empty_6_7" />
			<state id="D_0_7_0_1_5__7s" />
			<state id="D_0_7_0_1_5__empty" />
			<state id="D_0_7_0_1_empty__7s" />
			<state id="D_0_7_0_1_empty__empty" />
			<state id="D_0_7_0_3_1__7s" />
			<state id="D_0_7_0_3_empty__empty" />
			<state id="D_0_7_0_5_1__7s" />
			<state id="D_0_7_0_5_1__empty" />
			<state id="D_0_7_0_5_empty__empty" />
			<state id="S_0_2_0_1_5b__7" />
			<state id="S_0_2_0_1_5b__empty" />
			<state id="S_0_2_0_1_empty__7" />
			<state id="S_0_2_0_1_empty__empty" />
			<state id="S_0_2_0_3b_5b__7" />
			<state id="S_0_2_0_3b_empty__empty" />
			<state id="S_0_2_0_5b_1__empty" />
			<state id="S_0_2_0_5b_empty__empty" />
			<state id="S_0_4_0_1_5__empty" />
			<state id="S_0_4_0_1_empty_3_empty" />
			<state id="S_0_4_0_1_empty__6" />
			<state id="S_0_4_0_1_empty__empty" />
			<state id="S_0_4_0_3b_1__6" />
			<state id="S_0_4_0_3b_empty_3_empty" />
			<state id="S_0_4_0_3b_empty__6" />
			<state id="S_0_4_0_3b_empty__empty" />
			<state id="S_0_4_0_5_1__6" />
			<state id="S_0_4_0_5_1__empty" />
			<state id="S_0_4_0_5_empty_3_empty" />
			<state id="S_0_4_0_5_empty__6" />
			<state id="S_0_4_0_5_empty__empty" />
			<state id="S_0_4_1_1_5__6" />
			<state id="S_0_4_1_1_5__empty" />
			<state id="S_0_4_1_1_empty__empty" />
			<state id="S_0_4_1_3_1__6" />
			<state id="S_0_4_1_3_1__empty" />
			<state id="S_0_4_1_3_5__6" />
			<state id="S_0_4_1_3_empty__6" />
			<state id="S_0_4_1_3_empty__empty" />
			<state id="S_0_4_1_5_empty__6" />
			<state id="S_0_4_1_5_empty__empty" />
			<state id="T_0_1_0_1_5__empty" />
			<state id="T_0_1_0_1_empty__empty" />
			<state id="T_0_1_0_3b_empty__empty" />
			<state id="T_0_1_0_5_1__empty" />
			<state id="T_0_1_0_5_empty__empty" />
			<state id="T_0_1_1_1_5__empty" />
			<state id="T_0_1_1_1_empty__empty" />
			<state id="T_0_1_1_3_empty__empty" />
			<state id="T_0_1_1_5_empty__empty" />
			<state id="T_0_6_0_1_5__7s" />
			<state id="T_0_6_0_1_5__empty" />
			<state id="T_0_6_0_1_empty__7s" />
			<state id="T_0_6_0_1_empty__empty" />
			<state id="T_0_6_0_3_5__7s" />
			<state id="T_0_6_0_3_empty__7s" />
			<state id="T_0_6_0_3_empty__empty" />
			<state id="T_0_6_0_5_1__empty" />
			<state id="T_0_6_0_5_empty__7s" />
			<state id="T_0_6_0_5_empty__empty" />
			<state id="T_0_6_0_7_1__7s" />
			<parents>currentNote</parents>
			<probabilities>6.827709576545456e-06 6.827709576545456e-06 6.827709576545456e-06 6.827709576545456e-06 6.827709576545456e-06 6.827709576545456e-06 6.827709576545456e-06 6.827709576545456e-06 6.827709576545456e-06 6.827709576545456e-06 6.827709576545456e-06 6.827709576545456e-06 6.827709576545456e-06 6.827709576545456e-06 6.827709576545456e-06 6.827709576545456e-06 6.827709576545456e-06 6.827709576545456e-06 6.827709576545456e-06 6.827709576545456e-06 0.00366648004260491 0.0009217407928336365 6.827709576545456e-06 6.827709576545456e-06 6.827709576545456e-06 6.827709576545456e-06 6.827709576545456e-06 6.827709576545456e-06 6.827709576545456e-06 6.827709576545456e-06 0.0009217407928336365 6.827709576545456e-06 0.0256243940407751 6.827709576545456e-06 6.827709576545456e-06 6.827709576545456e-06 0.0009217407928336365 6.827709576545456e-06 0.006411219292376184 6.827709576545456e-06 6.827709576545456e-06 6.827709576545456e-06 6.827709576545456e-06 6.827709576545456e-06 6.827709576545456e-06 6.827709576545456e-06 6.827709576545456e-06 6.827709576545456e-06 6.827709576545456e-06 6.827709576545456e-06 0.01007087162540455 0.007326132375633275 6.827709576545456e-06 0.006411219292376184 6.827709576545456e-06 6.827709576545456e-06 6.827709576545456e-06 6.827709576545456e-06 0.001836653876090728 6.827709576545456e-06 0.004581393125862002 6.827709576545456e-06 6.827709576545456e-06 6.827709576545456e-06 0.0009217407928336365 0.001836653876090728 6.827709576545456e-06 6.827709576545456e-06 6.827709576545456e-06 6.827709576545456e-06 6.827709576545456e-06 6.827709576545456e-06 6.827709576545456e-06 6.827709576545456e-06 6.827709576545456e-06 6.827709576545456e-06 6.827709576545456e-06 6.827709576545456e-06 6.827709576545456e-06 6.827709576545456e-06 6.827709576545456e-06 6.827709576545456e-06 6.827709576545456e-06 0.001836653876090728 6.827709576545456e-06 0.001836653876090728 6.827709576545456e-06 6.827709576545456e-06 6.827709576545456e-06 6.827709576545456e-06 6.827709576545456e-06 6.827709576545456e-06 6.827709576545456e-06 0.01647526320820418 0.05490161270500202 6.827709576545456e-06 6.827709576545456e-06 0.007326132375633275 0.03477352487334601 6.827709576545456e-06 6.827709576545456e-06 6.827709576545456e-06 6.827709576545456e-06 0.0009217407928336365 6.827709576545456e-06 6.827709576545456e-06 0.06039109120454456 6.827709576545456e-06 0.001836653876090728 6.827709576545456e-06 0.0009217407928336365 0.02745422020728928 6.827709576545456e-06 6.827709576545456e-06 0.01464543704169 0.225075446190821 0.145478007947454 6.827709576545456e-06 0.01556035012494709 0.004581393125862002 0.02836913329054637 0.03477352487334601 6.827709576545456e-06 0.03660335103986019 0.00366648004260491 0.01190069779191873 0.1820745312777377 0.001836653876090728 6.827709576545456e-06 0.01190069779191873 6.827709576545456e-06 6.827709576545456e-06 0.002751566959347819 6.827709576545456e-06 0.003731343283582109 0.003731343283582109 0.003731343283582109 0.003731343283582109 0.003731343283582109 0.003731343283582109 0.003731343283582109 0.003731343283582109 0.003731343283582109 0.003731343283582109 0.003731343283582109 0.003731343283582109 0.003731343283582109 0.003731343283582109 0.003731343283582109 0.003731343283582109 0.003731343283582109 0.003731343283582109 0.5037313432835847 0.003731343283582109 0.003731343283582109 0.003731343283582109 0.003731343283582109 0.003731343283582109 0.003731343283582109 0.003731343283582109 0.003731343283582109 0.003731343283582109 0.003731343283582109 0.003731343283582109 0.003731343283582109 0.003731343283582109 0.003731343283582109 0.003731343283582109 0.003731343283582109 0.003731343283582109 0.003731343283582109 0.003731343283582109 0.003731343283582109 0.003731343283582109 0.003731343283582109 0.003731343283582109 0.003731343283582109 0.003731343283582109 0.003731343283582109 0.003731343283582109 0.003731343283582109 0.003731343283582109 0.003731343283582109 0.003731343283582109 0.003731343283582109 0.003731343283582109 0.003731343283582109 0.003731343283582109 0.003731343283582109 0.003731343283582109 0.003731343283582109 0.003731343283582109 0.003731343283582109 0.003731343283582109 0.003731343283582109 0.003731343283582109 0.003731343283582109 0.003731343283582109 0.003731343283582109 0.003731343283582109 0.003731343283582109 0.003731343283582109 0.003731343283582109 0.003731343283582109 0.003731343283582109 0.003731343283582109 0.003731343283582109 0.003731343283582109 0.003731343283582109 0.003731343283582109 0.003731343283582109 0.003731343283582109 0.003731343283582109 0.003731343283582109 0.003731343283582109 0.003731343283582109 0.003731343283582109 0.003731343283582109 0.003731343283582109 0.003731343283582109 0.003731343283582109 0.003731343283582109 0.003731343283582109 0.003731343283582109 0.003731343283582109 0.003731343283582109 0.003731343283582109 0.003731343283582109 0.003731343283582109 0.003731343283582109 0.003731343283582109 0.003731343283582109 0.003731343283582109 0.003731343283582109 0.003731343283582109 0.003731343283582109 0.003731343283582109 0.003731343283582109 0.003731343283582109 0.003731343283582109 0.003731343283582109 0.003731343283582109 0.003731343283582109 0.003731343283582109 0.003731343283582109 0.003731343283582109 0.003731343283582109 0.003731343283582109 0.003731343283582109 0.003731343283582109 0.003731343283582109 0.003731343283582109 0.003731343283582109 0.003731343283582109 0.003731343283582109 0.003731343283582109 0.003731343283582109 0.003731343283582109 0.003731343283582109 0.003731343283582109 0.003731343283582109 0.003731343283582109 0.003731343283582109 0.003731343283582109 0.003731343283582109 0.003731343283582109 0.003731343283582109 0.003731343283582109 6.244925997626947e-06 6.244925997626947e-06 0.005863985511771704 6.244925997626947e-06 0.0008430650096796378 0.001679885093361649 6.244925997626947e-06 6.244925997626947e-06 6.244925997626947e-06 6.244925997626947e-06 6.244925997626947e-06 0.003353525260725671 0.02176356710172991 6.244925997626947e-06 0.0008430650096796378 0.01841628676700187 6.244925997626947e-06 6.244925997626947e-06 6.244925997626947e-06 0.005027165428089692 6.244925997626947e-06 0.001679885093361649 6.244925997626947e-06 6.244925997626947e-06 6.244925997626947e-06 6.244925997626947e-06 6.244925997626947e-06 6.244925997626947e-06 0.00251670517704366 6.244925997626947e-06 6.244925997626947e-06 6.244925997626947e-06 6.244925997626947e-06 0.01590582651595583 0.3464497595703502 6.244925997626947e-06 6.244925997626947e-06 6.244925997626947e-06 6.244925997626947e-06 0.005863985511771704 0.007537625679135725 0.0008430650096796378 6.244925997626947e-06 0.0008430650096796378 0.0008430650096796378 6.244925997626947e-06 6.244925997626947e-06 6.244925997626947e-06 6.244925997626947e-06 6.244925997626947e-06 6.244925997626947e-06 0.01088490601386377 6.244925997626947e-06 6.244925997626947e-06 0.01255854618122779 0.06193093111846644 6.244925997626947e-06 6.244925997626947e-06 6.244925997626947e-06 6.244925997626947e-06 6.244925997626947e-06 0.03264222818959606 6.244925997626947e-06 0.004190345344407682 6.244925997626947e-06 6.244925997626947e-06 6.244925997626947e-06 6.244925997626947e-06 6.244925997626947e-06 0.005027165428089692 6.244925997626947e-06 0.0008430650096796378 0.0008430650096796378 6.244925997626947e-06 0.00251670517704366 0.005027165428089692 0.0008430650096796378 0.1606757009929437 0.007537625679135725 0.007537625679135725 0.01088490601386377 0.0008430650096796378 0.006700805595453715 0.005863985511771704 0.001679885093361649 6.244925997626947e-06 0.003353525260725671 0.0008430650096796378 0.04854180977955426 6.244925997626947e-06 0.003353525260725671 6.244925997626947e-06 6.244925997626947e-06 0.1305501779803913 6.244925997626947e-06 0.001679885093361649 6.244925997626947e-06 0.004190345344407682 6.244925997626947e-06 6.244925997626947e-06 6.244925997626947e-06 6.244925997626947e-06 0.01172172609754578 6.244925997626947e-06 0.01088490601386377 6.244925997626947e-06 6.244925997626947e-06 0.0008430650096796378 6.244925997626947e-06 6.244925997626947e-06 0.00251670517704366 6.244925997626947e-06 0.001679885093361649 6.244925997626947e-06 6.244925997626947e-06 6.244925997626947e-06 6.244925997626947e-06 6.244925997626947e-06 6.244925997626947e-06 6.244925997626947e-06 6.244925997626947e-06 6.244925997626947e-06 6.244925997626947e-06 6.244925997626947e-06 6.244925997626947e-06 6.244925997626947e-06 6.244925997626947e-06 6.244925997626947e-06 6.244925997626947e-06 6.244925997626947e-06 6.244925997626947e-06 6.244925997626947e-06 6.244925997626947e-06 6.244925997626947e-06 0.0004389815627743661 0.0004389815627743661 0.0004389815627743661 0.0004389815627743661 0.0004389815627743661 0.0004389815627743661 0.0004389815627743661 0.0004389815627743661 0.0004389815627743661 0.0004389815627743661 0.0004389815627743661 0.0004389815627743661 0.0004389815627743661 0.0004389815627743661 0.0004389815627743661 0.0004389815627743661 0.0004389815627743661 0.0004389815627743661 0.0004389815627743661 0.0004389815627743661 0.0004389815627743661 0.0004389815627743661 0.0004389815627743661 0.0004389815627743661 0.0004389815627743661 0.0004389815627743661 0.0004389815627743661 0.0004389815627743661 0.0004389815627743661 0.0004389815627743661 0.0004389815627743661 0.8239683933274852 0.0004389815627743661 0.0004389815627743661 0.0004389815627743661 0.0004389815627743661 0.0004389815627743661 0.0004389815627743661 0.0004389815627743661 0.0004389815627743661 0.0004389815627743661 0.0004389815627743661 0.0004389815627743661 0.0004389815627743661 0.0004389815627743661 0.0004389815627743661 0.0004389815627743661 0.0004389815627743661 0.0004389815627743661 0.0004389815627743661 0.0004389815627743661 0.0004389815627743661 0.0004389815627743661 0.0004389815627743661 0.0004389815627743661 0.0004389815627743661 0.0004389815627743661 0.0004389815627743661 0.0004389815627743661 0.0004389815627743661 0.0004389815627743661 0.0004389815627743661 0.0004389815627743661 0.0004389815627743661 0.0004389815627743661 0.0004389815627743661 0.1180860403863045 0.0004389815627743661 0.0004389815627743661 0.0004389815627743661 0.0004389815627743661 0.0004389815627743661 0.0004389815627743661 0.0004389815627743661 0.0004389815627743661 0.0004389815627743661 0.0004389815627743661 0.0004389815627743661 0.0004389815627743661 0.0004389815627743661 0.0004389815627743661 0.0004389815627743661 0.0004389815627743661 0.0004389815627743661 0.0004389815627743661 0.0004389815627743661 0.0004389815627743661 0.0004389815627743661 0.0004389815627743661 0.0004389815627743661 0.0004389815627743661 0.0004389815627743661 0.0004389815627743661 0.0004389815627743661 0.0004389815627743661 0.0004389815627743661 0.0004389815627743661 0.0004389815627743661 0.0004389815627743661 0.0004389815627743661 0.0004389815627743661 0.0004389815627743661 0.0004389815627743661 0.0004389815627743661 0.0004389815627743661 0.0004389815627743661 0.0004389815627743661 0.0004389815627743661 0.0004389815627743661 0.0004389815627743661 0.0004389815627743661 0.0004389815627743661 0.0004389815627743661 0.0004389815627743661 0.0004389815627743661 0.0004389815627743661 0.0004389815627743661 0.0004389815627743661 0.0004389815627743661 0.0004389815627743661 0.0004389815627743661 0.0004389815627743661 0.0004389815627743661 0.0004389815627743661 0.0004389815627743661 0.0004389815627743661 0.0004389815627743661 0.0004389815627743661 0.0004389815627743661 0.0004389815627743661 0.0004389815627743661 0.0004389815627743661 0.0004389815627743661 0.0004389815627743661 5.696707303178759e-06 0.01221943716531844 5.696707303178759e-06 0.1091660020508145 0.003822490600432947 0.003822490600432947 0.1167995898370741 5.696707303178759e-06 0.01298279594394439 5.696707303178759e-06 5.696707303178759e-06 5.696707303178759e-06 5.696707303178759e-06 5.696707303178759e-06 5.696707303178759e-06 5.696707303178759e-06 5.696707303178759e-06 5.696707303178759e-06 5.696707303178759e-06 5.696707303178759e-06 5.696707303178759e-06 5.696707303178759e-06 0.003059131821806994 5.696707303178759e-06 5.696707303178759e-06 5.696707303178759e-06 5.696707303178759e-06 5.696707303178759e-06 5.696707303178759e-06 5.696707303178759e-06 5.696707303178759e-06 5.696707303178759e-06 0.01756294861570011 5.696707303178759e-06 5.696707303178759e-06 5.696707303178759e-06 5.696707303178759e-06 5.696707303178759e-06 0.006875925714936761 5.696707303178759e-06 5.696707303178759e-06 5.696707303178759e-06 5.696707303178759e-06 5.696707303178759e-06 5.696707303178759e-06 5.696707303178759e-06 5.696707303178759e-06 5.696707303178759e-06 5.696707303178759e-06 5.696707303178759e-06 5.696707303178759e-06 5.696707303178759e-06 0.0007690554859291324 0.01985302495157797 5.696707303178759e-06 5.696707303178759e-06 5.696707303178759e-06 5.696707303178759e-06 5.696707303178759e-06 5.696707303178759e-06 0.001532414264555086 5.696707303178759e-06 5.696707303178759e-06 5.696707303178759e-06 5.696707303178759e-06 5.696707303178759e-06 0.003059131821806994 0.004585849379058901 5.696707303178759e-06 5.696707303178759e-06 5.696707303178759e-06 5.696707303178759e-06 5.696707303178759e-06 5.696707303178759e-06 5.696707303178759e-06 5.696707303178759e-06 5.696707303178759e-06 5.696707303178759e-06 5.696707303178759e-06 5.696707303178759e-06 5.696707303178759e-06 5.696707303178759e-06 5.696707303178759e-06 5.696707303178759e-06 5.696707303178759e-06 5.696707303178759e-06 5.696707303178759e-06 5.696707303178759e-06 5.696707303178759e-06 5.696707303178759e-06 5.696707303178759e-06 5.696707303178759e-06 5.696707303178759e-06 5.696707303178759e-06 5.696707303178759e-06 5.696707303178759e-06 5.696707303178759e-06 5.696707303178759e-06 5.696707303178759e-06 5.696707303178759e-06 5.696707303178759e-06 5.696707303178759e-06 5.696707303178759e-06 5.696707303178759e-06 5.696707303178759e-06 5.696707303178759e-06 5.696707303178759e-06 5.696707303178759e-06 5.696707303178759e-06 5.696707303178759e-06 5.696707303178759e-06 5.696707303178759e-06 5.696707303178759e-06 5.696707303178759e-06 0.0244331776233337 0.462601116554631 0.04962401731799017 0.003822490600432947 0.04428050586760849 5.696707303178759e-06 5.696707303178759e-06 5.696707303178759e-06 5.696707303178759e-06 5.696707303178759e-06 5.696707303178759e-06 0.006112566936310808 0.07405149823402069 5.696707303178759e-06 0.0007690554859291324 0.01374615472257034 0.001532414264555086 5.696707303178759e-06 0.0007690554859291324 0.001532414264555086 0.0002487562189054727 0.0002487562189054727 0.0002487562189054727 0.0002487562189054727 0.0002487562189054727 0.0002487562189054727 0.0002487562189054727 0.0002487562189054727 0.0002487562189054727 0.0002487562189054727 0.0002487562189054727 0.0002487562189054727 0.0002487562189054727 0.0002487562189054727 0.0002487562189054727 0.0002487562189054727 0.0002487562189054727 0.0002487562189054727 0.0002487562189054727 0.0002487562189054727 0.06691542288557217 0.0002487562189054727 0.0002487562189054727 0.0002487562189054727 0.0002487562189054727 0.0002487562189054727 0.0002487562189054727 0.0002487562189054727 0.0002487562189054727 0.06691542288557217 0.0002487562189054727 0.0002487562189054727 0.0002487562189054727 0.0002487562189054727 0.0002487562189054727 0.0002487562189054727 0.0002487562189054727 0.0002487562189054727 0.0002487562189054727 0.0002487562189054727 0.0002487562189054727 0.0002487562189054727 0.0002487562189054727 0.0002487562189054727 0.0002487562189054727 0.0002487562189054727 0.0002487562189054727 0.0002487562189054727 0.0002487562189054727 0.0002487562189054727 0.0002487562189054727 0.0002487562189054727 0.0002487562189054727 0.0002487562189054727 0.0002487562189054727 0.0002487562189054727 0.0002487562189054727 0.0002487562189054727 0.0002487562189054727 0.0002487562189054727 0.0002487562189054727 0.0002487562189054727 0.0002487562189054727 0.0002487562189054727 0.0002487562189054727 0.0002487562189054727 0.0002487562189054727 0.0002487562189054727 0.0002487562189054727 0.0002487562189054727 0.0002487562189054727 0.0002487562189054727 0.0002487562189054727 0.0002487562189054727 0.0002487562189054727 0.0002487562189054727 0.0002487562189054727 0.0002487562189054727 0.0002487562189054727 0.0002487562189054727 0.0002487562189054727 0.0002487562189054727 0.0002487562189054727 0.0002487562189054727 0.0002487562189054727 0.0002487562189054727 0.0002487562189054727 0.0002487562189054727 0.0002487562189054727 0.0002487562189054727 0.0002487562189054727 0.0002487562189054727 0.0002487562189054727 0.0002487562189054727 0.0002487562189054727 0.0002487562189054727 0.0002487562189054727 0.0002487562189054727 0.0002487562189054727 0.0002487562189054727 0.0002487562189054727 0.0002487562189054727 0.0002487562189054727 0.0002487562189054727 0.0002487562189054727 0.0002487562189054727 0.0002487562189054727 0.0002487562189054727 0.0002487562189054727 0.0002487562189054727 0.0002487562189054727 0.0002487562189054727 0.0002487562189054727 0.0002487562189054727 0.0002487562189054727 0.0002487562189054727 0.0002487562189054727 0.0002487562189054727 0.0002487562189054727 0.0002487562189054727 0.8002487562189058 0.0002487562189054727 0.03358208955223882 0.0002487562189054727 0.0002487562189054727 0.0002487562189054727 0.0002487562189054727 0.0002487562189054727 0.0002487562189054727 0.0002487562189054727 0.0002487562189054727 0.0002487562189054727 0.0002487562189054727 0.0002487562189054727 6.929142587896187e-06 6.929142587896187e-06 6.929142587896187e-06 6.929142587896187e-06 6.929142587896187e-06 6.929142587896187e-06 6.929142587896187e-06 6.929142587896187e-06 6.929142587896187e-06 6.929142587896187e-06 6.929142587896187e-06 0.01300600063748114 6.929142587896187e-06 6.929142587896187e-06 6.929142587896187e-06 6.929142587896187e-06 0.009291980210368787 6.929142587896187e-06 6.929142587896187e-06 6.929142587896187e-06 6.929142587896187e-06 6.929142587896187e-06 6.929142587896187e-06 0.003720949569700253 6.929142587896187e-06 0.0009354342493659851 6.929142587896187e-06 6.929142587896187e-06 0.0167200210645935 6.929142587896187e-06 6.929142587896187e-06 6.929142587896187e-06 6.929142587896187e-06 0.007434969996812609 6.929142587896187e-06 6.929142587896187e-06 6.929142587896187e-06 6.929142587896187e-06 6.929142587896187e-06 0.009291980210368787 0.01764852617137158 6.929142587896187e-06 6.929142587896187e-06 6.929142587896187e-06 6.929142587896187e-06 0.0009354342493659851 6.929142587896187e-06 6.929142587896187e-06 6.929142587896187e-06 6.929142587896187e-06 6.929142587896187e-06 6.929142587896187e-06 6.929142587896187e-06 0.03250460787982101 0.01300600063748114 6.929142587896187e-06 0.001863939356144074 6.929142587896187e-06 6.929142587896187e-06 6.929142587896187e-06 6.929142587896187e-06 0.008363475103590697 0.01114899042392496 6.929142587896187e-06 6.929142587896187e-06 6.929142587896187e-06 6.929142587896187e-06 0.002792444462922164 0.004649454676478341 6.929142587896187e-06 0.0009354342493659851 6.929142587896187e-06 6.929142587896187e-06 0.0009354342493659851 6.929142587896187e-06 6.929142587896187e-06 6.929142587896187e-06 0.1912789811388742 0.01579151595781541 0.09564295514073107 6.929142587896187e-06 6.929142587896187e-06 0.004649454676478341 0.03064759766626484 0.005577959783256431 0.009291980210368787 0.01300600063748114 6.929142587896187e-06 0.02321955681204012 0.0009354342493659851 0.01950553638492776 0.006506464890034519 0.004649454676478341 6.929142587896187e-06 0.09100042960684063 6.929142587896187e-06 0.003720949569700253 0.06964481215094458 0.1550672819745287 6.929142587896187e-06 6.929142587896187e-06 0.0009354342493659851 0.01579151595781541 0.001863939356144074 0.003720949569700253 0.002792444462922164 0.01764852617137158 6.929142587896187e-06 6.929142587896187e-06 6.929142587896187e-06 0.003720949569700253 0.05478873044249515 0.001863939356144074 0.0009354342493659851 6.929142587896187e-06 6.929142587896187e-06 6.929142587896187e-06 6.929142587896187e-06 6.929142587896187e-06 6.929142587896187e-06 6.929142587896187e-06 6.929142587896187e-06 6.929142587896187e-06 6.929142587896187e-06 6.929142587896187e-06 6.929142587896187e-06 6.929142587896187e-06 6.929142587896187e-06 6.929142587896187e-06 6.929142587896187e-06 6.929142587896187e-06 6.929142587896187e-06 6.929142587896187e-06 6.929142587896187e-06 0.003731343283582109 0.003731343283582109 0.003731343283582109 0.003731343283582109 0.003731343283582109 0.003731343283582109 0.003731343283582109 0.003731343283582109 0.003731343283582109 0.003731343283582109 0.003731343283582109 0.003731343283582109 0.003731343283582109 0.003731343283582109 0.003731343283582109 0.003731343283582109 0.003731343283582109 0.003731343283582109 0.003731343283582109 0.003731343283582109 0.003731343283582109 0.5037313432835846 0.003731343283582109 0.003731343283582109 0.003731343283582109 0.003731343283582109 0.003731343283582109 0.003731343283582109 0.003731343283582109 0.003731343283582109 0.003731343283582109 0.003731343283582109 0.003731343283582109 0.003731343283582109 0.003731343283582109 0.003731343283582109 0.003731343283582109 0.003731343283582109 0.003731343283582109 0.003731343283582109 0.003731343283582109 0.003731343283582109 0.003731343283582109 0.003731343283582109 0.003731343283582109 0.003731343283582109 0.003731343283582109 0.003731343283582109 0.003731343283582109 0.003731343283582109 0.003731343283582109 0.003731343283582109 0.003731343283582109 0.003731343283582109 0.003731343283582109 0.003731343283582109 0.003731343283582109 0.003731343283582109 0.003731343283582109 0.003731343283582109 0.003731343283582109 0.003731343283582109 0.003731343283582109 0.003731343283582109 0.003731343283582109 0.003731343283582109 0.003731343283582109 0.003731343283582109 0.003731343283582109 0.003731343283582109 0.003731343283582109 0.003731343283582109 0.003731343283582109 0.003731343283582109 0.003731343283582109 0.003731343283582109 0.003731343283582109 0.003731343283582109 0.003731343283582109 0.003731343283582109 0.003731343283582109 0.003731343283582109 0.003731343283582109 0.003731343283582109 0.003731343283582109 0.003731343283582109 0.003731343283582109 0.003731343283582109 0.003731343283582109 0.003731343283582109 0.003731343283582109 0.003731343283582109 0.003731343283582109 0.003731343283582109 0.003731343283582109 0.003731343283582109 0.003731343283582109 0.003731343283582109 0.003731343283582109 0.003731343283582109 0.003731343283582109 0.003731343283582109 0.003731343283582109 0.003731343283582109 0.003731343283582109 0.003731343283582109 0.003731343283582109 0.003731343283582109 0.003731343283582109 0.003731343283582109 0.003731343283582109 0.003731343283582109 0.003731343283582109 0.003731343283582109 0.003731343283582109 0.003731343283582109 0.003731343283582109 0.003731343283582109 0.003731343283582109 0.003731343283582109 0.003731343283582109 0.003731343283582109 0.003731343283582109 0.003731343283582109 0.003731343283582109 0.003731343283582109 0.003731343283582109 0.003731343283582109 0.003731343283582109 0.003731343283582109 0.003731343283582109 0.003731343283582109 0.003731343283582109 0.003731343283582109 0.007662681995840124 0.01455395305250171 0.003834198075472575 0.3039873374322884 5.714155105026192e-06 5.714155105026192e-06 0.03522776622248647 0.0007714109391785359 0.0137882562684282 0.002302804507325556 0.006896985211766614 5.714155105026192e-06 0.02067952732508979 0.0007714109391785359 0.006896985211766614 0.02603940481360436 0.02450801124545734 0.003834198075472575 5.714155105026192e-06 5.714155105026192e-06 5.714155105026192e-06 5.714155105026192e-06 5.714155105026192e-06 0.004599894859546085 5.714155105026192e-06 5.714155105026192e-06 0.005365591643619595 0.002302804507325556 5.714155105026192e-06 0.003068501291399065 5.714155105026192e-06 0.006131288427693104 5.714155105026192e-06 5.714155105026192e-06 0.09418641859614672 0.001537107723252046 5.714155105026192e-06 0.0007714109391785359 5.714155105026192e-06 5.714155105026192e-06 5.714155105026192e-06 5.714155105026192e-06 5.714155105026192e-06 5.714155105026192e-06 5.714155105026192e-06 5.714155105026192e-06 0.0007714109391785359 5.714155105026192e-06 5.714155105026192e-06 5.714155105026192e-06 0.006131288427693104 5.714155105026192e-06 5.714155105026192e-06 5.714155105026192e-06 0.005365591643619595 0.08040387648282354 5.714155105026192e-06 0.007662681995840124 5.714155105026192e-06 0.0007714109391785359 5.714155105026192e-06 5.714155105026192e-06 5.714155105026192e-06 5.714155105026192e-06 5.714155105026192e-06 5.714155105026192e-06 0.001537107723252046 5.714155105026192e-06 0.003068501291399065 5.714155105026192e-06 5.714155105026192e-06 5.714155105026192e-06 5.714155105026192e-06 5.714155105026192e-06 5.714155105026192e-06 5.714155105026192e-06 5.714155105026192e-06 5.714155105026192e-06 5.714155105026192e-06 5.714155105026192e-06 5.714155105026192e-06 5.714155105026192e-06 5.714155105026192e-06 5.714155105026192e-06 5.714155105026192e-06 5.714155105026192e-06 5.714155105026192e-06 5.714155105026192e-06 5.714155105026192e-06 5.714155105026192e-06 5.714155105026192e-06 5.714155105026192e-06 5.714155105026192e-06 5.714155105026192e-06 5.714155105026192e-06 5.714155105026192e-06 5.714155105026192e-06 5.714155105026192e-06 5.714155105026192e-06 5.714155105026192e-06 5.714155105026192e-06 5.714155105026192e-06 5.714155105026192e-06 5.714155105026192e-06 5.714155105026192e-06 5.714155105026192e-06 5.714155105026192e-06 5.714155105026192e-06 5.714155105026192e-06 5.714155105026192e-06 5.714155105026192e-06 5.714155105026192e-06 5.714155105026192e-06 5.714155105026192e-06 5.714155105026192e-06 0.1462537999131454 0.05973006331283879 5.714155105026192e-06 0.003834198075472575 5.714155105026192e-06 0.05743297296061826 0.01838243697286926 0.001537107723252046 0.001537107723252046 5.714155105026192e-06 0.01149116591620767 5.714155105026192e-06 0.0007714109391785359 0.002302804507325556 5.714155105026192e-06 5.714155105026192e-06 0.0007714109391785359 5.714155105026192e-06 5.714155105026192e-06 2.339400177794416e-05 2.339400177794416e-05 2.339400177794416e-05 2.339400177794416e-05 2.339400177794416e-05 2.339400177794416e-05 2.339400177794416e-05 2.339400177794416e-05 2.339400177794416e-05 2.339400177794416e-05 2.339400177794416e-05 2.339400177794416e-05 2.339400177794416e-05 2.339400177794416e-05 2.339400177794416e-05 2.339400177794416e-05 2.339400177794416e-05 2.339400177794416e-05 2.339400177794416e-05 0.009427782716511495 2.339400177794416e-05 2.339400177794416e-05 2.339400177794416e-05 2.339400177794416e-05 2.339400177794416e-05 2.339400177794416e-05 2.339400177794416e-05 2.339400177794416e-05 0.02510176390773408 2.339400177794416e-05 2.339400177794416e-05 2.339400177794416e-05 2.339400177794416e-05 2.339400177794416e-05 2.339400177794416e-05 2.339400177794416e-05 2.339400177794416e-05 2.339400177794416e-05 2.339400177794416e-05 2.339400177794416e-05 0.006292986478266979 2.339400177794416e-05 2.339400177794416e-05 2.339400177794416e-05 2.339400177794416e-05 2.339400177794416e-05 2.339400177794416e-05 0.003158190240022461 2.339400177794416e-05 0.05331493005193473 2.339400177794416e-05 2.339400177794416e-05 2.339400177794416e-05 2.339400177794416e-05 2.339400177794416e-05 2.339400177794416e-05 2.339400177794416e-05 2.339400177794416e-05 2.339400177794416e-05 2.339400177794416e-05 2.339400177794416e-05 2.339400177794416e-05 0.003158190240022461 0.003158190240022461 2.339400177794416e-05 2.339400177794416e-05 2.339400177794416e-05 2.339400177794416e-05 2.339400177794416e-05 2.339400177794416e-05 2.339400177794416e-05 2.339400177794416e-05 2.339400177794416e-05 2.339400177794416e-05 2.339400177794416e-05 2.339400177794416e-05 2.339400177794416e-05 2.339400177794416e-05 2.339400177794416e-05 2.339400177794416e-05 2.339400177794416e-05 2.339400177794416e-05 2.339400177794416e-05 2.339400177794416e-05 2.339400177794416e-05 0.01569737519300053 0.03137135638422311 2.339400177794416e-05 0.03764094886071215 2.339400177794416e-05 0.003158190240022461 0.01883217143124505 2.339400177794416e-05 0.05331493005193473 0.3918729237823426 2.339400177794416e-05 2.339400177794416e-05 2.339400177794416e-05 0.05331493005193473 0.003158190240022461 0.003158190240022461 2.339400177794416e-05 0.009427782716511495 0.01569737519300053 2.339400177794416e-05 2.339400177794416e-05 2.339400177794416e-05 2.339400177794416e-05 2.339400177794416e-05 2.339400177794416e-05 2.339400177794416e-05 2.339400177794416e-05 2.339400177794416e-05 2.339400177794416e-05 2.339400177794416e-05 2.339400177794416e-05 2.339400177794416e-05 2.339400177794416e-05 2.339400177794416e-05 2.339400177794416e-05 2.339400177794416e-05 2.339400177794416e-05 2.339400177794416e-05 2.339400177794416e-05 0.009427782716511495 2.339400177794416e-05 0.01256257895475601 2.339400177794416e-05 0.0658541150049128 0.1536284096757593 2.339400177794416e-05 0.003158190240022461 0.01256257895475601 2.339400177794416e-05 6.974473427256235e-05 6.974473427256235e-05 6.974473427256235e-05 6.974473427256235e-05 6.974473427256235e-05 6.974473427256235e-05 6.974473427256235e-05 6.974473427256235e-05 6.974473427256235e-05 6.974473427256235e-05 6.974473427256235e-05 6.974473427256235e-05 6.974473427256235e-05 6.974473427256235e-05 6.974473427256235e-05 6.974473427256235e-05 6.974473427256235e-05 6.974473427256235e-05 0.009415539126795916 6.974473427256235e-05 6.974473427256235e-05 6.974473427256235e-05 6.974473427256235e-05 6.974473427256235e-05 0.009415539126795916 6.974473427256235e-05 6.974473427256235e-05 6.974473427256235e-05 6.974473427256235e-05 6.974473427256235e-05 0.03745292230436598 6.974473427256235e-05 0.02810712791184263 6.974473427256235e-05 6.974473427256235e-05 6.974473427256235e-05 0.009415539126795916 6.974473427256235e-05 6.974473427256235e-05 6.974473427256235e-05 6.974473427256235e-05 6.974473427256235e-05 0.04679871669688934 6.974473427256235e-05 6.974473427256235e-05 6.974473427256235e-05 6.974473427256235e-05 6.974473427256235e-05 0.009415539126795916 6.974473427256235e-05 6.974473427256235e-05 0.009415539126795916 6.974473427256235e-05 6.974473427256235e-05 6.974473427256235e-05 6.974473427256235e-05 6.974473427256235e-05 6.974473427256235e-05 0.09352768865950611 6.974473427256235e-05 0.1776398381922163 6.974473427256235e-05 6.974473427256235e-05 6.974473427256235e-05 6.974473427256235e-05 6.974473427256235e-05 6.974473427256235e-05 0.01876133351931927 6.974473427256235e-05 6.974473427256235e-05 6.974473427256235e-05 6.974473427256235e-05 6.974473427256235e-05 6.974473427256235e-05 0.009415539126795916 6.974473427256235e-05 6.974473427256235e-05 6.974473427256235e-05 0.1496024550146462 6.974473427256235e-05 6.974473427256235e-05 6.974473427256235e-05 6.974473427256235e-05 6.974473427256235e-05 6.974473427256235e-05 6.974473427256235e-05 6.974473427256235e-05 6.974473427256235e-05 6.974473427256235e-05 6.974473427256235e-05 6.974473427256235e-05 6.974473427256235e-05 6.974473427256235e-05 6.974473427256235e-05 6.974473427256235e-05 6.974473427256235e-05 6.974473427256235e-05 6.974473427256235e-05 6.974473427256235e-05 6.974473427256235e-05 6.974473427256235e-05 6.974473427256235e-05 6.974473427256235e-05 6.974473427256235e-05 0.04679871669688934 0.009415539126795916 0.2804435765099732 6.974473427256235e-05 0.009415539126795916 0.01876133351931927 6.974473427256235e-05 6.974473427256235e-05 0.009415539126795916 0.009415539126795916 6.974473427256235e-05 6.974473427256235e-05 6.974473427256235e-05 6.974473427256235e-05 6.974473427256235e-05 6.974473427256235e-05 6.974473427256235e-05 6.974473427256235e-05 6.974473427256235e-05 6.974473427256235e-05 6.974473427256235e-05 6.974473427256235e-05 6.974473427256235e-05 6.974473427256235e-05 6.974473427256235e-05 6.974473427256235e-05 6.974473427256235e-05 6.974473427256235e-05 6.974473427256235e-05 6.974473427256235e-05 1.215421265010455e-05 1.215421265010455e-05 1.215421265010455e-05 0.149849287763139 1.215421265010455e-05 1.215421265010455e-05 0.1026180174048327 1.215421265010455e-05 0.003269483202878125 0.01141280567844817 0.01141280567844817 0.0162987991637902 0.2426831639846375 1.215421265010455e-05 1.215421265010455e-05 0.02281345714424624 1.215421265010455e-05 0.02118479264913223 1.215421265010455e-05 0.008155476688220155 0.001640818707764114 1.215421265010455e-05 1.215421265010455e-05 1.215421265010455e-05 1.215421265010455e-05 1.215421265010455e-05 1.215421265010455e-05 1.215421265010455e-05 1.215421265010455e-05 0.02444212163936025 1.215421265010455e-05 0.01955612815401822 1.215421265010455e-05 1.215421265010455e-05 1.215421265010455e-05 0.006526812193106144 1.215421265010455e-05 0.003269483202878125 1.215421265010455e-05 1.215421265010455e-05 1.215421265010455e-05 1.215421265010455e-05 1.215421265010455e-05 1.215421265010455e-05 1.215421265010455e-05 1.215421265010455e-05 1.215421265010455e-05 1.215421265010455e-05 1.215421265010455e-05 0.01467013466867619 0.01304147017356218 1.215421265010455e-05 0.006526812193106144 1.215421265010455e-05 1.215421265010455e-05 1.215421265010455e-05 1.215421265010455e-05 0.003269483202878125 1.215421265010455e-05 0.0162987991637902 1.215421265010455e-05 1.215421265010455e-05 1.215421265010455e-05 0.003269483202878125 0.001640818707764114 1.215421265010455e-05 1.215421265010455e-05 1.215421265010455e-05 1.215421265010455e-05 1.215421265010455e-05 1.215421265010455e-05 1.215421265010455e-05 0.001640818707764114 1.215421265010455e-05 1.215421265010455e-05 0.01141280567844817 1.215421265010455e-05 0.08470270795857862 1.215421265010455e-05 0.1661359327142791 1.215421265010455e-05 1.215421265010455e-05 0.001640818707764114 1.215421265010455e-05 1.215421265010455e-05 1.215421265010455e-05 1.215421265010455e-05 1.215421265010455e-05 1.215421265010455e-05 1.215421265010455e-05 1.215421265010455e-05 1.215421265010455e-05 0.009784141183334163 1.215421265010455e-05 1.215421265010455e-05 1.215421265010455e-05 0.01955612815401822 1.215421265010455e-05 1.215421265010455e-05 1.215421265010455e-05 1.215421265010455e-05 1.215421265010455e-05 1.215421265010455e-05 1.215421265010455e-05 1.215421265010455e-05 1.215421265010455e-05 1.215421265010455e-05 1.215421265010455e-05 1.215421265010455e-05 1.215421265010455e-05 1.215421265010455e-05 1.215421265010455e-05 1.215421265010455e-05 1.215421265010455e-05 1.215421265010455e-05 1.215421265010455e-05 1.215421265010455e-05 1.215421265010455e-05 1.215421265010455e-05 1.215421265010455e-05 1.215421265010455e-05 1.215421265010455e-05 1.215421265010455e-05 1.215421265010455e-05 1.215421265010455e-05 1.215421265010455e-05 1.215421265010455e-05 1.215421265010455e-05 1.215421265010455e-05 1.215421265010455e-05 1.215421265010455e-05 1.215421265010455e-05 1.215421265010455e-05 1.215421265010455e-05 4.338771259979205e-05 4.338771259979205e-05 4.338771259979205e-05 4.338771259979205e-05 4.338771259979205e-05 4.338771259979205e-05 4.338771259979205e-05 4.338771259979205e-05 4.338771259979205e-05 4.338771259979205e-05 4.338771259979205e-05 4.338771259979205e-05 4.338771259979205e-05 4.338771259979205e-05 4.338771259979205e-05 4.338771259979205e-05 4.338771259979205e-05 4.338771259979205e-05 4.338771259979205e-05 4.338771259979205e-05 4.338771259979205e-05 4.338771259979205e-05 4.338771259979205e-05 0.02329920166608833 0.005857341200971926 4.338771259979205e-05 4.338771259979205e-05 4.338771259979205e-05 4.338771259979205e-05 4.338771259979205e-05 4.338771259979205e-05 4.338771259979205e-05 4.338771259979205e-05 0.01167129468934406 0.750043387712605 4.338771259979205e-05 4.338771259979205e-05 4.338771259979205e-05 4.338771259979205e-05 0.005857341200971926 4.338771259979205e-05 4.338771259979205e-05 4.338771259979205e-05 4.338771259979205e-05 4.338771259979205e-05 4.338771259979205e-05 4.338771259979205e-05 4.338771259979205e-05 4.338771259979205e-05 4.338771259979205e-05 4.338771259979205e-05 4.338771259979205e-05 4.338771259979205e-05 4.338771259979205e-05 4.338771259979205e-05 0.02329920166608833 4.338771259979205e-05 4.338771259979205e-05 4.338771259979205e-05 4.338771259979205e-05 4.338771259979205e-05 0.1512061784102753 0.02329920166608833 4.338771259979205e-05 4.338771259979205e-05 4.338771259979205e-05 4.338771259979205e-05 4.338771259979205e-05 4.338771259979205e-05 4.338771259979205e-05 4.338771259979205e-05 4.338771259979205e-05 4.338771259979205e-05 4.338771259979205e-05 4.338771259979205e-05 4.338771259979205e-05 4.338771259979205e-05 4.338771259979205e-05 4.338771259979205e-05 4.338771259979205e-05 4.338771259979205e-05 4.338771259979205e-05 4.338771259979205e-05 4.338771259979205e-05 4.338771259979205e-05 4.338771259979205e-05 4.338771259979205e-05 4.338771259979205e-05 4.338771259979205e-05 4.338771259979205e-05 4.338771259979205e-05 4.338771259979205e-05 4.338771259979205e-05 4.338771259979205e-05 4.338771259979205e-05 4.338771259979205e-05 4.338771259979205e-05 4.338771259979205e-05 4.338771259979205e-05 4.338771259979205e-05 4.338771259979205e-05 4.338771259979205e-05 4.338771259979205e-05 4.338771259979205e-05 4.338771259979205e-05 4.338771259979205e-05 4.338771259979205e-05 4.338771259979205e-05 4.338771259979205e-05 4.338771259979205e-05 4.338771259979205e-05 4.338771259979205e-05 4.338771259979205e-05 4.338771259979205e-05 4.338771259979205e-05 4.338771259979205e-05 4.338771259979205e-05 4.338771259979205e-05 4.338771259979205e-05 4.338771259979205e-05 4.338771259979205e-05 4.338771259979205e-05 4.338771259979205e-05 4.338771259979205e-05 4.338771259979205e-05 4.338771259979205e-05 4.338771259979205e-05 4.338771259979205e-05 4.338771259979205e-05 4.338771259979205e-05 4.338771259979205e-05 4.338771259979205e-05 4.338771259979205e-05 4.338771259979205e-05</probabilities>
		</cpt>
		<cpt id="currentStrongPlace">
			<state id="State0" />
			<state id="State1" />
			<parents>prevStrongPlace</parents>
			<probabilities>0.08844713339095361 0.9115528666090463 0.8335106382978723 0.1664893617021277</probabilities>
		</cpt>
		<cpt id="nextNote">
			<state id="S0" />
			<state id="S0_" />
			<state id="S1" />
			<state id="S1b" />
			<state id="S2" />
			<state id="S2_" />
			<state id="S3" />
			<state id="S3_" />
			<state id="S4" />
			<state id="S5" />
			<state id="S5_" />
			<state id="S6" />
			<state id="S6_" />
			<parents>currentNote currentStrongPlace</parents>
