<?xml version="1.0" encoding="UTF-8"?>
<!-- This network was created in GeNIe Academic, which can be used for academic teaching and research purposes only -->
<smile version="1.0" id="majors" numsamples="10000" discsamples="10000">
	<nodes>
		<cpt id="nextHF">
			<state id="D_0_3_1_1_5__7" />
			<state id="D_0_3_1_1_5__empty" />
			<state id="D_0_3_1_1_empty__7" />
			<state id="D_0_3_1_1_empty__empty" />
			<state id="D_0_3_1_3b_5__7" />
			<state id="D_0_3_1_3b_empty__7" />
			<state id="D_0_3_1_3b_empty__empty" />
			<state id="D_0_3_1_5_1__empty" />
			<state id="D_0_3_1_5_empty__7" />
			<state id="D_0_3_1_5_empty__empty" />
			<state id="D_0_5_0_1_5__7" />
			<state id="D_0_5_0_1_empty__7" />
			<state id="D_0_5_0_1_empty__empty" />
			<state id="D_0_5_0_3b_1__7" />
			<state id="D_0_5_0_3b_5__7" />
			<state id="D_0_5_0_3b_empty__7" />
			<state id="D_0_5_0_3b_empty__empty" />
			<state id="D_0_5_0_5_1__7" />
			<state id="D_0_5_0_5_empty__7" />
			<state id="D_0_5_0_5_empty__empty" />
			<state id="D_0_5_1_1_5_1_7" />
			<state id="D_0_5_1_1_5_2_7" />
			<state id="D_0_5_1_1_5_3_7" />
			<state id="D_0_5_1_1_5_4_7" />
			<state id="D_0_5_1_1_5_5_7" />
			<state id="D_0_5_1_1_5_6_7" />
			<state id="D_0_5_1_1_5__7" />
			<state id="D_0_5_1_1_5__7_9" />
			<state id="D_0_5_1_1_5__empty" />
			<state id="D_0_5_1_1_empty_1_7" />
			<state id="D_0_5_1_1_empty_2_7" />
			<state id="D_0_5_1_1_empty_3_7" />
			<state id="D_0_5_1_1_empty_4_7" />
			<state id="D_0_5_1_1_empty_5_7" />
			<state id="D_0_5_1_1_empty_6_7" />
			<state id="D_0_5_1_1_empty__7" />
			<state id="D_0_5_1_1_empty__empty" />
			<state id="D_0_5_1_3_1_1_7" />
			<state id="D_0_5_1_3_1_2_7" />
			<state id="D_0_5_1_3_1_3_7" />
			<state id="D_0_5_1_3_1_4_7" />
			<state id="D_0_5_1_3_1_5_7" />
			<state id="D_0_5_1_3_1__7_9b" />
			<state id="D_0_5_1_3_5_1_7" />
			<state id="D_0_5_1_3_5_2_7" />
			<state id="D_0_5_1_3_5_4_7" />
			<state id="D_0_5_1_3_5_5_7" />
			<state id="D_0_5_1_3_5__7" />
			<state id="D_0_5_1_3_empty_1_7" />
			<state id="D_0_5_1_3_empty_2_7" />
			<state id="D_0_5_1_3_empty_3_7" />
			<state id="D_0_5_1_3_empty_4_7" />
			<state id="D_0_5_1_3_empty_5_7" />
			<state id="D_0_5_1_3_empty__7" />
			<state id="D_0_5_1_3_empty__empty" />
			<state id="D_0_5_1_5_1_1_7" />
			<state id="D_0_5_1_5_1_2_7" />
			<state id="D_0_5_1_5_1_3_7" />
			<state id="D_0_5_1_5_1_4_7" />
			<state id="D_0_5_1_5_1_5_7" />
			<state id="D_0_5_1_5_1__7_9b" />
			<state id="D_0_5_1_5_empty_1_7" />
			<state id="D_0_5_1_5_empty_3_7" />
			<state id="D_0_5_1_5_empty_4_7" />
			<state id="D_0_5_1_5_empty__7" />
			<state id="D_0_5_1_5_empty__empty" />
			<state id="D_0_5_1_7_5_1_7" />
			<state id="D_0_5_1_7_5_4_7" />
			<state id="D_0_5_1_7_5_6_7" />
			<state id="D_0_5_1_7_empty_1_7" />
			<state id="D_0_5_1_7_empty_4_7" />
			<state id="D_0_7_1_1_5b__7" />
			<state id="D_0_7_1_1_5b__empty" />
			<state id="D_0_7_1_1_empty__7" />
			<state id="D_0_7_1_1_empty__empty" />
			<state id="D_0_7_1_3b_1__7" />
			<state id="D_0_7_1_3b_1__empty" />
			<state id="D_0_7_1_3b_5b__7" />
			<state id="D_0_7_1_3b_empty__7" />
			<state id="D_0_7_1_3b_empty__empty" />
			<state id="D_0_7_1_5b_1__7" />
			<state id="D_0_7_1_5b_1__empty" />
			<state id="D_0_7_1_5b_empty__7" />
			<state id="D_0_7_1_5b_empty__empty" />
			<state id="D_0_7_1_7_1__7" />
			<state id="D_1_7_1_1_5__7" />
			<state id="D_1_7_1_3_1__7" />
			<state id="D_1_7_1_5_1__7" />
			<state id="S_0_2_1_1_5__7" />
			<state id="S_0_2_1_1_5__empty" />
			<state id="S_0_2_1_1_empty__7" />
			<state id="S_0_2_1_1_empty__empty" />
			<state id="S_0_2_1_3b_5__7" />
			<state id="S_0_2_1_3b_empty__empty" />
			<state id="S_0_2_1_5_empty__empty" />
			<state id="S_0_4_0_1_empty__6" />
			<state id="S_0_4_0_1_empty__empty" />
			<state id="S_0_4_0_3b_5__6" />
			<state id="S_0_4_0_3b_empty_3_empty" />
			<state id="S_0_4_0_3b_empty__6" />
			<state id="S_0_4_0_3b_empty__empty" />
			<state id="S_0_4_0_5_empty__6" />
			<state id="S_0_4_1_1_5__empty" />
			<state id="S_0_4_1_1_empty_3_empty" />
			<state id="S_0_4_1_1_empty__6" />
			<state id="S_0_4_1_1_empty__empty" />
			<state id="S_0_4_1_3_empty_3_empty" />
			<state id="S_0_4_1_3_empty__6" />
			<state id="S_0_4_1_3_empty__empty" />
			<state id="S_0_4_1_5_1__empty" />
			<state id="S_0_4_1_5_empty_3_empty" />
			<state id="S_0_4_1_5_empty__6" />
			<state id="S_0_4_1_5_empty__empty" />
			<state id="T_0_1_1_1_5__empty" />
			<state id="T_0_1_1_1_empty__empty" />
			<state id="T_0_1_1_3_empty__empty" />
			<state id="T_0_1_1_5_empty__empty" />
			<state id="T_0_6_1_1_5__7" />
			<state id="T_0_6_1_1_5__empty" />
			<state id="T_0_6_1_1_empty__7" />
			<state id="T_0_6_1_1_empty__empty" />
			<state id="T_0_6_1_3b_5__7" />
			<state id="T_0_6_1_3b_empty__7" />
			<state id="T_0_6_1_3b_empty__empty" />
			<state id="T_0_6_1_5_1__empty" />
			<state id="T_0_6_1_5_empty__7" />
			<state id="T_0_6_1_5_empty__empty" />
			<state id="T_0_6_1_7_empty__7" />
			<state id="T_1_3_1_1_empty__7" />
			<state id="T_1_3_1_3_empty__7" />
			<state id="T_1_3_1_5_1__7" />
			<state id="T_1_6_1_3_1__7" />
			<probabilities>0.00389732562827577 0.003225372933745464 0.01155758634592125 0.02943152802042736 0.0006719526945303051 0.000268781077812122 0.0158580835909152 0.0004031716167181831 0.01061685257357882 0.0009407337723424271 0.0004031716167181831 0.002956591855933342 0.00403171616718183 0.003090982394839403 0.000134390538906061 0.001747077005778793 0.001075124311248488 0.0004031716167181831 0.0006719526945303051 0.005106840478430318 0.0004031716167181831 0.000268781077812122 0.0009407337723424271 0.002553420239215159 0.001075124311248488 0.000134390538906061 0.003628544550463647 0.001075124311248488 0.005644402634054563 0.002015858083590915 0.0004031716167181831 0.002822201317027281 0.004703668861712136 0.0004031716167181831 0.000134390538906061 0.008332213412175783 0.1335841956726246 0.0008063432334363661 0.000268781077812122 0.000268781077812122 0.002015858083590915 0.0005375621556242441 0.0006719526945303051 0.000268781077812122 0.000134390538906061 0.000268781077812122 0.0004031716167181831 0.000134390538906061 0.004838059400618197 0.001612686466872732 0.00268781077812122 0.01505174035747883 0.002822201317027281 0.008063432334363661 0.04851498454508803 0.002822201317027281 0.0004031716167181831 0.002284639161403037 0.00268781077812122 0.001209514850154549 0.0005375621556242441 0.000268781077812122 0.002419029700309099 0.0008063432334363661 0.00134390538906061 0.003225372933745464 0.000134390538906061 0.000268781077812122 0.000134390538906061 0.0008063432334363661 0.0006719526945303051 0.003494154011557587 0.0005375621556242441 0.0009407337723424271 0.003225372933745464 0.01142319580701519 0.0006719526945303051 0.000134390538906061 0.002956591855933342 0.0134390538906061 0.005644402634054563 0.000268781077812122 0.002419029700309099 0.002284639161403037 0.001075124311248488 0.000134390538906061 0.000134390538906061 0.000134390538906061 0.005375621556242441 0.003762935089369708 0.003090982394839403 0.04031716167181831 0.0005375621556242441 0.01760516059669399 0.004166106706087891 0.000134390538906061 0.0004031716167181831 0.000134390538906061 0.000134390538906061 0.000134390538906061 0.000134390538906061 0.000134390538906061 0.002419029700309099 0.0005375621556242441 0.0158580835909152 0.04166106706087892 0.000134390538906061 0.001747077005778793 0.01988979975809703 0.000134390538906061 0.0004031716167181831 0.00524123101733638 0.001881467544684854 0.007794651256551539 0.1708103749496035 0.07660260717645478 0.01088563365139094 0.004838059400618197 0.003628544550463647 0.008063432334363661 0.09165434753393362 0.000134390538906061 0.008869775567800027 0.01317027281279398 0.0009407337723424271 0.004434887783900014 0.008063432334363661 0.000268781077812122 0.0005375621556242441 0.000134390538906061 0.000134390538906061 0.000134390538906061</probabilities>
		</cpt>
		<cpt id="nextNote">
			<state id="S0" />
			<state id="S0_" />
			<state id="S1" />
			<state id="S1b" />
			<state id="S2" />
			<state id="S3" />
			<state id="S3_" />
			<state id="S4" />
			<state id="S4_" />
			<state id="S4b" />
			<state id="S5" />
			<state id="S5_" />
			<state id="S5b" />
			<state id="S6" />
			<state id="S6b" />
			<parents>nextHF</parents>
			<probabilities>0.002222222222222223 0.002222222222222223 0.1022222222222222 0.002222222222222223 0.268888888888889 0.002222222222222223 0.002222222222222223 0.6022222222222223 0.002222222222222223 0.002222222222222223 0.002222222222222223 0.002222222222222223 0.002222222222222223 0.002222222222222223 0.002222222222222223 0.002666666666666667 0.002666666666666667 0.002666666666666667 0.002666666666666667 0.5226666666666667 0.002666666666666667 0.002666666666666667 0.4426666666666668 0.002666666666666667 0.002666666666666667 0.002666666666666667 0.002666666666666667 0.002666666666666667 0.002666666666666667 0.002666666666666667 0.0007662835249042147 0.0007662835249042147 0.4375478927203066 0.0007662835249042147 0.0007662835249042147 0.0007662835249042147 0.0007662835249042147 0.3111111111111112 0.0007662835249042147 0.0007662835249042147 0.0007662835249042147 0.0007662835249042147 0.0007662835249042147 0.2421455938697318 0.0007662835249042147 0.0003030303030303031 0.0003030303030303031 0.0003030303030303031 0.0003030303030303031 0.1184848484848485 0.0003030303030303031 0.0003030303030303031 0.513939393939394 0.0003030303030303031 0.0003030303030303031 0.0003030303030303031 0.0003030303030303031 0.0003030303030303031 0.363939393939394 0.0003030303030303031 0.01111111111111112 0.01111111111111112 0.01111111111111112 0.01111111111111112 0.677777777777778 0.01111111111111112 0.01111111111111112 0.1777777777777779 0.01111111111111112 0.01111111111111112 0.01111111111111112 0.01111111111111112 0.01111111111111112 0.01111111111111112 0.01111111111111112 0.0222222222222222 0.0222222222222222 0.6888888888888883 0.0222222222222222 0.0222222222222222 0.0222222222222222 0.0222222222222222 0.0222222222222222 0.0222222222222222 0.0222222222222222 0.0222222222222222 0.0222222222222222 0.0222222222222222 0.0222222222222222 0.0222222222222222 0.0005602240896358545 0.0005602240896358545 0.0005602240896358545 0.0005602240896358545 0.6644257703081234 0.0005602240896358545 0.0005602240896358545 0.1182072829131653 0.0005602240896358545 0.0005602240896358545 0.0005602240896358545 0.0005602240896358545 0.0005602240896358545 0.2106442577030813 0.0005602240896358545 0.01666666666666667 0.01666666666666667 0.01666666666666667 0.01666666666666667 0.01666666666666667 0.01666666666666667 0.01666666666666667 0.2666666666666667 0.01666666666666667 0.01666666666666667 0.01666666666666667 0.01666666666666667 0.01666666666666667 0.5166666666666667 0.01666666666666667 0.0008333333333333337 0.0008333333333333337 0.07583333333333336 0.0008333333333333337 0.8883333333333338 0.0008333333333333337 0.0008333333333333337 0.02583333333333335 0.0008333333333333337 0.0008333333333333337 0.0008333333333333337 0.0008333333333333337 0.0008333333333333337 0.0008333333333333337 0.0008333333333333337 0.008333333333333335 0.008333333333333335 0.008333333333333335 0.008333333333333335 0.3833333333333335 0.008333333333333335 0.008333333333333335 0.5083333333333334 0.008333333333333335 0.008333333333333335 0.008333333333333335 0.008333333333333335 0.008333333333333335 0.008333333333333335 0.008333333333333335 0.01666666666666666 0.01666666666666666 0.01666666666666666 0.01666666666666666 0.01666666666666666 0.2666666666666666 0.01666666666666666 0.2666666666666666 0.01666666666666666 0.01666666666666666 0.01666666666666666 0.01666666666666666 0.01666666666666666 0.01666666666666666 0.2666666666666666 0.002898550724637682 0.002898550724637682 0.002898550724637682 0.002898550724637682 0.002898550724637682 0.9594202898550726 0.002898550724637682 0.002898550724637682 0.002898550724637682 0.002898550724637682 0.002898550724637682 0.002898550724637682 0.002898550724637682 0.002898550724637682 0.002898550724637682 0.002150537634408603 0.002150537634408603 0.1311827956989247 0.002150537634408603 0.002150537634408603 0.002150537634408603 0.002150537634408603 0.2279569892473119 0.002150537634408603 0.002150537634408603 0.002150537634408603 0.002150537634408603 0.002150537634408603 0.002150537634408603 0.6150537634408603 0.002777777777777778 0.002777777777777778 0.7944444444444445 0.002777777777777778 0.002777777777777778 0.1694444444444445 0.002777777777777778 0.002777777777777778 0.002777777777777778 0.002777777777777778 0.002777777777777778 0.002777777777777778 0.002777777777777778 0.002777777777777778 0.002777777777777778 0.03333333333333334 0.03333333333333334 0.03333333333333334 0.03333333333333334 0.03333333333333334 0.5333333333333334 0.03333333333333334 0.03333333333333334 0.03333333333333334 0.03333333333333334 0.03333333333333334 0.03333333333333334 0.03333333333333334 0.03333333333333334 0.03333333333333334 0.004761904761904763 0.004761904761904763 0.004761904761904763 0.004761904761904763 0.004761904761904763 0.361904761904762 0.004761904761904763 0.5761904761904764 0.004761904761904763 0.004761904761904763 0.004761904761904763 0.004761904761904763 0.004761904761904763 0.004761904761904763 0.004761904761904763 0.007407407407407407 0.007407407407407407 0.2296296296296296 0.007407407407407407 0.007407407407407407 0.007407407407407407 0.007407407407407407 0.674074074074074 0.007407407407407407 0.007407407407407407 0.007407407407407407 0.007407407407407407 0.007407407407407407 0.007407407407407407 0.007407407407407407 0.01666666666666666 0.01666666666666666 0.2666666666666666 0.01666666666666666 0.01666666666666666 0.2666666666666666 0.01666666666666666 0.01666666666666666 0.01666666666666666 0.01666666666666666 0.01666666666666666 0.01666666666666666 0.01666666666666666 0.01666666666666666 0.2666666666666666 0.01111111111111111 0.01111111111111111 0.01111111111111111 0.01111111111111111 0.01111111111111111 0.1777777777777778 0.01111111111111111 0.6777777777777779 0.01111111111111111 0.01111111111111111 0.01111111111111111 0.01111111111111111 0.01111111111111111 0.01111111111111111 0.01111111111111111 0.001709401709401709 0.001709401709401709 0.02735042735042735 0.001709401709401709 0.001709401709401709 0.001709401709401709 0.001709401709401709 0.2581196581196581 0.001709401709401709 0.001709401709401709 0.001709401709401709 0.001709401709401709 0.001709401709401709 0.001709401709401709 0.694017094017094 0.01666666666666666 0.2666666666666666 0.01666666666666666 0.01666666666666666 0.01666666666666666 0.01666666666666666 0.01666666666666666 0.5166666666666666 0.01666666666666666 0.01666666666666666 0.01666666666666666 0.01666666666666666 0.01666666666666666 0.01666666666666666 0.01666666666666666 0.02222222222222222 0.02222222222222222 0.02222222222222222 0.02222222222222222 0.02222222222222222 0.02222222222222222 0.02222222222222222 0.02222222222222222 0.02222222222222222 0.02222222222222222 0.3555555555555555 0.02222222222222222 0.02222222222222222 0.3555555555555555 0.02222222222222222 0.1333333333333334 0.008333333333333335 0.008333333333333335 0.008333333333333335 0.5083333333333334 0.008333333333333335 0.008333333333333335 0.008333333333333335 0.008333333333333335 0.008333333333333335 0.008333333333333335 0.008333333333333335 0.008333333333333335 0.008333333333333335 0.2583333333333334 0.2533333333333334 0.003333333333333334 0.2033333333333334 0.003333333333333334 0.003333333333333334 0.003333333333333334 0.5033333333333334 0.003333333333333334 0.003333333333333334 0.003333333333333334 0.003333333333333334 0.003333333333333334 0.003333333333333334 0.003333333333333334 0.003333333333333334 0.007407407407407409 0.007407407407407409 0.2296296296296297 0.007407407407407409 0.562962962962963 0.007407407407407409 0.007407407407407409 0.007407407407407409 0.1185185185185185 0.007407407407407409 0.007407407407407409 0.007407407407407409 0.007407407407407409 0.007407407407407409 0.007407407407407409 0.03333333333333334 0.03333333333333334 0.03333333333333334 0.03333333333333334 0.03333333333333334 0.03333333333333334 0.03333333333333334 0.03333333333333334 0.03333333333333334 0.03333333333333334 0.03333333333333334 0.5333333333333334 0.03333333333333334 0.03333333333333334 0.03333333333333334 0.002380952380952381 0.002380952380952381 0.002380952380952381 0.002380952380952381 0.002380952380952381 0.5023809523809525 0.002380952380952381 0.2523809523809524 0.002380952380952381 0.002380952380952381 0.002380952380952381 0.002380952380952381 0.002380952380952381 0.2166666666666667 0.002380952380952381 0.007407407407407409 0.007407407407407409 0.007407407407407409 0.007407407407407409 0.007407407407407409 0.8962962962962965 0.007407407407407409 0.007407407407407409 0.007407407407407409 0.007407407407407409 0.007407407407407409 0.007407407407407409 0.007407407407407409 0.007407407407407409 0.007407407407407409 0.001550387596899224 0.001550387596899224 0.001550387596899224 0.001550387596899224 0.001550387596899224 0.001550387596899224 0.001550387596899224 0.885271317829457 0.001550387596899224 0.001550387596899224 0.001550387596899224 0.001550387596899224 0.001550387596899224 0.09457364341085267 0.001550387596899224 0.004166666666666667 0.06666666666666668 0.004166666666666667 0.004166666666666667 0.8166666666666669 0.004166666666666667 0.004166666666666667 0.06666666666666668 0.004166666666666667 0.004166666666666667 0.004166666666666667 0.004166666666666667 0.004166666666666667 0.004166666666666667 0.004166666666666667 0.01666666666666666 0.01666666666666666 0.01666666666666666 0.01666666666666666 0.01666666666666666 0.01666666666666666 0.2666666666666666 0.01666666666666666 0.01666666666666666 0.01666666666666666 0.5166666666666666 0.01666666666666666 0.01666666666666666 0.01666666666666666 0.01666666666666666 0.003030303030303031 0.003030303030303031 0.003030303030303031 0.003030303030303031 0.4575757575757576 0.003030303030303031 0.003030303030303031 0.5030303030303032 0.003030303030303031 0.003030303030303031 0.003030303030303031 0.003030303030303031 0.003030303030303031 0.003030303030303031 0.003030303030303031 0.1685185185185184 0.001851851851851851 0.001851851851851851 0.001851851851851851 0.001851851851851851 0.001851851851851851 0.1407407407407407 0.001851851851851851 0.001851851851851851 0.001851851851851851 0.6685185185185182 0.001851851851851851 0.001851851851851851 0.001851851851851851 0.001851851851851851 0.01666666666666666 0.01666666666666666 0.5166666666666664 0.01666666666666666 0.01666666666666666 0.01666666666666666 0.01666666666666666 0.01666666666666666 0.2666666666666665 0.01666666666666666 0.01666666666666666 0.01666666666666666 0.01666666666666666 0.01666666666666666 0.01666666666666666 0.03333333333333334 0.03333333333333334 0.03333333333333334 0.03333333333333334 0.5333333333333334 0.03333333333333334 0.03333333333333334 0.03333333333333334 0.03333333333333334 0.03333333333333334 0.03333333333333334 0.03333333333333334 0.03333333333333334 0.03333333333333334 0.03333333333333334 0.001058201058201058 0.001058201058201058 0.5724867724867723 0.001058201058201058 0.001058201058201058 0.2550264550264549 0.001058201058201058 0.001058201058201058 0.001058201058201058 0.001058201058201058 0.001058201058201058 0.001058201058201058 0.001058201058201058 0.1597883597883597 0.001058201058201058 6.700167504187601e-05 6.700167504187601e-05 0.5377554438860969 6.700167504187601e-05 6.700167504187601e-05 6.700167504187601e-05 6.700167504187601e-05 0.2342378559463985 6.700167504187601e-05 6.700167504187601e-05 6.700167504187601e-05 6.700167504187601e-05 6.700167504187601e-05 0.2272026800670015 6.700167504187601e-05 0.009523809523809525 0.009523809523809525 0.009523809523809525 0.009523809523809525 0.4380952380952382 0.009523809523809525 0.009523809523809525 0.4380952380952382 0.009523809523809525 0.009523809523809525 0.009523809523809525 0.009523809523809525 0.009523809523809525 0.009523809523809525 0.009523809523809525 0.02222222222222222 0.02222222222222222 0.02222222222222222 0.02222222222222222 0.02222222222222222 0.02222222222222222 0.02222222222222222 0.02222222222222222 0.02222222222222222 0.02222222222222222 0.6888888888888888 0.02222222222222222 0.02222222222222222 0.02222222222222222 0.02222222222222222 0.02222222222222221 0.02222222222222221 0.02222222222222221 0.02222222222222221 0.02222222222222221 0.02222222222222221 0.02222222222222221 0.6888888888888886 0.02222222222222221 0.02222222222222221 0.02222222222222221 0.02222222222222221 0.02222222222222221 0.02222222222222221 0.02222222222222221 0.2541666666666667 0.004166666666666667 0.004166666666666667 0.004166666666666667 0.004166666666666667 0.004166666666666667 0.004166666666666667 0.004166666666666667 0.004166666666666667 0.004166666666666667 0.6916666666666668 0.004166666666666667 0.004166666666666667 0.004166666666666667 0.004166666666666667 0.01333333333333334 0.01333333333333334 0.01333333333333334 0.01333333333333334 0.01333333333333334 0.01333333333333334 0.01333333333333334 0.01333333333333334 0.01333333333333334 0.01333333333333334 0.01333333333333334 0.01333333333333334 0.01333333333333334 0.8133333333333335 0.01333333333333334 0.01111111111111111 0.01111111111111111 0.3444444444444446 0.01111111111111111 0.01111111111111111 0.3444444444444446 0.01111111111111111 0.01111111111111111 0.01111111111111111 0.01111111111111111 0.01111111111111111 0.01111111111111111 0.1777777777777778 0.01111111111111111 0.01111111111111111 0.02222222222222222 0.02222222222222222 0.02222222222222222 0.02222222222222222 0.02222222222222222 0.02222222222222222 0.02222222222222222 0.02222222222222222 0.02222222222222222 0.02222222222222222 0.6888888888888888 0.02222222222222222 0.02222222222222222 0.02222222222222222 0.02222222222222222 0.03333333333333334 0.03333333333333334 0.03333333333333334 0.03333333333333334 0.03333333333333334 0.03333333333333334 0.03333333333333334 0.03333333333333334 0.03333333333333334 0.03333333333333334 0.03333333333333334 0.03333333333333334 0.03333333333333334 0.5333333333333334 0.03333333333333334 0.3555555555555552 0.0222222222222222 0.3555555555555552 0.0222222222222222 0.0222222222222222 0.0222222222222222 0.0222222222222222 0.0222222222222222 0.0222222222222222 0.0222222222222222 0.0222222222222222 0.0222222222222222 0.0222222222222222 0.0222222222222222 0.0222222222222222 0.01666666666666666 0.01666666666666666 0.01666666666666666 0.01666666666666666 0.7666666666666664 0.01666666666666666 0.01666666666666666 0.01666666666666666 0.01666666666666666 0.01666666666666666 0.01666666666666666 0.01666666666666666 0.01666666666666666 0.01666666666666666 0.01666666666666666 0.03333333333333334 0.03333333333333334 0.03333333333333334 0.03333333333333334 0.03333333333333334 0.03333333333333334 0.03333333333333334 0.5333333333333334 0.03333333333333334 0.03333333333333334 0.03333333333333334 0.03333333333333334 0.03333333333333334 0.03333333333333334 0.03333333333333334 0.001801801801801801 0.001801801801801801 0.001801801801801801 0.001801801801801801 0.08288288288288286 0.001801801801801801 0.001801801801801801 0.6504504504504502 0.001801801801801801 0.001801801801801801 0.245045045045045 0.001801801801801801 0.001801801801801801 0.001801801801801801 0.001801801801801801 0.005128205128205128 0.005128205128205128 0.005128205128205128 0.005128205128205128 0.005128205128205128 0.005128205128205128 0.158974358974359 0.005128205128205128 0.005128205128205128 0.005128205128205128 0.6205128205128205 0.005128205128205128 0.005128205128205128 0.158974358974359 0.005128205128205128 0.1936507936507937 0.003174603174603175 0.003174603174603175 0.003174603174603175 0.003174603174603175 0.003174603174603175 0.003174603174603175 0.5269841269841271 0.003174603174603175 0.003174603174603175 0.003174603174603175 0.003174603174603175 0.003174603174603175 0.003174603174603175 0.2412698412698413 0.3457227138643069 0.0005899705014749264 0.505014749262537 0.0005899705014749264 0.0005899705014749264 0.0005899705014749264 0.0005899705014749264 0.0005899705014749264 0.0005899705014749264 0.0005899705014749264 0.1421828908554572 0.0005899705014749264 0.0005899705014749264 0.0005899705014749264 0.0005899705014749264 0.003030303030303031 0.003030303030303031 0.5484848484848486 0.003030303030303031 0.3212121212121213 0.003030303030303031 0.003030303030303031 0.003030303030303031 0.003030303030303031 0.003030303030303031 0.003030303030303031 0.003030303030303031 0.003030303030303031 0.09393939393939396 0.003030303030303031 0.001092896174863387 0.001092896174863387 0.1486338797814207 0.001092896174863387 0.001092896174863387 0.6568306010928958 0.001092896174863387 0.1814207650273223 0.001092896174863387 0.001092896174863387 0.001092896174863387 0.001092896174863387 0.001092896174863387 0.001092896174863387 0.001092896174863387 0.0001841620626151013 0.0001841620626151013 0.403499079189687 0.0001841620626151013 0.0001841620626151013 0.0001841620626151013 0.0001841620626151013 0.5222836095764273 0.0001841620626151013 0.0001841620626151013 0.0001841620626151013 0.0001841620626151013 0.0001841620626151013 0.07200736648250461 0.0001841620626151013 0.00303030303030303 0.1393939393939394 0.00303030303030303 0.00303030303030303 0.7757575757575758 0.00303030303030303 0.00303030303030303 0.04848484848484848 0.00303030303030303 0.00303030303030303 0.00303030303030303 0.00303030303030303 0.00303030303030303 0.00303030303030303 0.00303030303030303 0.01666666666666666 0.01666666666666666 0.01666666666666666 0.01666666666666666 0.01666666666666666 0.01666666666666666 0.01666666666666666 0.01666666666666666 0.01666666666666666 0.01666666666666666 0.7666666666666665 0.01666666666666666 0.01666666666666666 0.01666666666666666 0.01666666666666666 0.003703703703703703 0.003703703703703703 0.003703703703703703 0.003703703703703703 0.7814814814814814 0.003703703703703703 0.003703703703703703 0.1703703703703704 0.003703703703703703 0.003703703703703703 0.003703703703703703 0.003703703703703703 0.003703703703703703 0.003703703703703703 0.003703703703703703 0.05079365079365081 0.003174603174603175 0.003174603174603175 0.003174603174603175 0.003174603174603175 0.003174603174603175 0.8603174603174605 0.003174603174603175 0.003174603174603175 0.003174603174603175 0.05079365079365081 0.003174603174603175 0.003174603174603175 0.003174603174603175 0.003174603174603175 0.006666666666666667 0.006666666666666667 0.1066666666666667 0.006666666666666667 0.006666666666666667 0.006666666666666667 0.006666666666666667 0.006666666666666667 0.1066666666666667 0.006666666666666667 0.006666666666666667 0.006666666666666667 0.006666666666666667 0.7066666666666667 0.006666666666666667 0.01333333333333333 0.01333333333333333 0.01333333333333333 0.01333333333333333 0.01333333333333333 0.2133333333333333 0.01333333333333333 0.01333333333333333 0.01333333333333333 0.01333333333333333 0.01333333333333333 0.01333333333333333 0.2133333333333333 0.4133333333333334 0.01333333333333333 0.02222222222222222 0.02222222222222222 0.02222222222222222 0.02222222222222222 0.02222222222222222 0.02222222222222222 0.02222222222222222 0.3555555555555555 0.02222222222222222 0.02222222222222222 0.3555555555555555 0.02222222222222222 0.02222222222222222 0.02222222222222222 0.02222222222222222 0.5298245614035089 0.003508771929824562 0.003508771929824562 0.003508771929824562 0.424561403508772 0.003508771929824562 0.003508771929824562 0.003508771929824562 0.003508771929824562 0.003508771929824562 0.003508771929824562 0.003508771929824562 0.003508771929824562 0.003508771929824562 0.003508771929824562 0.1523809523809524 0.009523809523809525 0.2952380952380953 0.009523809523809525 0.009523809523809525 0.009523809523809525 0.4380952380952382 0.009523809523809525 0.009523809523809525 0.009523809523809525 0.009523809523809525 0.009523809523809525 0.009523809523809525 0.009523809523809525 0.009523809523809525 0.006060606060606061 0.006060606060606061 0.006060606060606061 0.006060606060606061 0.006060606060606061 0.3696969696969697 0.006060606060606061 0.1878787878787879 0.006060606060606061 0.006060606060606061 0.006060606060606061 0.006060606060606061 0.006060606060606061 0.3696969696969697 0.006060606060606061 0.002666666666666667 0.002666666666666667 0.08266666666666668 0.002666666666666667 0.002666666666666667 0.002666666666666667 0.002666666666666667 0.08266666666666668 0.002666666666666667 0.002666666666666667 0.002666666666666667 0.002666666666666667 0.002666666666666667 0.8026666666666666 0.002666666666666667 0.03333333333333333 0.03333333333333333 0.03333333333333333 0.03333333333333333 0.03333333333333333 0.03333333333333333 0.03333333333333333 0.03333333333333333 0.03333333333333333 0.03333333333333333 0.5333333333333333 0.03333333333333333 0.03333333333333333 0.03333333333333333 0.03333333333333333 0.0222222222222222 0.0222222222222222 0.6888888888888883 0.0222222222222222 0.0222222222222222 0.0222222222222222 0.0222222222222222 0.0222222222222222 0.0222222222222222 0.0222222222222222 0.0222222222222222 0.0222222222222222 0.0222222222222222 0.0222222222222222 0.0222222222222222 0.03333333333333334 0.03333333333333334 0.03333333333333334 0.03333333333333334 0.03333333333333334 0.03333333333333334 0.03333333333333334 0.03333333333333334 0.03333333333333334 0.03333333333333334 0.03333333333333334 0.5333333333333334 0.03333333333333334 0.03333333333333334 0.03333333333333334 0.009523809523809526 0.2952380952380954 0.009523809523809526 0.009523809523809526 0.4380952380952383 0.009523809523809526 0.009523809523809526 0.009523809523809526 0.009523809523809526 0.009523809523809526 0.1523809523809524 0.009523809523809526 0.009523809523809526 0.009523809523809526 0.009523809523809526 0.01111111111111111 0.01111111111111111 0.3444444444444444 0.01111111111111111 0.01111111111111111 0.01111111111111111 0.01111111111111111 0.01111111111111111 0.01111111111111111 0.01111111111111111 0.5111111111111111 0.01111111111111111 0.01111111111111111 0.01111111111111111 0.01111111111111111 0.002469135802469136 0.002469135802469136 0.8543209876543211 0.002469135802469136 0.002469135802469136 0.002469135802469136 0.002469135802469136 0.002469135802469136 0.002469135802469136 0.002469135802469136 0.002469135802469136 0.002469135802469136 0.002469135802469136 0.1135802469135803 0.002469135802469136 0.01333333333333333 0.01333333333333333 0.6133333333333332 0.01333333333333333 0.01333333333333333 0.01333333333333333 0.01333333333333333 0.01333333333333333 0.01333333333333333 0.01333333333333333 0.01333333333333333 0.01333333333333333 0.01333333333333333 0.2133333333333333 0.01333333333333333 0.008333333333333335 0.008333333333333335 0.5083333333333334 0.008333333333333335 0.008333333333333335 0.2583333333333334 0.008333333333333335 0.008333333333333335 0.008333333333333335 0.008333333333333335 0.1333333333333334 0.008333333333333335 0.008333333333333335 0.008333333333333335 0.008333333333333335 0.002666666666666667 0.002666666666666667 0.4426666666666668 0.002666666666666667 0.002666666666666667 0.4826666666666667 0.002666666666666667 0.002666666666666667 0.002666666666666667 0.002666666666666667 0.002666666666666667 0.002666666666666667 0.002666666666666667 0.04266666666666667 0.002666666666666667 0.0007751937984496124 0.0007751937984496124 0.04728682170542636 0.0007751937984496124 0.0007751937984496124 0.4193798449612404 0.0007751937984496124 0.0007751937984496124 0.0007751937984496124 0.0007751937984496124 0.524031007751938 0.0007751937984496124 0.0007751937984496124 0.0007751937984496124 0.0007751937984496124 0.01111111111111112 0.01111111111111112 0.01111111111111112 0.01111111111111112 0.01111111111111112 0.8444444444444448 0.01111111111111112 0.01111111111111112 0.01111111111111112 0.01111111111111112 0.01111111111111112 0.01111111111111112 0.01111111111111112 0.01111111111111112 0.01111111111111112 0.03333333333333334 0.03333333333333334 0.03333333333333334 0.03333333333333334 0.03333333333333334 0.03333333333333334 0.03333333333333334 0.03333333333333334 0.03333333333333334 0.03333333333333334 0.03333333333333334 0.03333333333333334 0.03333333333333334 0.5333333333333334 0.03333333333333334 0.002898550724637681 0.002898550724637681 0.002898550724637681 0.002898550724637681 0.002898550724637681 0.002898550724637681 0.002898550724637681 0.002898550724637681 0.002898550724637681 0.002898550724637681 0.3072463768115942 0.002898550724637681 0.002898550724637681 0.6550724637681159 0.002898550724637681 0.0006600660066006599 0.0006600660066006599 0.2184818481848184 0.0006600660066006599 0.0006600660066006599 0.2778877887788778 0.0006600660066006599 0.0006600660066006599 0.0006600660066006599 0.0006600660066006599 0.0006600660066006599 0.0006600660066006599 0.0006600660066006599 0.4957095709570956 0.0006600660066006599 0.001550387596899224 0.001550387596899224 0.2806201550387596 0.001550387596899224 0.001550387596899224 0.1643410852713178 0.001550387596899224 0.001550387596899224 0.001550387596899224 0.001550387596899224 0.5364341085271316 0.001550387596899224 0.001550387596899224 0.001550387596899224 0.001550387596899224 0.02222222222222221 0.02222222222222221 0.02222222222222221 0.02222222222222221 0.02222222222222221 0.6888888888888884 0.02222222222222221 0.02222222222222221 0.02222222222222221 0.02222222222222221 0.02222222222222221 0.02222222222222221 0.02222222222222221 0.02222222222222221 0.02222222222222221 0.003508771929824562 0.003508771929824562 0.424561403508772 0.003508771929824562 0.003508771929824562 0.003508771929824562 0.003508771929824562 0.003508771929824562 0.003508771929824562 0.003508771929824562 0.424561403508772 0.003508771929824562 0.003508771929824562 0.1087719298245614 0.003508771929824562 0.003703703703703704 0.003703703703703704 0.6148148148148149 0.003703703703703704 0.003703703703703704 0.003703703703703704 0.003703703703703704 0.003703703703703704 0.003703703703703704 0.003703703703703704 0.003703703703703704 0.003703703703703704 0.003703703703703704 0.3370370370370371 0.003703703703703704 0.007407407407407409 0.007407407407407409 0.007407407407407409 0.007407407407407409 0.007407407407407409 0.8962962962962965 0.007407407407407409 0.007407407407407409 0.007407407407407409 0.007407407407407409 0.007407407407407409 0.007407407407407409 0.007407407407407409 0.007407407407407409 0.007407407407407409 0.03333333333333334 0.03333333333333334 0.5333333333333334 0.03333333333333334 0.03333333333333334 0.03333333333333334 0.03333333333333334 0.03333333333333334 0.03333333333333334 0.03333333333333334 0.03333333333333334 0.03333333333333334 0.03333333333333334 0.03333333333333334 0.03333333333333334 0.03333333333333333 0.03333333333333333 0.03333333333333333 0.03333333333333333 0.03333333333333333 0.03333333333333333 0.03333333333333333 0.03333333333333333 0.03333333333333333 0.03333333333333333 0.03333333333333333 0.03333333333333333 0.5333333333333333 0.03333333333333333 0.03333333333333333 0.03333333333333334 0.03333333333333334 0.5333333333333334 0.03333333333333334 0.03333333333333334 0.03333333333333334 0.03333333333333334 0.03333333333333334 0.03333333333333334 0.03333333333333334 0.03333333333333334 0.03333333333333334 0.03333333333333334 0.03333333333333334 0.03333333333333334 0.02601626016260161 0.0016260162601626 0.02601626016260161 0.0016260162601626 0.0016260162601626 0.9284552845528449 0.0016260162601626 0.0016260162601626 0.0016260162601626 0.0016260162601626 0.0016260162601626 0.0016260162601626 0.0016260162601626 0.0016260162601626 0.0016260162601626 0.002298850574712644 0.002298850574712644 0.4160919540229886 0.002298850574712644 0.002298850574712644 0.5540229885057473 0.002298850574712644 0.002298850574712644 0.002298850574712644 0.002298850574712644 0.002298850574712644 0.002298850574712644 0.002298850574712644 0.002298850574712644 0.002298850574712644 0.08611111111111111 0.002777777777777777 0.002777777777777777 0.002777777777777777 0.002777777777777777 0.7944444444444444 0.002777777777777777 0.002777777777777777 0.002777777777777777 0.002777777777777777 0.08611111111111111 0.002777777777777777 0.002777777777777777 0.002777777777777777 0.002777777777777777 0.000221483942414175 0.000221483942414175 0.2294573643410853 0.000221483942414175 0.000221483942414175 0.5583610188261352 0.000221483942414175 0.000221483942414175 0.000221483942414175 0.000221483942414175 0.2095238095238096 0.000221483942414175 0.000221483942414175 0.000221483942414175 0.000221483942414175 0.01333333333333334 0.01333333333333334 0.6133333333333336 0.01333333333333334 0.01333333333333334 0.2133333333333334 0.01333333333333334 0.01333333333333334 0.01333333333333334 0.01333333333333334 0.01333333333333334 0.01333333333333334 0.01333333333333334 0.01333333333333334 0.01333333333333334 0.0005050505050505052 0.0005050505050505052 0.68989898989899 0.0005050505050505052 0.0005050505050505052 0.1823232323232324 0.0005050505050505052 0.0005050505050505052 0.0005050505050505052 0.0005050505050505052 0.1217171717171718 0.0005050505050505052 0.0005050505050505052 0.0005050505050505052 0.0005050505050505052 0.002083333333333334 0.002083333333333334 0.4083333333333334 0.002083333333333334 0.002083333333333334 0.5645833333333334 0.002083333333333334 0.002083333333333334 0.002083333333333334 0.002083333333333334 0.002083333333333334 0.002083333333333334 0.002083333333333334 0.002083333333333334 0.002083333333333334 0.03333333333333334 0.03333333333333334 0.5333333333333334 0.03333333333333334 0.03333333333333334 0.03333333333333334 0.03333333333333334 0.03333333333333334 0.03333333333333334 0.03333333333333334 0.03333333333333334 0.03333333333333334 0.03333333333333334 0.03333333333333334 0.03333333333333334 0.7666666666666662 0.01666666666666666 0.01666666666666666 0.01666666666666666 0.01666666666666666 0.01666666666666666 0.01666666666666666 0.01666666666666666 0.01666666666666666 0.01666666666666666 0.01666666666666666 0.01666666666666666 0.01666666666666666 0.01666666666666666 0.01666666666666666 0.03333333333333334 0.03333333333333334 0.03333333333333334 0.03333333333333334 0.03333333333333334 0.5333333333333334 0.03333333333333334 0.03333333333333334 0.03333333333333334 0.03333333333333334 0.03333333333333334 0.03333333333333334 0.03333333333333334 0.03333333333333334 0.03333333333333334 0.03333333333333334 0.03333333333333334 0.03333333333333334 0.03333333333333334 0.03333333333333334 0.5333333333333334 0.03333333333333334 0.03333333333333334 0.03333333333333334 0.03333333333333334 0.03333333333333334 0.03333333333333334 0.03333333333333334 0.03333333333333334 0.03333333333333334 0.03333333333333334 0.03333333333333334 0.5333333333333334 0.03333333333333334 0.03333333333333334 0.03333333333333334 0.03333333333333334 0.03333333333333334 0.03333333333333334 0.03333333333333334 0.03333333333333334 0.03333333333333334 0.03333333333333334 0.03333333333333334 0.03333333333333334 0.03333333333333334 0.03333333333333334 0.03333333333333334 0.03333333333333334 0.03333333333333334 0.5333333333333334 0.03333333333333334 0.03333333333333334 0.03333333333333334 0.03333333333333334 0.03333333333333334 0.03333333333333334 0.03333333333333334 0.03333333333333334 0.03333333333333334 0.03333333333333334 0.03333333333333334 0.03333333333333334 0.03333333333333334 0.03333333333333334 0.5333333333333334 0.03333333333333334 0.03333333333333334 0.03333333333333334 0.03333333333333334 0.03333333333333334 0.03333333333333334 0.03333333333333334 0.03333333333333334 0.03333333333333334 0.003508771929824561 0.003508771929824561 0.003508771929824561 0.003508771929824561 0.003508771929824561 0.4245614035087719 0.003508771929824561 0.003508771929824561 0.003508771929824561 0.003508771929824561 0.5298245614035088 0.003508771929824561 0.003508771929824561 0.003508771929824561 0.003508771929824561 0.01333333333333334 0.01333333333333334 0.01333333333333334 0.01333333333333334 0.01333333333333334 0.8133333333333337 0.01333333333333334 0.01333333333333334 0.01333333333333334 0.01333333333333334 0.01333333333333334 0.01333333333333334 0.01333333333333334 0.01333333333333334 0.01333333333333334 0.01736694677871149 0.0005602240896358545 0.9669467787114849 0.0005602240896358545 0.0005602240896358545 0.0005602240896358545 0.0005602240896358545 0.0005602240896358545 0.0005602240896358545 0.0005602240896358545 0.008963585434173672 0.0005602240896358545 0.0005602240896358545 0.0005602240896358545 0.0005602240896358545 0.257449088960343 0.0002143622722400858 0.0002143622722400858 0.0002143622722400858 0.0002143622722400858 0.1802786709539121 0.0002143622722400858 0.0002143622722400858 0.0002143622722400858 0.0002143622722400858 0.5596998928188639 0.0002143622722400858 0.0002143622722400858 0.0002143622722400858 0.0002143622722400858 0.03333333333333334 0.03333333333333334 0.03333333333333334 0.03333333333333334 0.03333333333333334 0.5333333333333334 0.03333333333333334 0.03333333333333334 0.03333333333333334 0.03333333333333334 0.03333333333333334 0.03333333333333334 0.03333333333333334 0.03333333333333334 0.03333333333333334 0.1476190476190477 0.004761904761904763 0.7904761904761908 0.004761904761904763 0.004761904761904763 0.004761904761904763 0.004761904761904763 0.004761904761904763 0.004761904761904763 0.004761904761904763 0.004761904761904763 0.004761904761904763 0.004761904761904763 0.004761904761904763 0.004761904761904763 0.07427293064876959 0.0004474272930648771 0.0004474272930648771 0.0004474272930648771 0.0004474272930648771 0.825950782997763 0.0004474272930648771 0.0004474272930648771 0.0004474272930648771 0.0004474272930648771 0.09440715883668906 0.0004474272930648771 0.0004474272930648771 0.0004474272930648771 0.0004474272930648771 0.03333333333333333 0.03333333333333333 0.03333333333333333 0.03333333333333333 0.03333333333333333 0.03333333333333333 0.03333333333333333 0.03333333333333333 0.03333333333333333 0.03333333333333333 0.5333333333333333 0.03333333333333333 0.03333333333333333 0.03333333333333333 0.03333333333333333 0.01666666666666666 0.01666666666666666 0.2666666666666666 0.01666666666666666 0.01666666666666666 0.5166666666666665 0.01666666666666666 0.01666666666666666 0.01666666666666666 0.01666666666666666 0.01666666666666666 0.01666666666666666 0.01666666666666666 0.01666666666666666 0.01666666666666666 0.001666666666666665 0.001666666666666665 0.4766666666666663 0.001666666666666665 0.001666666666666665 0.3766666666666664 0.001666666666666665 0.001666666666666665 0.001666666666666665 0.001666666666666665 0.1266666666666666 0.001666666666666665 0.001666666666666665 0.001666666666666665 0.001666666666666665 0.07111111111111112 0.004444444444444445 0.004444444444444445 0.004444444444444445 0.004444444444444445 0.7377777777777779 0.004444444444444445 0.004444444444444445 0.004444444444444445 0.004444444444444445 0.1377777777777778 0.004444444444444445 0.004444444444444445 0.004444444444444445 0.004444444444444445 0.2723163841807908 0.001129943502824858 0.001129943502824858 0.001129943502824858 0.7129943502824855 0.001129943502824858 0.001129943502824858 0.001129943502824858 0.001129943502824858 0.001129943502824858 0.001129943502824858 0.001129943502824858 0.001129943502824858 0.001129943502824858 0.001129943502824858 0.3294549266247381 5.241090146750526e-05 5.241090146750526e-05 5.241090146750526e-05 0.4969077568134174 5.241090146750526e-05 5.241090146750526e-05 0.1730083857442349 5.241090146750526e-05 5.241090146750526e-05 5.241090146750526e-05 5.241090146750526e-05 5.241090146750526e-05 5.241090146750526e-05 5.241090146750526e-05 0.3871570344424983 0.0001167542323409223 0.0001167542323409223 0.0001167542323409223 0.2435493286631639 0.0001167542323409223 0.0001167542323409223 0.3678925861062461 0.0001167542323409223 0.0001167542323409223 0.0001167542323409223 0.0001167542323409223 0.0001167542323409223 0.0001167542323409223 0.0001167542323409223 0.09837398373983744 0.0008130081300813011 0.0008130081300813011 0.0008130081300813011 0.8056910569105694 0.0008130081300813011 0.0008130081300813011 0.08617886178861792 0.0008130081300813011 0.0008130081300813011 0.0008130081300813011 0.0008130081300813011 0.0008130081300813011 0.0008130081300813011 0.0008130081300813011 0.8396396396396392 0.001801801801801801 0.001801801801801801 0.001801801801801801 0.001801801801801801 0.001801801801801801 0.001801801801801801 0.08288288288288284 0.001801801801801801 0.001801801801801801 0.05585585585585583 0.001801801801801801 0.001801801801801801 0.001801801801801801 0.001801801801801801 0.4666666666666667 0.002380952380952381 0.002380952380952381 0.002380952380952381 0.002380952380952381 0.002380952380952381 0.002380952380952381 0.002380952380952381 0.002380952380952381 0.002380952380952381 0.5023809523809525 0.002380952380952381 0.002380952380952381 0.002380952380952381 0.002380952380952381 0.1814207650273223 0.001092896174863388 0.001092896174863388 0.001092896174863388 0.3453551912568305 0.001092896174863388 0.001092896174863388 0.4601092896174862 0.001092896174863388 0.001092896174863388 0.001092896174863388 0.001092896174863388 0.001092896174863388 0.001092896174863388 0.001092896174863388 0.5008296730112246 9.760858955588084e-05 9.760858955588084e-05 9.760858955588084e-05 0.4378721327476815 9.760858955588084e-05 9.760858955588084e-05 9.760858955588084e-05 9.760858955588084e-05 9.760858955588084e-05 0.06012689116642261 9.760858955588084e-05 9.760858955588084e-05 9.760858955588084e-05 9.760858955588084e-05 0.03333333333333334 0.03333333333333334 0.03333333333333334 0.03333333333333334 0.03333333333333334 0.03333333333333334 0.03333333333333334 0.5333333333333334 0.03333333333333334 0.03333333333333334 0.03333333333333334 0.03333333333333334 0.03333333333333334 0.03333333333333334 0.03333333333333334 0.0009950248756218907 0.0009950248756218907 0.0009950248756218907 0.0009950248756218907 0.0009950248756218907 0.0009950248756218907 0.0009950248756218907 0.1353233830845771 0.0009950248756218907 0.0009950248756218907 0.8517412935323385 0.0009950248756218907 0.0009950248756218907 0.0009950248756218907 0.0009950248756218907 0.2835016835016835 0.0006734006734006734 0.0006734006734006734 0.0006734006734006734 0.3138047138047138 0.0006734006734006734 0.0006734006734006734 0.0006734006734006734 0.0006734006734006734 0.0006734006734006734 0.3946127946127947 0.0006734006734006734 0.0006734006734006734 0.0006734006734006734 0.0006734006734006734 0.1333333333333334 0.008333333333333337 0.008333333333333337 0.008333333333333337 0.7583333333333336 0.008333333333333337 0.008333333333333337 0.008333333333333337 0.008333333333333337 0.008333333333333337 0.008333333333333337 0.008333333333333337 0.008333333333333337 0.008333333333333337 0.008333333333333337 0.2078431372549019 0.001960784313725489 0.001960784313725489 0.001960784313725489 0.001960784313725489 0.001960784313725489 0.001960784313725489 0.001960784313725489 0.001960784313725489 0.001960784313725489 0.7666666666666664 0.001960784313725489 0.001960784313725489 0.001960784313725489 0.001960784313725489 0.4928961748633878 0.001092896174863388 0.001092896174863388 0.001092896174863388 0.1486338797814207 0.001092896174863388 0.001092896174863388 0.001092896174863388 0.001092896174863388 0.001092896174863388 0.3453551912568305 0.001092896174863388 0.001092896174863388 0.001092896174863388 0.001092896174863388 0.6888888888888882 0.0222222222222222 0.0222222222222222 0.0222222222222222 0.0222222222222222 0.0222222222222222 0.0222222222222222 0.0222222222222222 0.0222222222222222 0.0222222222222222 0.0222222222222222 0.0222222222222222 0.0222222222222222 0.0222222222222222 0.0222222222222222 0.01333333333333334 0.01333333333333334 0.01333333333333334 0.2133333333333334 0.01333333333333334 0.01333333333333334 0.01333333333333334 0.6133333333333336 0.01333333333333334 0.01333333333333334 0.01333333333333334 0.01333333333333334 0.01333333333333334 0.01333333333333334 0.01333333333333334 0.03333333333333334 0.03333333333333334 0.03333333333333334 0.5333333333333334 0.03333333333333334 0.03333333333333334 0.03333333333333334 0.03333333333333334 0.03333333333333334 0.03333333333333334 0.03333333333333334 0.03333333333333334 0.03333333333333334 0.03333333333333334 0.03333333333333334 0.03333333333333334 0.03333333333333334 0.03333333333333334 0.03333333333333334 0.03333333333333334 0.03333333333333334 0.03333333333333334 0.5333333333333334 0.03333333333333334 0.03333333333333334 0.03333333333333334 0.03333333333333334 0.03333333333333334 0.03333333333333334 0.03333333333333334 0.03333333333333334 0.03333333333333334 0.03333333333333334 0.03333333333333334 0.03333333333333334 0.03333333333333334 0.03333333333333334 0.03333333333333334 0.03333333333333334 0.5333333333333334 0.03333333333333334 0.03333333333333334 0.03333333333333334 0.03333333333333334 0.03333333333333334</probabilities>
		</cpt>
		<cpt id="currentNote">
			<state id="S0" />
			<state id="S0_" />
			<state id="S1" />
			<state id="S1b" />
			<state id="S2" />
			<state id="S3" />
			<state id="S3_" />
			<state id="S4" />
			<state id="S4_" />
			<state id="S4b" />
			<state id="S5" />
			<state id="S5_" />
			<state id="S5b" />
			<state id="S6" />
			<state id="S6b" />
			<parents>nextNote</parents>
			<probabilities>0.204038854805726 5.112474437627813e-05 0.3413087934560328 5.112474437627813e-05 0.1296523517382413 0.004652351738241309 5.112474437627813e-05 0.1066462167689162 5.112474437627813e-05 5.112474437627813e-05 0.02919222903885481 5.112474437627813e-05 5.112474437627813e-05 0.1794989775051125 0.004652351738241309 0.008333333333333337 0.1333333333333334 0.5083333333333335 0.008333333333333337 0.008333333333333337 0.008333333333333337 0.008333333333333337 0.008333333333333337 0.008333333333333337 0.008333333333333337 0.1333333333333334 0.008333333333333337 0.008333333333333337 0.1333333333333334 0.008333333333333337 0.2686731878605469 0.004564835716077253 0.1610734888387259 0.001555053925257086 0.4296965136694259 0.06250313518936546 5.016302984700278e-05 0.0414346626536243 5.016302984700278e-05 5.016302984700278e-05 0.02036619011788313 5.016302984700278e-05 5.016302984700278e-05 0.009831953850012544 5.016302984700278e-05 0.0222222222222222 0.0222222222222222 0.6888888888888883 0.0222222222222222 0.0222222222222222 0.0222222222222222 0.0222222222222222 0.0222222222222222 0.0222222222222222 0.0222222222222222 0.0222222222222222 0.0222222222222222 0.0222222222222222 0.0222222222222222 0.0222222222222222 0.08245727882327494 4.326195111399525e-05 0.3303482587064677 4.326195111399525e-05 0.191477395630543 0.2336577979666884 0.000692191217823924 0.1389141250270388 4.326195111399525e-05 4.326195111399525e-05 0.01302184728531257 4.326195111399525e-05 4.326195111399525e-05 0.009128271685052999 4.326195111399525e-05 0.03301326017375399 9.144947416552351e-05 0.05907636031092819 9.144947416552351e-05 0.4116140832190213 0.1208047553726566 0.004206675811614081 0.3279378143575673 9.144947416552351e-05 9.144947416552351e-05 0.0412437128486511 9.144947416552351e-05 9.144947416552351e-05 9.144947416552351e-05 0.001463191586648376 0.001666666666666666 0.001666666666666666 0.001666666666666666 0.001666666666666666 0.6016666666666663 0.05166666666666665 0.02666666666666665 0.3016666666666665 0.001666666666666666 0.001666666666666666 0.001666666666666666 0.001666666666666666 0.001666666666666666 0.001666666666666666 0.001666666666666666 0.08551650692225773 5.324813631522898e-05 0.05915867944621939 5.324813631522898e-05 0.1262513312034079 0.1422257720979766 0.02641107561235358 0.2700212992545262 5.324813631522898e-05 0.0008519701810436636 0.2308839190628328 0.0008519701810436636 0.0008519701810436636 0.03998935037273697 0.01682641107561236 0.01666666666666666 0.01666666666666666 0.01666666666666666 0.01666666666666666 0.01666666666666666 0.2666666666666666 0.01666666666666666 0.01666666666666666 0.01666666666666666 0.01666666666666666 0.5166666666666666 0.01666666666666666 0.01666666666666666 0.01666666666666666 0.01666666666666666 0.03333333333333334 0.03333333333333334 0.03333333333333334 0.03333333333333334 0.03333333333333334 0.03333333333333334 0.03333333333333334 0.5333333333333334 0.03333333333333334 0.03333333333333334 0.03333333333333334 0.03333333333333334 0.03333333333333334 0.03333333333333334 0.03333333333333334 0.1019250253292806 0.0001013171225937183 0.01833839918946302 0.0001013171225937183 0.0563323201621074 0.02441742654508612 0.0001013171225937183 0.3845997973657548 0.004660587639311044 0.0001013171225937183 0.1520770010131712 0.0001013171225937183 0.003140830800405269 0.2159067882472138 0.03809523809523809 0.02222222222222222 0.02222222222222222 0.02222222222222222 0.02222222222222222 0.02222222222222222 0.02222222222222222 0.02222222222222222 0.02222222222222222 0.02222222222222222 0.02222222222222222 0.3555555555555555 0.02222222222222222 0.02222222222222222 0.3555555555555555 0.02222222222222222 0.01666666666666666 0.01666666666666666 0.01666666666666666 0.01666666666666666 0.01666666666666666 0.2666666666666666 0.2666666666666666 0.01666666666666666 0.01666666666666666 0.01666666666666666 0.2666666666666666 0.01666666666666666 0.01666666666666666 0.01666666666666666 0.01666666666666666 0.4666666666666666 0.0001274697259400892 0.07278521351179096 0.0001274697259400892 0.02307202039515615 0.003951561504142767 0.0001274697259400892 0.02498406628425749 0.0001274697259400892 0.0001274697259400892 0.2869343530911408 0.002039515615041428 0.0001274697259400892 0.1148502230720204 0.003951561504142767 0.269047619047619 0.00119047619047619 0.09047619047619046 0.00119047619047619 0.00119047619047619 0.00119047619047619 0.00119047619047619 0.1976190476190476 0.00119047619047619 0.00119047619047619 0.144047619047619 0.00119047619047619 0.00119047619047619 0.2869047619047619 0.00119047619047619</probabilities>
		</cpt>
		<cpt id="currentHF">
			<state id="D_0_3_1_1_5__7" />
			<state id="D_0_3_1_1_5__empty" />
			<state id="D_0_3_1_1_empty__7" />
			<state id="D_0_3_1_1_empty__empty" />
			<state id="D_0_3_1_3b_5__7" />
			<state id="D_0_3_1_3b_empty__7" />
			<state id="D_0_3_1_3b_empty__empty" />
			<state id="D_0_3_1_5_1__empty" />
			<state id="D_0_3_1_5_empty__7" />
			<state id="D_0_3_1_5_empty__empty" />
			<state id="D_0_5_0_1_5__7" />
			<state id="D_0_5_0_1_empty__7" />
			<state id="D_0_5_0_1_empty__empty" />
			<state id="D_0_5_0_3b_1__7" />
			<state id="D_0_5_0_3b_5__7" />
			<state id="D_0_5_0_3b_empty__7" />
			<state id="D_0_5_0_3b_empty__empty" />
			<state id="D_0_5_0_5_1__7" />
			<state id="D_0_5_0_5_empty__7" />
			<state id="D_0_5_0_5_empty__empty" />
			<state id="D_0_5_1_1_5_1_7" />
			<state id="D_0_5_1_1_5_2_7" />
			<state id="D_0_5_1_1_5_3_7" />
			<state id="D_0_5_1_1_5_4_7" />
			<state id="D_0_5_1_1_5_5_7" />
			<state id="D_0_5_1_1_5_6_7" />
			<state id="D_0_5_1_1_5__7" />
			<state id="D_0_5_1_1_5__7_9" />
			<state id="D_0_5_1_1_5__empty" />
			<state id="D_0_5_1_1_empty_1_7" />
			<state id="D_0_5_1_1_empty_2_7" />
			<state id="D_0_5_1_1_empty_3_7" />
			<state id="D_0_5_1_1_empty_4_7" />
			<state id="D_0_5_1_1_empty_5_7" />
			<state id="D_0_5_1_1_empty_6_7" />
			<state id="D_0_5_1_1_empty__7" />
			<state id="D_0_5_1_1_empty__empty" />
			<state id="D_0_5_1_3_1_1_7" />
			<state id="D_0_5_1_3_1_2_7" />
			<state id="D_0_5_1_3_1_3_7" />
			<state id="D_0_5_1_3_1_4_7" />
			<state id="D_0_5_1_3_1_5_7" />
			<state id="D_0_5_1_3_1__7_9b" />
			<state id="D_0_5_1_3_5_1_7" />
			<state id="D_0_5_1_3_5_2_7" />
			<state id="D_0_5_1_3_5_4_7" />
			<state id="D_0_5_1_3_5_5_7" />
			<state id="D_0_5_1_3_5__7" />
			<state id="D_0_5_1_3_empty_1_7" />
			<state id="D_0_5_1_3_empty_2_7" />
			<state id="D_0_5_1_3_empty_3_7" />
			<state id="D_0_5_1_3_empty_4_7" />
			<state id="D_0_5_1_3_empty_5_7" />
			<state id="D_0_5_1_3_empty__7" />
			<state id="D_0_5_1_3_empty__empty" />
			<state id="D_0_5_1_5_1_1_7" />
			<state id="D_0_5_1_5_1_2_7" />
			<state id="D_0_5_1_5_1_3_7" />
			<state id="D_0_5_1_5_1_4_7" />
			<state id="D_0_5_1_5_1_5_7" />
			<state id="D_0_5_1_5_1__7_9b" />
			<state id="D_0_5_1_5_empty_1_7" />
			<state id="D_0_5_1_5_empty_3_7" />
			<state id="D_0_5_1_5_empty_4_7" />
			<state id="D_0_5_1_5_empty__7" />
			<state id="D_0_5_1_5_empty__empty" />
			<state id="D_0_5_1_7_5_1_7" />
			<state id="D_0_5_1_7_5_4_7" />
			<state id="D_0_5_1_7_5_6_7" />
			<state id="D_0_5_1_7_empty_1_7" />
			<state id="D_0_5_1_7_empty_4_7" />
			<state id="D_0_7_1_1_5b__7" />
			<state id="D_0_7_1_1_5b__empty" />
			<state id="D_0_7_1_1_empty__7" />
			<state id="D_0_7_1_1_empty__empty" />
			<state id="D_0_7_1_3b_1__7" />
			<state id="D_0_7_1_3b_1__empty" />
			<state id="D_0_7_1_3b_5b__7" />
			<state id="D_0_7_1_3b_empty__7" />
			<state id="D_0_7_1_3b_empty__empty" />
			<state id="D_0_7_1_5b_1__7" />
			<state id="D_0_7_1_5b_1__empty" />
			<state id="D_0_7_1_5b_empty__7" />
			<state id="D_0_7_1_5b_empty__empty" />
			<state id="D_0_7_1_7_1__7" />
			<state id="D_1_7_1_1_5__7" />
			<state id="D_1_7_1_3_1__7" />
			<state id="D_1_7_1_5_1__7" />
			<state id="S_0_2_1_1_5__7" />
			<state id="S_0_2_1_1_5__empty" />
			<state id="S_0_2_1_1_empty__7" />
			<state id="S_0_2_1_1_empty__empty" />
			<state id="S_0_2_1_3b_5__7" />
			<state id="S_0_2_1_3b_empty__empty" />
			<state id="S_0_2_1_5_empty__empty" />
			<state id="S_0_4_0_1_empty__6" />
			<state id="S_0_4_0_1_empty__empty" />
			<state id="S_0_4_0_3b_5__6" />
			<state id="S_0_4_0_3b_empty_3_empty" />
			<state id="S_0_4_0_3b_empty__6" />
			<state id="S_0_4_0_3b_empty__empty" />
			<state id="S_0_4_0_5_empty__6" />
			<state id="S_0_4_1_1_5__empty" />
			<state id="S_0_4_1_1_empty_3_empty" />
			<state id="S_0_4_1_1_empty__6" />
			<state id="S_0_4_1_1_empty__empty" />
			<state id="S_0_4_1_3_empty_3_empty" />
			<state id="S_0_4_1_3_empty__6" />
			<state id="S_0_4_1_3_empty__empty" />
			<state id="S_0_4_1_5_1__empty" />
			<state id="S_0_4_1_5_empty_3_empty" />
			<state id="S_0_4_1_5_empty__6" />
			<state id="S_0_4_1_5_empty__empty" />
			<state id="T_0_1_1_1_5__empty" />
			<state id="T_0_1_1_1_empty__empty" />
			<state id="T_0_1_1_3_empty__empty" />
			<state id="T_0_1_1_5_empty__empty" />
			<state id="T_0_6_1_1_5__7" />
			<state id="T_0_6_1_1_5__empty" />
			<state id="T_0_6_1_1_empty__7" />
			<state id="T_0_6_1_1_empty__empty" />
			<state id="T_0_6_1_3b_5__7" />
			<state id="T_0_6_1_3b_empty__7" />
			<state id="T_0_6_1_3b_empty__empty" />
			<state id="T_0_6_1_5_1__empty" />
			<state id="T_0_6_1_5_empty__7" />
			<state id="T_0_6_1_5_empty__empty" />
			<state id="T_0_6_1_7_empty__7" />
			<state id="T_1_3_1_1_empty__7" />
			<state id="T_1_3_1_3_empty__7" />
			<state id="T_1_3_1_5_1__7" />
			<state id="T_1_6_1_3_1__7" />
			<parents>currentNote</parents>
			<probabilities>6.271322496488062e-06 6.271322496488062e-06 6.271322496488062e-06 6.271322496488062e-06 6.271322496488062e-06 6.271322496488062e-06 6.271322496488062e-06 6.271322496488062e-06 6.271322496488062e-06 6.271322496488062e-06 6.271322496488062e-06 6.271322496488062e-06 6.271322496488062e-06 6.271322496488062e-06 6.271322496488062e-06 6.271322496488062e-06 6.271322496488062e-06 6.271322496488062e-06 6.271322496488062e-06 6.271322496488062e-06 6.271322496488062e-06 6.271322496488062e-06 0.0008340858920329122 0.004145344170178609 6.271322496488062e-06 6.271322496488062e-06 6.271322496488062e-06 6.271322496488062e-06 6.271322496488062e-06 6.271322496488062e-06 6.271322496488062e-06 6.271322496488062e-06 0.004973158739715033 6.271322496488062e-06 6.271322496488062e-06 6.271322496488062e-06 6.271322496488062e-06 6.271322496488062e-06 6.271322496488062e-06 6.271322496488062e-06 0.003317529600642185 6.271322496488062e-06 6.271322496488062e-06 6.271322496488062e-06 6.271322496488062e-06 0.0008340858920329122 6.271322496488062e-06 6.271322496488062e-06 6.271322496488062e-06 6.271322496488062e-06 0.003317529600642185 0.03229103953441703 6.271322496488062e-06 6.271322496488062e-06 6.271322496488062e-06 6.271322496488062e-06 6.271322496488062e-06 6.271322496488062e-06 0.0008340858920329122 6.271322496488062e-06 6.271322496488062e-06 6.271322496488062e-06 0.008284417017860729 0.0008340858920329122 6.271322496488062e-06 6.271322496488062e-06 6.271322496488062e-06 6.271322496488062e-06 6.271322496488062e-06 6.271322496488062e-06 6.271322496488062e-06 6.271322496488062e-06 6.271322496488062e-06 6.271322496488062e-06 6.271322496488062e-06 6.271322496488062e-06 6.271322496488062e-06 6.271322496488062e-06 6.271322496488062e-06 6.271322496488062e-06 6.271322496488062e-06 6.271322496488062e-06 6.271322496488062e-06 6.271322496488062e-06 6.271322496488062e-06 6.271322496488062e-06 6.271322496488062e-06 6.271322496488062e-06 0.0008340858920329122 6.271322496488062e-06 0.001661900461569337 6.271322496488062e-06 6.271322496488062e-06 6.271322496488062e-06 6.271322496488062e-06 6.271322496488062e-06 0.002489715031105761 6.271322496488062e-06 6.271322496488062e-06 6.271322496488062e-06 6.271322496488062e-06 6.271322496488062e-06 6.271322496488062e-06 6.271322496488062e-06 0.001661900461569337 0.07699302628938393 6.271322496488062e-06 0.001661900461569337 0.009112231587397154 6.271322496488062e-06 6.271322496488062e-06 6.271322496488062e-06 0.0008340858920329122 0.01159567529600643 0.2342777945013045 0.1862645494681919 0.005800973309251457 0.02815196668673491 0.01076786072647 0.009112231587397154 0.3013307746337549 6.271322496488062e-06 6.271322496488062e-06 0.02318507926951636 0.0008340858920329122 0.006628787878787882 0.02484070840858921 0.001661900461569337 6.271322496488062e-06 6.271322496488062e-06 6.271322496488062e-06 6.271322496488062e-06 0.0009469696969696945 0.0009469696969696945 0.0009469696969696945 0.0009469696969696945 0.0009469696969696945 0.0009469696969696945 0.0009469696969696945 0.0009469696969696945 0.0009469696969696945 0.0009469696969696945 0.0009469696969696945 0.0009469696969696945 0.0009469696969696945 0.0009469696969696945 0.0009469696969696945 0.0009469696969696945 0.0009469696969696945 0.0009469696969696945 0.0009469696969696945 0.0009469696969696945 0.1259469696969694 0.0009469696969696945 0.0009469696969696945 0.0009469696969696945 0.0009469696969696945 0.0009469696969696945 0.0009469696969696945 0.0009469696969696945 0.0009469696969696945 0.1259469696969694 0.0009469696969696945 0.0009469696969696945 0.0009469696969696945 0.0009469696969696945 0.0009469696969696945 0.0009469696969696945 0.0009469696969696945 0.0009469696969696945 0.0009469696969696945 0.0009469696969696945 0.0009469696969696945 0.0009469696969696945 0.0009469696969696945 0.0009469696969696945 0.0009469696969696945 0.0009469696969696945 0.0009469696969696945 0.0009469696969696945 0.0009469696969696945 0.0009469696969696945 0.0009469696969696945 0.0009469696969696945 0.0009469696969696945 0.0009469696969696945 0.0009469696969696945 0.3759469696969687 0.0009469696969696945 0.0009469696969696945 0.0009469696969696945 0.0009469696969696945 0.0009469696969696945 0.0009469696969696945 0.0009469696969696945 0.0009469696969696945 0.0009469696969696945 0.0009469696969696945 0.0009469696969696945 0.0009469696969696945 0.0009469696969696945 0.2509469696969691 0.0009469696969696945 0.0009469696969696945 0.0009469696969696945 0.0009469696969696945 0.0009469696969696945 0.0009469696969696945 0.0009469696969696945 0.0009469696969696945 0.0009469696969696945 0.0009469696969696945 0.0009469696969696945 0.0009469696969696945 0.0009469696969696945 0.0009469696969696945 0.0009469696969696945 0.0009469696969696945 0.0009469696969696945 0.0009469696969696945 0.0009469696969696945 0.0009469696969696945 0.0009469696969696945 0.0009469696969696945 0.0009469696969696945 0.0009469696969696945 0.0009469696969696945 0.0009469696969696945 0.0009469696969696945 0.0009469696969696945 0.0009469696969696945 0.0009469696969696945 0.0009469696969696945 0.0009469696969696945 0.0009469696969696945 0.0009469696969696945 0.0009469696969696945 0.0009469696969696945 0.0009469696969696945 0.0009469696969696945 0.0009469696969696945 0.0009469696969696945 0.0009469696969696945 0.0009469696969696945 0.0009469696969696945 0.0009469696969696945 0.0009469696969696945 0.0009469696969696945 0.0009469696969696945 0.0009469696969696945 0.0009469696969696945 0.0009469696969696945 0.0009469696969696945 0.0009469696969696945 0.0009469696969696945 0.0009469696969696945 0.0009469696969696945 0.0009469696969696945 0.0009469696969696945 0.0009469696969696945 0.0009469696969696945 0.0009469696969696945 0.0009469696969696945 0.0009469696969696945 0.002232795662639762 5.624170434860862e-06 0.02821646307169694 5.624170434860862e-06 5.624170434860862e-06 0.001490405165238129 5.624170434860862e-06 5.624170434860862e-06 0.005202357652246297 5.624170434860862e-06 5.624170434860862e-06 5.624170434860862e-06 0.002975186160041396 0.0141110436210659 5.624170434860862e-06 5.624170434860862e-06 0.001490405165238129 0.0007480146678364946 5.624170434860862e-06 0.0007480146678364946 5.624170434860862e-06 5.624170434860862e-06 5.624170434860862e-06 0.002975186160041396 0.001490405165238129 5.624170434860862e-06 5.624170434860862e-06 5.624170434860862e-06 5.624170434860862e-06 5.624170434860862e-06 5.624170434860862e-06 5.624170434860862e-06 5.624170434860862e-06 0.001490405165238129 5.624170434860862e-06 0.02673168207689368 0.4016388832647187 5.624170434860862e-06 5.624170434860862e-06 5.624170434860862e-06 5.624170434860862e-06 5.624170434860862e-06 0.001490405165238129 5.624170434860862e-06 5.624170434860862e-06 0.0007480146678364946 5.624170434860862e-06 5.624170434860862e-06 5.624170434860862e-06 5.624170434860862e-06 5.624170434860862e-06 0.04232188252232798 0.0096567006366561 0.006687138647049565 0.1150761512676881 5.624170434860862e-06 5.624170434860862e-06 5.624170434860862e-06 5.624170434860862e-06 0.0007480146678364946 5.624170434860862e-06 5.624170434860862e-06 5.624170434860862e-06 0.001490405165238129 5.624170434860862e-06 0.001490405165238129 5.624170434860862e-06 0.001490405165238129 5.624170434860862e-06 5.624170434860862e-06 0.001490405165238129 0.01708060561067244 0.002232795662639762 0.002975186160041396 0.008914310139254466 0.002975186160041396 5.624170434860862e-06 5.624170434860862e-06 5.624170434860862e-06 0.01633821511327081 0.008914310139254466 5.624170434860862e-06 0.005944748149647931 0.008171919641852833 5.624170434860862e-06 0.0007480146678364946 5.624170434860862e-06 0.0007480146678364946 0.0007480146678364946 0.008914310139254466 5.624170434860862e-06 0.05123056849114759 0.002232795662639762 0.06756315943398353 0.0096567006366561 0.0007480146678364946 5.624170434860862e-06 5.624170434860862e-06 5.624170434860862e-06 0.0007480146678364946 5.624170434860862e-06 5.624170434860862e-06 5.624170434860862e-06 5.624170434860862e-06 0.08538053137162274 5.624170434860862e-06 5.624170434860862e-06 0.008171919641852833 5.624170434860862e-06 5.624170434860862e-06 0.0007480146678364946 0.0141110436210659 5.624170434860862e-06 5.624170434860862e-06 5.624170434860862e-06 5.624170434860862e-06 5.624170434860862e-06 5.624170434860862e-06 5.624170434860862e-06 5.624170434860862e-06 5.624170434860862e-06 5.624170434860862e-06 5.624170434860862e-06 5.624170434860862e-06 5.624170434860862e-06 5.624170434860862e-06 5.624170434860862e-06 5.624170434860862e-06 5.624170434860862e-06 5.624170434860862e-06 5.624170434860862e-06 5.624170434860862e-06 0.002525252525252525 0.002525252525252525 0.002525252525252525 0.002525252525252525 0.002525252525252525 0.002525252525252525 0.002525252525252525 0.002525252525252525 0.002525252525252525 0.002525252525252525 0.002525252525252525 0.002525252525252525 0.002525252525252525 0.002525252525252525 0.002525252525252525 0.002525252525252525 0.002525252525252525 0.002525252525252525 0.002525252525252525 0.002525252525252525 0.002525252525252525 0.002525252525252525 0.002525252525252525 0.002525252525252525 0.002525252525252525 0.002525252525252525 0.002525252525252525 0.002525252525252525 0.002525252525252525 0.002525252525252525 0.002525252525252525 0.002525252525252525 0.002525252525252525 0.002525252525252525 0.002525252525252525 0.002525252525252525 0.002525252525252525 0.002525252525252525 0.002525252525252525 0.002525252525252525 0.002525252525252525 0.002525252525252525 0.002525252525252525 0.002525252525252525 0.002525252525252525 0.002525252525252525 0.002525252525252525 0.002525252525252525 0.002525252525252525 0.002525252525252525 0.002525252525252525 0.002525252525252525 0.002525252525252525 0.002525252525252525 0.002525252525252525 0.002525252525252525 0.002525252525252525 0.002525252525252525 0.002525252525252525 0.002525252525252525 0.002525252525252525 0.002525252525252525 0.002525252525252525 0.002525252525252525 0.002525252525252525 0.002525252525252525 0.002525252525252525 0.002525252525252525 0.002525252525252525 0.002525252525252525 0.002525252525252525 0.002525252525252525 0.002525252525252525 0.002525252525252525 0.002525252525252525 0.002525252525252525 0.002525252525252525 0.002525252525252525 0.002525252525252525 0.002525252525252525 0.002525252525252525 0.002525252525252525 0.002525252525252525 0.002525252525252525 0.002525252525252525 0.002525252525252525 0.002525252525252525 0.002525252525252525 0.002525252525252525 0.002525252525252525 0.002525252525252525 0.002525252525252525 0.002525252525252525 0.002525252525252525 0.002525252525252525 0.002525252525252525 0.002525252525252525 0.002525252525252525 0.002525252525252525 0.002525252525252525 0.002525252525252525 0.002525252525252525 0.002525252525252525 0.002525252525252525 0.002525252525252525 0.002525252525252525 0.002525252525252525 0.002525252525252525 0.002525252525252525 0.002525252525252525 0.002525252525252525 0.002525252525252525 0.002525252525252525 0.002525252525252525 0.002525252525252525 0.002525252525252525 0.002525252525252525 0.002525252525252525 0.002525252525252525 0.002525252525252525 0.002525252525252525 0.002525252525252525 0.002525252525252525 0.002525252525252525 0.002525252525252525 0.002525252525252525 0.002525252525252525 0.002525252525252525 0.3358585858585859 0.3358585858585859 0.002525252525252525 0.002525252525252525 0.005110131306685235 0.008300941772543565 4.834561311906561e-06 0.01659704898377522 0.002557482933998571 4.834561311906561e-06 0.05041963992187352 4.834561311906561e-06 0.04531434317650019 0.001919320840826905 4.834561311906561e-06 4.834561311906561e-06 4.834561311906561e-06 4.834561311906561e-06 4.834561311906561e-06 4.834561311906561e-06 4.834561311906561e-06 4.834561311906561e-06 4.834561311906561e-06 4.834561311906561e-06 4.834561311906561e-06 4.834561311906561e-06 0.002557482933998571 4.834561311906561e-06 0.003195645027170237 4.834561311906561e-06 4.834561311906561e-06 4.834561311906561e-06 4.834561311906561e-06 0.008300941772543565 4.834561311906561e-06 0.006386455493028567 4.834561311906561e-06 4.834561311906561e-06 0.0006429966544835725 4.834561311906561e-06 4.834561311906561e-06 0.001919320840826905 4.834561311906561e-06 4.834561311906561e-06 4.834561311906561e-06 4.834561311906561e-06 4.834561311906561e-06 4.834561311906561e-06 4.834561311906561e-06 4.834561311906561e-06 0.001919320840826905 4.834561311906561e-06 0.001919320840826905 4.834561311906561e-06 4.834561311906561e-06 4.834561311906561e-06 0.003833807120341903 4.834561311906561e-06 4.834561311906561e-06 0.01085359014523023 4.834561311906561e-06 0.008939103865715231 4.834561311906561e-06 4.834561311906561e-06 4.834561311906561e-06 4.834561311906561e-06 0.005110131306685235 4.834561311906561e-06 4.834561311906561e-06 4.834561311906561e-06 4.834561311906561e-06 4.834561311906561e-06 4.834561311906561e-06 0.001919320840826905 4.834561311906561e-06 4.834561311906561e-06 4.834561311906561e-06 4.834561311906561e-06 4.834561311906561e-06 4.834561311906561e-06 4.834561311906561e-06 4.834561311906561e-06 4.834561311906561e-06 4.834561311906561e-06 4.834561311906561e-06 4.834561311906561e-06 4.834561311906561e-06 4.834561311906561e-06 4.834561311906561e-06 4.834561311906561e-06 4.834561311906561e-06 4.834561311906561e-06 4.834561311906561e-06 4.834561311906561e-06 4.834561311906561e-06 4.834561311906561e-06 4.834561311906561e-06 4.834561311906561e-06 4.834561311906561e-06 4.834561311906561e-06 4.834561311906561e-06 4.834561311906561e-06 4.834561311906561e-06 4.834561311906561e-06 4.834561311906561e-06 4.834561311906561e-06 4.834561311906561e-06 4.834561311906561e-06 4.834561311906561e-06 4.834561311906561e-06 4.834561311906561e-06 4.834561311906561e-06 4.834561311906561e-06 4.834561311906561e-06 4.834561311906561e-06 4.834561311906561e-06 4.834561311906561e-06 0.02680764247452188 0.4160865193092381 0.08934752760534515 0.04212353271064186 4.834561311906561e-06 4.834561311906561e-06 0.01404440061108856 0.1940061108854984 4.834561311906561e-06 4.834561311906561e-06 0.01978785944963355 0.003833807120341903 4.834561311906561e-06 0.005748293399856901 4.834561311906561e-06 4.834561311906561e-06 4.834561311906561e-06 4.834561311906561e-06 4.834561311906561e-06 1.02652541676932e-05 1.02652541676932e-05 1.02652541676932e-05 1.02652541676932e-05 1.02652541676932e-05 1.02652541676932e-05 1.02652541676932e-05 1.02652541676932e-05 1.02652541676932e-05 1.02652541676932e-05 0.001365278804303196 0.02982056335714875 1.02652541676932e-05 0.005430319454709703 0.001365278804303196 0.006785333004845206 1.02652541676932e-05 0.001365278804303196 0.001365278804303196 1.02652541676932e-05 1.02652541676932e-05 1.02652541676932e-05 1.02652541676932e-05 1.02652541676932e-05 1.02652541676932e-05 1.02652541676932e-05 0.01898045495606473 0.01085037365525171 1.02652541676932e-05 1.02652541676932e-05 1.02652541676932e-05 1.02652541676932e-05 1.02652541676932e-05 1.02652541676932e-05 1.02652541676932e-05 0.02169048205633573 1.02652541676932e-05 1.02652541676932e-05 1.02652541676932e-05 1.02652541676932e-05 1.02652541676932e-05 1.02652541676932e-05 0.002720292354438698 1.02652541676932e-05 1.02652541676932e-05 1.02652541676932e-05 1.02652541676932e-05 1.02652541676932e-05 1.02652541676932e-05 1.02652541676932e-05 1.02652541676932e-05 1.02652541676932e-05 1.02652541676932e-05 0.05556582080972329 1.02652541676932e-05 1.02652541676932e-05 1.02652541676932e-05 1.02652541676932e-05 1.02652541676932e-05 1.02652541676932e-05 0.001365278804303196 1.02652541676932e-05 1.02652541676932e-05 1.02652541676932e-05 0.006785333004845206 1.02652541676932e-05 1.02652541676932e-05 1.02652541676932e-05 1.02652541676932e-05 1.02652541676932e-05 1.02652541676932e-05 1.02652541676932e-05 1.02652541676932e-05 0.002720292354438698 0.01627042785579372 0.04879075305904578 0.006785333004845206 1.02652541676932e-05 1.02652541676932e-05 0.03795064465796176 0.00949536010511621 0.002720292354438698 1.02652541676932e-05 1.02652541676932e-05 0.01085037365525171 1.02652541676932e-05 1.02652541676932e-05 1.02652541676932e-05 0.05150078015931678 0.02169048205633573 0.02575552270674224 0.2290075552270676 0.001365278804303196 0.03253059045741975 0.02440050915660674 1.02652541676932e-05 1.02652541676932e-05 0.001365278804303196 0.001365278804303196 1.02652541676932e-05 0.001365278804303196 0.001365278804303196 0.01085037365525171 0.005430319454709703 1.02652541676932e-05 0.07589102406175582 0.001365278804303196 1.02652541676932e-05 0.1748070132216475 1.02652541676932e-05 0.002720292354438698 0.02033546850620023 0.01491541430565822 1.02652541676932e-05 1.02652541676932e-05 1.02652541676932e-05 1.02652541676932e-05 1.02652541676932e-05 1.02652541676932e-05 1.02652541676932e-05 1.02652541676932e-05 1.02652541676932e-05 1.02652541676932e-05 1.02652541676932e-05 1.02652541676932e-05 1.02652541676932e-05 1.02652541676932e-05 1.02652541676932e-05 1.02652541676932e-05 1.02652541676932e-05 1.02652541676932e-05 1.02652541676932e-05 0.0001893939393939393 0.0001893939393939393 0.0001893939393939393 0.0001893939393939393 0.0001893939393939393 0.0001893939393939393 0.0001893939393939393 0.0001893939393939393 0.0001893939393939393 0.0001893939393939393 0.0001893939393939393 0.0001893939393939393 0.0001893939393939393 0.0001893939393939393 0.0001893939393939393 0.0001893939393939393 0.0001893939393939393 0.0001893939393939393 0.0001893939393939393 0.0001893939393939393 0.0001893939393939393 0.0001893939393939393 0.0001893939393939393 0.2501893939393938 0.0001893939393939393 0.0001893939393939393 0.0001893939393939393 0.0001893939393939393 0.0001893939393939393 0.0001893939393939393 0.02518939393939393 0.0001893939393939393 0.1251893939393939 0.0001893939393939393 0.0001893939393939393 0.0001893939393939393 0.0001893939393939393 0.0001893939393939393 0.0001893939393939393 0.0001893939393939393 0.0001893939393939393 0.0001893939393939393 0.0001893939393939393 0.0001893939393939393 0.0001893939393939393 0.0001893939393939393 0.0001893939393939393 0.0001893939393939393 0.0001893939393939393 0.05018939393939392 0.0001893939393939393 0.0001893939393939393 0.0001893939393939393 0.0001893939393939393 0.0001893939393939393 0.0001893939393939393 0.0001893939393939393 0.0001893939393939393 0.4501893939393937 0.0001893939393939393 0.0001893939393939393 0.0001893939393939393 0.0001893939393939393 0.0751893939393939 0.0001893939393939393 0.0001893939393939393 0.0001893939393939393 0.0001893939393939393 0.0001893939393939393 0.0001893939393939393 0.0001893939393939393 0.0001893939393939393 0.0001893939393939393 0.0001893939393939393 0.0001893939393939393 0.0001893939393939393 0.0001893939393939393 0.0001893939393939393 0.0001893939393939393 0.0001893939393939393 0.0001893939393939393 0.0001893939393939393 0.0001893939393939393 0.0001893939393939393 0.0001893939393939393 0.0001893939393939393 0.0001893939393939393 0.0001893939393939393 0.0001893939393939393 0.0001893939393939393 0.0001893939393939393 0.0001893939393939393 0.0001893939393939393 0.0001893939393939393 0.0001893939393939393 0.0001893939393939393 0.0001893939393939393 0.0001893939393939393 0.0001893939393939393 0.0001893939393939393 0.0001893939393939393 0.0001893939393939393 0.0001893939393939393 0.0001893939393939393 0.0001893939393939393 0.0001893939393939393 0.0001893939393939393 0.0001893939393939393 0.0001893939393939393 0.0001893939393939393 0.0001893939393939393 0.0001893939393939393 0.0001893939393939393 0.0001893939393939393 0.0001893939393939393 0.0001893939393939393 0.0001893939393939393 0.0001893939393939393 0.0001893939393939393 0.0001893939393939393 0.0001893939393939393 0.0001893939393939393 0.0001893939393939393 0.0001893939393939393 0.0001893939393939393 0.0001893939393939393 0.0001893939393939393 0.0001893939393939393 0.0001893939393939393 0.0001893939393939393 0.0001893939393939393 0.0001893939393939393 0.01411252018618791 0.008626626769260005 0.02116581172223807 0.08934762990405629 0.0007896361736487134 5.937114087584311e-06 0.01097772394794339 0.0007896361736487134 0.001573335233209843 0.003140733352332101 0.0007896361736487134 5.937114087584311e-06 0.005491830531015488 5.937114087584311e-06 5.937114087584311e-06 0.006275529590576616 0.004708131471454359 5.937114087584311e-06 0.003140733352332101 0.007842927709698876 0.001573335233209843 5.937114087584311e-06 5.937114087584311e-06 5.937114087584311e-06 5.937114087584311e-06 5.937114087584311e-06 0.005491830531015488 5.937114087584311e-06 0.02978650137741049 0.0007896361736487134 5.937114087584311e-06 0.008626626769260005 5.937114087584311e-06 5.937114087584311e-06 5.937114087584311e-06 5.937114087584311e-06 0.1818241189322695 0.002357034292770972 5.937114087584311e-06 0.001573335233209843 5.937114087584311e-06 5.937114087584311e-06 5.937114087584311e-06 5.937114087584311e-06 5.937114087584311e-06 5.937114087584311e-06 5.937114087584311e-06 0.0007896361736487134 0.01881471454355468 5.937114087584311e-06 0.008626626769260005 5.937114087584311e-06 5.937114087584311e-06 0.009410325828821132 0.1559620499667523 0.0007896361736487134 5.937114087584311e-06 0.002357034292770972 5.937114087584311e-06 5.937114087584311e-06 5.937114087584311e-06 0.0007896361736487134 5.937114087584311e-06 5.937114087584311e-06 0.001573335233209843 0.001573335233209843 5.937114087584311e-06 5.937114087584311e-06 5.937114087584311e-06 5.937114087584311e-06 5.937114087584311e-06 5.937114087584311e-06 5.937114087584311e-06 5.937114087584311e-06 5.937114087584311e-06 5.937114087584311e-06 5.937114087584311e-06 5.937114087584311e-06 5.937114087584311e-06 5.937114087584311e-06 5.937114087584311e-06 5.937114087584311e-06 5.937114087584311e-06 5.937114087584311e-06 5.937114087584311e-06 5.937114087584311e-06 5.937114087584311e-06 5.937114087584311e-06 5.937114087584311e-06 5.937114087584311e-06 5.937114087584311e-06 5.937114087584311e-06 5.937114087584311e-06 5.937114087584311e-06 5.937114087584311e-06 5.937114087584311e-06 5.937114087584311e-06 5.937114087584311e-06 5.937114087584311e-06 5.937114087584311e-06 5.937114087584311e-06 5.937114087584311e-06 5.937114087584311e-06 5.937114087584311e-06 5.937114087584311e-06 5.937114087584311e-06 5.937114087584311e-06 5.937114087584311e-06 5.937114087584311e-06 5.937114087584311e-06 5.937114087584311e-06 5.937114087584311e-06 5.937114087584311e-06 5.937114087584311e-06 0.1763382255153416 0.1716360311579748 0.004708131471454359 0.002357034292770972 5.937114087584311e-06 0.0219495107817992 5.937114087584311e-06 0.0007896361736487134 0.007059228650137746 5.937114087584311e-06 5.937114087584311e-06 5.937114087584311e-06 5.937114087584311e-06 5.937114087584311e-06 0.002357034292770972 5.937114087584311e-06 0.0007896361736487134 5.937114087584311e-06 0.001893939393939384 0.001893939393939384 0.001893939393939384 0.001893939393939384 0.001893939393939384 0.001893939393939384 0.001893939393939384 0.001893939393939384 0.001893939393939384 0.001893939393939384 0.001893939393939384 0.001893939393939384 0.001893939393939384 0.001893939393939384 0.001893939393939384 0.001893939393939384 0.001893939393939384 0.001893939393939384 0.001893939393939384 0.001893939393939384 0.001893939393939384 0.001893939393939384 0.001893939393939384 0.001893939393939384 0.2518939393939381 0.001893939393939384 0.001893939393939384 0.001893939393939384 0.001893939393939384 0.001893939393939384 0.001893939393939384 0.001893939393939384 0.001893939393939384 0.2518939393939381 0.001893939393939384 0.001893939393939384 0.001893939393939384 0.001893939393939384 0.001893939393939384 0.001893939393939384 0.001893939393939384 0.001893939393939384 0.001893939393939384 0.001893939393939384 0.001893939393939384 0.001893939393939384 0.001893939393939384 0.001893939393939384 0.001893939393939384 0.001893939393939384 0.001893939393939384 0.001893939393939384 0.001893939393939384 0.001893939393939384 0.001893939393939384 0.001893939393939384 0.001893939393939384 0.001893939393939384 0.001893939393939384 0.2518939393939381 0.001893939393939384 0.001893939393939384 0.001893939393939384 0.001893939393939384 0.001893939393939384 0.001893939393939384 0.001893939393939384 0.001893939393939384 0.001893939393939384 0.001893939393939384 0.001893939393939384 0.001893939393939384 0.001893939393939384 0.001893939393939384 0.001893939393939384 0.001893939393939384 0.001893939393939384 0.001893939393939384 0.001893939393939384 0.001893939393939384 0.001893939393939384 0.001893939393939384 0.001893939393939384 0.001893939393939384 0.001893939393939384 0.001893939393939384 0.001893939393939384 0.001893939393939384 0.001893939393939384 0.001893939393939384 0.001893939393939384 0.001893939393939384 0.001893939393939384 0.001893939393939384 0.001893939393939384 0.001893939393939384 0.001893939393939384 0.001893939393939384 0.001893939393939384 0.001893939393939384 0.001893939393939384 0.001893939393939384 0.001893939393939384 0.001893939393939384 0.001893939393939384 0.001893939393939384 0.001893939393939384 0.001893939393939384 0.001893939393939384 0.001893939393939384 0.001893939393939384 0.001893939393939384 0.001893939393939384 0.001893939393939384 0.001893939393939384 0.001893939393939384 0.001893939393939384 0.001893939393939384 0.001893939393939384 0.001893939393939384 0.001893939393939384 0.001893939393939384 0.001893939393939384 0.001893939393939384 0.001893939393939384 0.001893939393939384 0.001893939393939384 0.001893939393939384 0.001893939393939384 0.001893939393939384 0.001893939393939384 0.001893939393939384 0.00378787878787879 0.00378787878787879 0.00378787878787879 0.00378787878787879 0.00378787878787879 0.00378787878787879 0.00378787878787879 0.00378787878787879 0.00378787878787879 0.00378787878787879 0.00378787878787879 0.00378787878787879 0.00378787878787879 0.00378787878787879 0.00378787878787879 0.00378787878787879 0.00378787878787879 0.00378787878787879 0.00378787878787879 0.00378787878787879 0.00378787878787879 0.00378787878787879 0.00378787878787879 0.00378787878787879 0.00378787878787879 0.00378787878787879 0.00378787878787879 0.00378787878787879 0.00378787878787879 0.00378787878787879 0.00378787878787879 0.00378787878787879 0.00378787878787879 0.00378787878787879 0.00378787878787879 0.00378787878787879 0.00378787878787879 0.00378787878787879 0.00378787878787879 0.00378787878787879 0.00378787878787879 0.00378787878787879 0.00378787878787879 0.00378787878787879 0.00378787878787879 0.00378787878787879 0.00378787878787879 0.00378787878787879 0.00378787878787879 0.00378787878787879 0.00378787878787879 0.00378787878787879 0.00378787878787879 0.00378787878787879 0.00378787878787879 0.00378787878787879 0.00378787878787879 0.00378787878787879 0.00378787878787879 0.00378787878787879 0.00378787878787879 0.00378787878787879 0.00378787878787879 0.00378787878787879 0.00378787878787879 0.00378787878787879 0.00378787878787879 0.00378787878787879 0.00378787878787879 0.00378787878787879 0.00378787878787879 0.00378787878787879 0.00378787878787879 0.00378787878787879 0.00378787878787879 0.00378787878787879 0.00378787878787879 0.00378787878787879 0.00378787878787879 0.00378787878787879 0.00378787878787879 0.00378787878787879 0.00378787878787879 0.00378787878787879 0.00378787878787879 0.00378787878787879 0.00378787878787879 0.00378787878787879 0.00378787878787879 0.00378787878787879 0.00378787878787879 0.00378787878787879 0.00378787878787879 0.00378787878787879 0.00378787878787879 0.00378787878787879 0.00378787878787879 0.00378787878787879 0.00378787878787879 0.00378787878787879 0.00378787878787879 0.00378787878787879 0.00378787878787879 0.00378787878787879 0.00378787878787879 0.00378787878787879 0.00378787878787879 0.00378787878787879 0.00378787878787879 0.00378787878787879 0.00378787878787879 0.00378787878787879 0.00378787878787879 0.00378787878787879 0.00378787878787879 0.00378787878787879 0.00378787878787879 0.00378787878787879 0.00378787878787879 0.00378787878787879 0.00378787878787879 0.00378787878787879 0.00378787878787879 0.00378787878787879 0.00378787878787879 0.00378787878787879 0.00378787878787879 0.00378787878787879 0.00378787878787879 0.00378787878787879 0.00378787878787879 0.503787878787879 1.134095445472692e-05 1.134095445472692e-05 1.134095445472692e-05 1.134095445472692e-05 1.134095445472692e-05 1.134095445472692e-05 1.134095445472692e-05 1.134095445472692e-05 1.134095445472692e-05 1.134095445472692e-05 1.134095445472692e-05 1.134095445472692e-05 1.134095445472692e-05 1.134095445472692e-05 1.134095445472692e-05 1.134095445472692e-05 1.134095445472692e-05 1.134095445472692e-05 1.134095445472692e-05 1.134095445472692e-05 1.134095445472692e-05 0.00150834694247868 1.134095445472692e-05 1.134095445472692e-05 1.134095445472692e-05 1.134095445472692e-05 1.134095445472692e-05 1.134095445472692e-05 1.134095445472692e-05 1.134095445472692e-05 0.003005352930502633 1.134095445472692e-05 0.0359394846670296 1.134095445472692e-05 1.134095445472692e-05 1.134095445472692e-05 1.134095445472692e-05 1.134095445472692e-05 0.003005352930502633 1.134095445472692e-05 0.01647840682271821 1.134095445472692e-05 1.134095445472692e-05 0.003005352930502633 1.134095445472692e-05 1.134095445472692e-05 1.134095445472692e-05 1.134095445472692e-05 0.01348439484667031 0.01198738885864635 1.134095445472692e-05 0.02396343676283797 1.134095445472692e-05 1.134095445472692e-05 1.134095445472692e-05 1.134095445472692e-05 0.004502358918526586 1.134095445472692e-05 0.00150834694247868 1.134095445472692e-05 1.134095445472692e-05 0.00150834694247868 1.134095445472692e-05 1.134095445472692e-05 1.134095445472692e-05 1.134095445472692e-05 0.00150834694247868 1.134095445472692e-05 1.134095445472692e-05 0.003005352930502633 0.004502358918526586 1.134095445472692e-05 1.134095445472692e-05 0.00150834694247868 1.134095445472692e-05 0.06737661041553261 1.134095445472692e-05 1.134095445472692e-05 0.0104903828706224 1.134095445472692e-05 0.0359394846670296 1.134095445472692e-05 0.01198738885864635 1.134095445472692e-05 1.134095445472692e-05 1.134095445472692e-05 1.134095445472692e-05 1.134095445472692e-05 1.134095445472692e-05 1.134095445472692e-05 0.003005352930502633 0.09432271819996377 1.134095445472692e-05 0.02396343676283797 1.134095445472692e-05 1.134095445472692e-05 1.134095445472692e-05 1.134095445472692e-05 1.134095445472692e-05 1.134095445472692e-05 1.134095445472692e-05 1.134095445472692e-05 0.01498140083469426 1.134095445472692e-05 0.00150834694247868 0.2724664307748142 1.134095445472692e-05 1.134095445472692e-05 0.02096942478679007 0.00150834694247868 1.134095445472692e-05 0.007496370894574492 0.003005352930502633 1.134095445472692e-05 1.134095445472692e-05 1.134095445472692e-05 1.134095445472692e-05 0.003005352930502633 0.02096942478679007 1.134095445472692e-05 0.0613885864634368 1.134095445472692e-05 0.08534068227182005 0.0583945744873889 1.134095445472692e-05 0.03893349664307751 0.03144846670295774 1.134095445472692e-05 1.134095445472692e-05 1.134095445472692e-05 1.134095445472692e-05 1.134095445472692e-05 0.002525252525252514 0.002525252525252514 0.002525252525252514 0.002525252525252514 0.002525252525252514 0.002525252525252514 0.002525252525252514 0.002525252525252514 0.002525252525252514 0.002525252525252514 0.002525252525252514 0.002525252525252514 0.002525252525252514 0.002525252525252514 0.002525252525252514 0.002525252525252514 0.002525252525252514 0.002525252525252514 0.002525252525252514 0.002525252525252514 0.002525252525252514 0.002525252525252514 0.002525252525252514 0.002525252525252514 0.002525252525252514 0.3358585858585844 0.002525252525252514 0.002525252525252514 0.002525252525252514 0.002525252525252514 0.002525252525252514 0.002525252525252514 0.002525252525252514 0.002525252525252514 0.002525252525252514 0.002525252525252514 0.002525252525252514 0.002525252525252514 0.002525252525252514 0.002525252525252514 0.002525252525252514 0.002525252525252514 0.002525252525252514 0.002525252525252514 0.002525252525252514 0.002525252525252514 0.002525252525252514 0.002525252525252514 0.002525252525252514 0.002525252525252514 0.002525252525252514 0.002525252525252514 0.002525252525252514 0.002525252525252514 0.002525252525252514 0.002525252525252514 0.002525252525252514 0.002525252525252514 0.002525252525252514 0.002525252525252514 0.002525252525252514 0.002525252525252514 0.002525252525252514 0.002525252525252514 0.002525252525252514 0.002525252525252514 0.002525252525252514 0.002525252525252514 0.3358585858585844 0.002525252525252514 0.002525252525252514 0.002525252525252514 0.002525252525252514 0.002525252525252514 0.002525252525252514 0.002525252525252514 0.002525252525252514 0.002525252525252514 0.002525252525252514 0.002525252525252514 0.002525252525252514 0.002525252525252514 0.002525252525252514 0.002525252525252514 0.002525252525252514 0.002525252525252514 0.002525252525252514 0.002525252525252514 0.002525252525252514 0.002525252525252514 0.002525252525252514 0.002525252525252514 0.002525252525252514 0.002525252525252514 0.002525252525252514 0.002525252525252514 0.002525252525252514 0.002525252525252514 0.002525252525252514 0.002525252525252514 0.002525252525252514 0.002525252525252514 0.002525252525252514 0.002525252525252514 0.002525252525252514 0.002525252525252514 0.002525252525252514 0.002525252525252514 0.002525252525252514 0.002525252525252514 0.002525252525252514 0.002525252525252514 0.002525252525252514 0.002525252525252514 0.002525252525252514 0.002525252525252514 0.002525252525252514 0.002525252525252514 0.002525252525252514 0.002525252525252514 0.002525252525252514 0.002525252525252514 0.002525252525252514 0.002525252525252514 0.002525252525252514 0.002525252525252514 0.002525252525252514 0.002525252525252514 0.002525252525252514 0.002525252525252514 0.002525252525252514 0.002525252525252514 0.001893939393939387 0.001893939393939387 0.001893939393939387 0.001893939393939387 0.001893939393939387 0.001893939393939387 0.001893939393939387 0.001893939393939387 0.001893939393939387 0.001893939393939387 0.001893939393939387 0.001893939393939387 0.001893939393939387 0.001893939393939387 0.001893939393939387 0.001893939393939387 0.001893939393939387 0.001893939393939387 0.001893939393939387 0.001893939393939387 0.001893939393939387 0.001893939393939387 0.001893939393939387 0.001893939393939387 0.001893939393939387 0.001893939393939387 0.001893939393939387 0.001893939393939387 0.001893939393939387 0.001893939393939387 0.001893939393939387 0.001893939393939387 0.001893939393939387 0.001893939393939387 0.001893939393939387 0.001893939393939387 0.001893939393939387 0.001893939393939387 0.001893939393939387 0.001893939393939387 0.001893939393939387 0.001893939393939387 0.2518939393939384 0.001893939393939387 0.001893939393939387 0.001893939393939387 0.001893939393939387 0.001893939393939387 0.001893939393939387 0.001893939393939387 0.001893939393939387 0.001893939393939387 0.001893939393939387 0.001893939393939387 0.001893939393939387 0.001893939393939387 0.001893939393939387 0.001893939393939387 0.001893939393939387 0.001893939393939387 0.2518939393939384 0.001893939393939387 0.001893939393939387 0.001893939393939387 0.001893939393939387 0.001893939393939387 0.001893939393939387 0.001893939393939387 0.001893939393939387 0.001893939393939387 0.001893939393939387 0.001893939393939387 0.001893939393939387 0.001893939393939387 0.001893939393939387 0.001893939393939387 0.001893939393939387 0.001893939393939387 0.001893939393939387 0.001893939393939387 0.001893939393939387 0.001893939393939387 0.001893939393939387 0.001893939393939387 0.001893939393939387 0.001893939393939387 0.2518939393939384 0.001893939393939387 0.001893939393939387 0.001893939393939387 0.001893939393939387 0.001893939393939387 0.001893939393939387 0.001893939393939387 0.001893939393939387 0.001893939393939387 0.001893939393939387 0.001893939393939387 0.001893939393939387 0.001893939393939387 0.001893939393939387 0.001893939393939387 0.001893939393939387 0.001893939393939387 0.001893939393939387 0.001893939393939387 0.001893939393939387 0.001893939393939387 0.001893939393939387 0.001893939393939387 0.001893939393939387 0.001893939393939387 0.001893939393939387 0.001893939393939387 0.001893939393939387 0.001893939393939387 0.001893939393939387 0.001893939393939387 0.001893939393939387 0.001893939393939387 0.001893939393939387 0.001893939393939387 0.001893939393939387 0.001893939393939387 0.001893939393939387 0.001893939393939387 0.001893939393939387 0.001893939393939387 0.001893939393939387 0.001893939393939387 0.001893939393939387 0.001893939393939387 1.424014581909321e-05 1.424014581909321e-05 0.03948792435634547 0.1522698792435637 1.424014581909321e-05 1.424014581909321e-05 0.04700672134882669 0.003773638642059702 1.424014581909321e-05 1.424014581909321e-05 1.424014581909321e-05 1.424014581909321e-05 1.424014581909321e-05 1.424014581909321e-05 1.424014581909321e-05 1.424014581909321e-05 1.424014581909321e-05 1.424014581909321e-05 1.424014581909321e-05 1.424014581909321e-05 1.424014581909321e-05 0.001893939393939397 1.424014581909321e-05 1.424014581909321e-05 1.424014581909321e-05 1.424014581909321e-05 0.01129243563454092 1.424014581909321e-05 0.007533037138300309 1.424014581909321e-05 1.424014581909321e-05 1.424014581909321e-05 1.424014581909321e-05 1.424014581909321e-05 1.424014581909321e-05 0.01881123262702213 0.4379841649578499 1.424014581909321e-05 1.424014581909321e-05 1.424014581909321e-05 1.424014581909321e-05 0.007533037138300309 1.424014581909321e-05 1.424014581909321e-05 0.001893939393939397 1.424014581909321e-05 1.424014581909321e-05 1.424014581909321e-05 1.424014581909321e-05 0.003773638642059702 1.424014581909321e-05 1.424014581909321e-05 0.003773638642059702 1.424014581909321e-05 0.04888642059694699 1.424014581909321e-05 1.424014581909321e-05 1.424014581909321e-05 1.424014581909321e-05 0.01317213488266122 0.003773638642059702 1.424014581909321e-05 1.424014581909321e-05 1.424014581909321e-05 0.007533037138300309 0.03760822510822517 1.424014581909321e-05 1.424014581909321e-05 1.424014581909321e-05 1.424014581909321e-05 1.424014581909321e-05 0.005653337890180006 0.001893939393939397 1.424014581909321e-05 0.001893939393939397 1.424014581909321e-05 1.424014581909321e-05 0.001893939393939397 0.02820972886762365 0.09587890179995459 1.424014581909321e-05 1.424014581909321e-05 0.003773638642059702 0.01129243563454092 1.424014581909321e-05 1.424014581909321e-05 1.424014581909321e-05 1.424014581909321e-05 1.424014581909321e-05 1.424014581909321e-05 1.424014581909321e-05 1.424014581909321e-05 1.424014581909321e-05 1.424014581909321e-05 1.424014581909321e-05 1.424014581909321e-05 1.424014581909321e-05 1.424014581909321e-05 1.424014581909321e-05 1.424014581909321e-05 1.424014581909321e-05 1.424014581909321e-05 1.424014581909321e-05 1.424014581909321e-05 1.424014581909321e-05 1.424014581909321e-05 1.424014581909321e-05 1.424014581909321e-05 1.424014581909321e-05 1.424014581909321e-05 1.424014581909321e-05 1.424014581909321e-05 1.424014581909321e-05 1.424014581909321e-05 1.424014581909321e-05 1.424014581909321e-05 1.424014581909321e-05 1.424014581909321e-05 1.424014581909321e-05 1.424014581909321e-05 1.424014581909321e-05 1.424014581909321e-05 1.424014581909321e-05 1.424014581909321e-05 1.424014581909321e-05 1.424014581909321e-05 1.424014581909321e-05 1.424014581909321e-05 1.424014581909321e-05 1.424014581909321e-05 1.424014581909321e-05 1.424014581909321e-05 0.0001352813852813852 0.0001352813852813852 0.0001352813852813852 0.0001352813852813852 0.0001352813852813852 0.0001352813852813852 0.0001352813852813852 0.0001352813852813852 0.0001352813852813852 0.0001352813852813852 0.01799242424242423 0.0001352813852813852 0.3394209956709955 0.0001352813852813852 0.0001352813852813852 0.0001352813852813852 0.0001352813852813852 0.01799242424242423 0.0001352813852813852 0.4822781385281383 0.0001352813852813852 0.0001352813852813852 0.03584956709956709 0.0001352813852813852 0.0001352813852813852 0.0001352813852813852 0.0001352813852813852 0.0001352813852813852 0.0001352813852813852 0.0001352813852813852 0.0001352813852813852 0.0001352813852813852 0.0001352813852813852 0.0001352813852813852 0.0001352813852813852 0.0001352813852813852 0.0001352813852813852 0.0001352813852813852 0.0001352813852813852 0.0001352813852813852 0.0001352813852813852 0.0001352813852813852 0.0001352813852813852 0.0001352813852813852 0.0001352813852813852 0.0001352813852813852 0.0001352813852813852 0.0001352813852813852 0.0001352813852813852 0.0001352813852813852 0.08942099567099564 0.0001352813852813852 0.0001352813852813852 0.0001352813852813852 0.0001352813852813852 0.0001352813852813852 0.0001352813852813852 0.0001352813852813852 0.0001352813852813852 0.0001352813852813852 0.0001352813852813852 0.0001352813852813852 0.0001352813852813852 0.0001352813852813852 0.0001352813852813852 0.0001352813852813852 0.0001352813852813852 0.0001352813852813852 0.0001352813852813852 0.0001352813852813852 0.0001352813852813852 0.0001352813852813852 0.0001352813852813852 0.0001352813852813852 0.0001352813852813852 0.0001352813852813852 0.0001352813852813852 0.0001352813852813852 0.0001352813852813852 0.0001352813852813852 0.0001352813852813852 0.0001352813852813852 0.0001352813852813852 0.0001352813852813852 0.0001352813852813852 0.0001352813852813852 