<?xml version="1.0" encoding="UTF-8"?>
<!-- This network was created in GeNIe Academic, which can be used for academic teaching and research purposes only -->
<smile version="1.0" id="majors_3" numsamples="10000" discsamples="10000">
	<nodes>
		<cpt id="currentBase">
			<state id="D" />
			<state id="S" />
			<state id="T" />
			<probabilities>0.4284370380325225 0.1697352506383551 0.4018277113291224</probabilities>
		</cpt>
		<cpt id="prevBase">
			<state id="D" />
			<state id="S" />
			<state id="T" />
			<parents>currentBase</parents>
			<probabilities>0.4043287327478042 0.1875784190715182 0.4080928481806775 0.1480601741884402 0.1464766429136976 0.7054631828978623 0.5321070234113712 0.1501672240802676 0.3177257525083612</probabilities>
		</cpt>
		<cpt id="prevIsDown">
			<state id="State0" />
			<state id="State1" />
			<parents>currentBase</parents>
			<probabilities>0.9978042659974905 0.00219573400250941 0.9984164687252572 0.001583531274742676 0.9996655518394648 0.000334448160535117</probabilities>
		</cpt>
		<cpt id="prevDegree">
			<state id="State1" />
			<state id="State2" />
			<state id="State3" />
			<state id="State4" />
			<state id="State5" />
			<state id="State6" />
			<state id="State7" />
			<parents>currentBase</parents>
			<probabilities>0.2481179422835633 0.08437892095357591 0.06398996235884567 0.1031994981179423 0.2888958594730238 0.1590338770388958 0.05238393977415307 0.4803345388788427 0.06261301989150091 0.003277576853526221 0.0839737793851718 0.1464737793851718 0.2232142857142858 0.0001130198915009042 0.2093645484949833 0.06923076923076922 0.1244147157190635 0.08093645484949832 0.3414715719063545 0.1080267558528428 0.06655518394648829</probabilities>
		</cpt>
		<cpt id="prevIsMajor">
			<state id="State0" />
			<state id="State1" />
			<parents>currentBase</parents>
			<probabilities>0.02070263488080301 0.979297365119197 0.0395882818685669 0.960411718131433 0.01337792642140468 0.9866220735785952</probabilities>
		</cpt>
		<cpt id="prevInversion">
			<state id="S1" />
			<state id="S3" />
			<state id="S3b" />
			<state id="S5" />
			<state id="S5b" />
			<state id="S7" />
			<parents>currentBase</parents>
			<probabilities>0.5900250941028857 0.1994981179422836 0.09818067754077792 0.0959849435382685 0.01223337515683814 0.004077791718946048 0.6346255274261602 0.2082014767932489 0.06342299578059071 0.08953059071729957 0.0001318565400843881 0.004087552742616033 0.6678929765886288 0.1782608695652174 0.09765886287625418 0.03979933110367893 0.0137123745819398 0.002675585284280936</probabilities>
		</cpt>
		<cpt id="prevOmit">
			<state id="S1" />
			<state id="S5" />
			<state id="S5b" />
			<state id="empty" />
			<parents>currentBase</parents>
			<probabilities>0.04987452948557089 0.05614805520702634 0.003136762860727729 0.890840652446675 0.04133702531645569 0.03975474683544303 0.0001977848101265823 0.9187104430379747 0.02709030100334448 0.05819397993311037 0.007023411371237458 0.9076923076923077</probabilities>
		</cpt>
		<cpt id="prevExtra">
			<state id="S6" />
			<state id="S7" />
			<state id="S7_9" />
			<state id="S7_9b" />
			<state id="empty" />
			<parents>currentBase</parents>
			<probabilities>0.02326748196926936 0.1991846973973032 6.271558482282847e-05 0.001003449357165255 0.7764816556914392 0.004905063291139241 0.1916139240506329 0.0001582278481012658 0.0001582278481012658 0.8031645569620254 0.02207357859531773 0.1625418060200669 0.002675585284280936 0.002006688963210702 0.8107023411371237</probabilities>
		</cpt>
		<cpt id="prevStrongPlace">
			<state id="State0" />
			<state id="State1" />
			<parents>currentBase</parents>
			<probabilities>0.4234629861982434 0.5765370138017566 0.5653206650831354 0.4346793349168646 0.4892976588628762 0.5107023411371238</probabilities>
		</cpt>
		<cpt id="prevNote">
			<state id="S0" />
			<state id="S0s" />
			<state id="S1" />
			<state id="S1b" />
			<state id="S2" />
			<state id="S3" />
			<state id="S3s" />
			<state id="S4" />
			<state id="S4b" />
			<state id="S4s" />
			<state id="S5" />
			<state id="S5b" />
			<state id="S5s" />
			<state id="S6" />
			<state id="S6b" />
			<parents>currentBase</parents>
			<probabilities>0.1956935298421658 0.0003344831190550852 0.1508518866938434 0.0003344831190550852 0.2082366468067315 0.09942510713912409 0.01162328838716421 0.1254520748405979 0.0003344831190550852 2.090519494094283e-05 0.1351729904881363 0.0003344831190550852 0.0006480610431692278 0.06367722379011186 0.007860353297794503 0.1899261603375528 0.004799578059071732 0.03169831223628693 0.0008438818565400847 0.3790084388185656 0.06255274261603377 0.0008438818565400847 0.2366033755274262 5.27426160337553e-05 5.27426160337553e-05 0.07916666666666669 5.27426160337553e-05 5.27426160337553e-05 0.002426160337552744 0.0119198312236287 0.1427839072773877 2.228908949069431e-05 0.2343920650841413 2.228908949069431e-05 0.1538170065752814 0.1133623091496712 0.0003566254318511089 0.2019614398751811 2.228908949069431e-05 0.001025298116571938 0.0458263679928675 0.0006909617742115236 2.228908949069431e-05 0.1006575281399755 0.005037334224896914</probabilities>
		</cpt>
		<cpt id="prevKey">
			<state id="S1" />
			<state id="S2" />
			<state id="S3" />
			<state id="S4" />
			<state id="S5" />
			<state id="S6" />
			<state id="empty" />
			<parents>currentBase</parents>
			<probabilities>0.005332496863237139 0.004705144291091593 0.007214554579673776 0.05363864491844416 0.001882057716436637 0.0006273525721455458 0.926599749058971 0.05700712589073634 0.000791765637371338 0.0459224069675376 0.003167062549485352 0.003167062549485352 0.000791765637371338 0.8891528107680127 0.001385107704064575 0.002388116731145818 0.004059798442947891 0.01074652529015618 0.01275254334431867 4.776233462291637e-05 0.9686201461527439</probabilities>
		</cpt>
		<cpt id="currentIsDown">
			<state id="State0" />
			<state id="State1" />
			<parents>currentBase</parents>
			<probabilities>0.9990589711417817 0.0009410288582183187 0.9996044303797468 0.0003955696202531646 0.9976588628762542 0.002341137123745819</probabilities>
		</cpt>
		<cpt id="currentDegree">
			<state id="State1" />
			<state id="State2" />
			<state id="State3" />
			<state id="State4" />
			<state id="State5" />
			<state id="State6" />
			<state id="State7" />
			<parents>currentBase</parents>
			<probabilities>4.479684630202033e-05 4.479684630202033e-05 0.1803521032119338 4.479684630202033e-05 0.7043408144066657 4.479684630202033e-05 0.1151278949961922 0.0001130198915009042 0.4415687160940326 0.0001130198915009042 0.5578661844484629 0.0001130198915009042 0.0001130198915009042 0.0001130198915009042 0.6282657496298418 4.776233462291637e-05 0.002053780388785404 4.776233462291637e-05 4.776233462291637e-05 0.369489420642881 4.776233462291637e-05</probabilities>
		</cpt>
		<cpt id="currentIsMajor">
			<state id="State0" />
			<state id="State1" />
			<parents>currentBase</parents>
			<probabilities>0.04579673776662484 0.954203262233375 0.007125890736342042 0.9928741092636579 0.0001671681711802073 0.9998328318288198</probabilities>
		</cpt>
		<cpt id="currentInversion">
			<state id="S1" />
			<state id="S3" />
			<state id="S3b" />
			<state id="S5" />
			<state id="S5b" />
			<state id="S7" />
			<parents>currentBase</parents>
			<probabilities>0.5461104140526976 0.215495608531995 0.1204516938519448 0.08531994981179422 0.02509410288582183 0.007528230865746549 0.6860495780590716 0.1330432489451477 0.1101002109704641 0.07054324894514767 0.0001318565400843881 0.0001318565400843881 0.6874512426167393 0.1959768193469297 0.05522121921319515 0.06057060069096179 5.572272372673577e-05 0.000724395408447565</probabilities>
		</cpt>
		<cpt id="currentOmit">
			<state id="S1" />
			<state id="S5" />
			<state id="S5b" />
			<state id="empty" />
			<parents>currentBase</parents>
			<probabilities>0.08845671267252195 0.06053952321204516 0.009723964868255958 0.8412797992471769 0.0009889240506329115 0.07219145569620253 0.0001977848101265823 0.926621835443038 0.003092611166833835 0.0412069541959211 8.358408559010364e-05 0.9556168505516549</probabilities>
		</cpt>
		<cpt id="currentExtra">
			<state id="S6" />
			<state id="S7" />
			<state id="S7_9" />
			<state id="S7_9b" />
			<state id="empty" />
			<parents>currentBase</parents>
			<probabilities>6.271558482282847e-05 0.3500156788962057 0.002571338977735967 0.002884916901850109 0.6444653496393853 0.1378164556962025 0.05316455696202532 0.0001582278481012658 0.0001582278481012658 0.8087025316455696 6.686726847208291e-05 0.07027749916415914 6.686726847208291e-05 6.686726847208291e-05 0.9295218990304245</probabilities>
		</cpt>
		<cpt id="currentStrongPlace">
			<state id="State0" />
			<state id="State1" />
			<parents>currentBase</parents>
			<probabilities>0.5420326223337515 0.4579673776662484 0.4133016627078385 0.5866983372921615 0.4220735785953177 0.5779264214046822</probabilities>
		</cpt>
		<cpt id="currentNote">
			<state id="S0" />
			<state id="S0s" />
			<state id="S1" />
			<state id="S1b" />
			<state id="S2" />
			<state id="S3" />
			<state id="S3s" />
			<state id="S4" />
			<state id="S4b" />
			<state id="S4s" />
			<state id="S5" />
			<state id="S5b" />
			<state id="S5s" />
			<state id="S6" />
			<state id="S6b" />
			<parents>currentBase</parents>
			<probabilities>0.0225985157311592 0.00221595066373994 0.3164210306261107 2.090519494094283e-05 0.09221281488449881 0.06963520434828056 0.0122504442353925 0.244611686003972 2.090519494094283e-05 0.0009616389672833702 0.05364273021845929 0.0009616389672833702 0.0006480610431692278 0.1665307828995506 0.01726769102121877 0.09103375527426159 5.274261603375528e-05 0.2666666666666667 5.274261603375528e-05 5.274261603375528e-05 0.4074894514767933 5.274261603375528e-05 5.274261603375528e-05 5.274261603375528e-05 5.274261603375528e-05 0.2342299578059072 5.274261603375528e-05 5.274261603375528e-05 5.274261603375528e-05 5.274261603375528e-05 0.3410453582971136 2.228908949069431e-05 2.228908949069431e-05 0.0006909617742115236 0.4252981165719381 2.228908949069431e-05 2.228908949069431e-05 0.1655187785578959 0.0003566254318511089 2.228908949069431e-05 0.06688955756157361 2.228908949069431e-05 2.228908949069431e-05 2.228908949069431e-05 2.228908949069431e-05</probabilities>
		</cpt>
		<cpt id="currentKey">
			<state id="S1" />
			<state id="S2" />
			<state id="S3" />
			<state id="S4" />
			<state id="S5" />
			<state id="S6" />
			<state id="empty" />
			<parents>currentBase</parents>
			<probabilities>0.02917189460476788 0.007214554579673776 0.0266624843161857 0.06775407779171894 0.0150564617314931 0.0009410288582183187 0.8531994981179423 0.0001130198915009042 0.0001130198915009042 0.007233273056057866 0.0001130198915009042 0.0001130198915009042 0.0001130198915009042 0.9922016274864376 4.776233462291637e-05 4.776233462291637e-05 4.776233462291637e-05 4.776233462291637e-05 4.776233462291637e-05 4.776233462291637e-05 0.9997134259922625</probabilities>
		</cpt>
		<cpt id="nextBase">
			<state id="D" />
			<state id="S" />
			<state id="T" />
			<parents>currentBase</parents>
			<probabilities>0.4043287327478042 0.05865746549560853 0.5370138017565872 0.4734758511480602 0.1464766429136976 0.3800475059382423 0.4214046822742475 0.288628762541806 0.2899665551839465</probabilities>
		</cpt>
		<cpt id="nextIsDown">
			<state id="State0" />
			<state id="State1" />
			<parents>currentBase</parents>
			<probabilities>0.9981179422835633 0.001882057716436637 0.9984164687252572 0.001583531274742676 0.9993311036789297 0.0006688963210702341</probabilities>
		</cpt>
		<cpt id="nextDegree">
			<state id="State1" />
			<state id="State2" />
			<state id="State3" />
			<state id="State4" />
			<state id="State5" />
			<state id="State6" />
			<state id="State7" />
			<parents>currentBase</parents>
			<probabilities>0.3265370138017565 0.03952321204516938 0.09159347553324967 0.01913425345043914 0.2550188205771644 0.2092220828105395 0.0589711417816813 0.2953285827395091 0.0934283452098179 0.09501187648456057 0.05304829770387965 0.33729216152019 0.08392715756136183 0.04196357878068092 0.1892976588628763 0.1046822742474916 0.05551839464882943 0.1839464882943144 0.3250836120401338 0.1003344481605351 0.0411371237458194</probabilities>
		</cpt>
		<cpt id="nextIsMajor">
			<state id="State0" />
			<state id="State1" />
			<parents>currentBase</parents>
			<probabilities>0.01725219573400251 0.9827478042659974 0.04671417260490895 0.953285827395091 0.0137123745819398 0.9862876254180601</probabilities>
		</cpt>
		<cpt id="nextInversion">
			<state id="S1" />
			<state id="S3" />
			<state id="S3b" />
			<state id="S5" />
			<state id="S5b" />
			<state id="S7" />
			<parents>currentBase</parents>
			<probabilities>0.6590338770388958 0.1568381430363864 0.09378920953575909 0.06806775407779171 0.01631116687578419 0.005959849435382684 0.5827395091053048 0.2066508313539192 0.1132224861441013 0.08867775138558986 0.006334125098970704 0.002375296912114014 0.6260869565217391 0.2137123745819398 0.08193979933110368 0.07090301003344482 0.006354515050167223 0.001003344481605351</probabilities>
		</cpt>
		<cpt id="nextOmit">
			<state id="S1" />
			<state id="S5" />
			<state id="S5b" />
			<state id="empty" />
			<parents>currentBase</parents>
			<probabilities>0.06618569636135507 0.06148055207026348 0.001568381430363864 0.8707653701380175 0.03167062549485352 0.05304829770387965 0.005542359461599367 0.9097387173396674 0.01337792642140468 0.04782608695652173 0.006354515050167223 0.9324414715719063</probabilities>
		</cpt>
		<cpt id="nextExtra">
			<state id="S6" />
			<state id="S7" />
			<state id="S7_9" />
			<state id="S7_9b" />
			<state id="empty" />
			<parents>currentBase</parents>
			<probabilities>0.001317027281279398 0.2245845092505488 6.271558482282847e-05 0.00163060520539354 0.7724051426779553 0.008860759493670885 0.1789556962025316 0.0001582278481012658 0.001740506329113924 0.8102848101265823 0.05317725752508361 0.1471571906354515 0.002675585284280936 0.0006688963210702341 0.7963210702341137</probabilities>
		</cpt>
		<cpt id="nextStrongPlace">
			<state id="State0" />
			<state id="State1" />
			<parents>currentBase</parents>
			<probabilities>0.4030740276035131 0.5969259723964868 0.5067300079176563 0.4932699920823436 0.51438127090301 0.4856187290969899</probabilities>
		</cpt>
		<cpt id="nextNote">
			<state id="S0" />
			<state id="S0s" />
			<state id="S1" />
			<state id="S1b" />
			<state id="S2" />
			<state id="S3" />
			<state id="S3s" />
			<state id="S4" />
			<state id="S4b" />
			<state id="S4s" />
			<state id="S5" />
			<state id="S5b" />
			<state id="S5s" />
			<state id="S6" />
			<state id="S6b" />
			<parents>currentBase</parents>
			<probabilities>0.243099121706399 0.0009410288582183187 0.1031994981179423 0.0003136762860727729 0.2537641154328732 0.06493099121706399 0.005018820577164366 0.1662484316185696 0.0003136762860727729 0.0003136762860727729 0.09723964868255959 0.0006273525721455458 0.0006273525721455458 0.0555207026348808 0.007841907151819321 0.1116033755274262 0.002426160337552744 0.1503691983122363 0.0008438818565400847 0.2856540084388187 0.08786919831223632 5.27426160337553e-05 0.2255274261603376 5.27426160337553e-05 0.0008438818565400847 0.04910337552742618 0.0008438818565400847 5.27426160337553e-05 0.07837552742616037 0.00638185654008439 0.1294104535829712 0.0003566254318511089 0.2705003900590661 2.228908949069431e-05 0.1237267357628441 0.1371001894572607 0.007712024963780231 0.1457929343586315 2.228908949069431e-05 0.0003566254318511089 0.09530814666220885 2.228908949069431e-05 2.228908949069431e-05 0.08226902931015269 0.007377688621419816</probabilities>
		</cpt>
		<cpt id="nextKey">
			<state id="S1" />
			<state id="S2" />
			<state id="S3" />
			<state id="S4" />
			<state id="S5" />
			<state id="S6" />
			<state id="empty" />
			<parents>currentBase</parents>
			<probabilities>0.01568381430363864 0.005959849435382684 0.008782936010037641 0.03324968632371392 0.008155583437892095 0.0009410288582183187 0.9272271016311167 0.01514466546112116 0.0009041591320072332 0.02147377938517179 0.01118896925858951 0.008024412296564195 0.0001130198915009042 0.9431509945750451 0.007737498208912451 0.00105077136170416 0.01308687968667909 0.03214405120122271 0.004059798442947891 4.776233462291637e-05 0.9418732387639108</probabilities>
		</cpt>
	</nodes>
	<extensions>
		<genie version="1.0" app="GeNIe 3.0.6518.0 ACADEMIC" name="majors_3">
			<node id="prevBase">
				<name>prevBase</name>
				<interior color="e5f6f7" />
				<outline color="000080" />
				<font color="000000" name="Arial" size="8" />
				<position>439 187 511 235</position>
			</node>
			<node id="prevIsDown">
				<name>prevIsDown</name>
				<interior color="e5f6f7" />
				<outline color="000080" />
				<font color="000000" name="Arial" size="8" />
				<position>417 240 489 288</position>
			</node>
			<node id="prevDegree">
				<name>prevDegree</name>
				<interior color="e5f6f7" />
				<outline color="000080" />
				<font color="000000" name="Arial" size="8" />
				<position>358 280 430 328</position>
			</node>
			<node id="prevIsMajor">
				<name>prevIsMajor</name>
				<interior color="e5f6f7" />
				<outline color="000080" />
				<font color="000000" name="Arial" size="8" />
				<position>277 295 349 343</position>
			</node>
			<node id="prevInversion">
				<name>prevInversion</name>
				<interior color="e5f6f7" />
				<outline color="000080" />
				<font color="000000" name="Arial" size="8" />
				<position>197 280 269 328</position>
			</node>
			<node id="prevOmit">
				<name>prevOmit</name>
				<interior color="e5f6f7" />
				<outline color="000080" />
				<font color="000000" name="Arial" size="8" />
				<position>137 240 209 288</position>
			</node>
			<node id="prevExtra">
				<name>prevExtra</name>
				<interior color="e5f6f7" />
				<outline color="000080" />
				<font color="000000" name="Arial" size="8" />
				<position>115 187 187 235</position>
			</node>
			<node id="prevStrongPlace">
				<name>prevStrongPlace</name>
				<interior color="e5f6f7" />
				<outline color="000080" />
				<font color="000000" name="Arial" size="8" />
				<position>137 134 209 182</position>
			</node>
			<node id="prevNote">
				<name>prevNote</name>
				<interior color="e5f6f7" />
				<outline color="000080" />
				<font color="000000" name="Arial" size="8" />
				<position>196 94 268 142</position>
			</node>
			<node id="prevKey">
				<name>prevKey</name>
				<interior color="e5f6f7" />
				<outline color="000080" />
				<font color="000000" name="Arial" size="8" />
				<position>277 79 349 127</position>
			</node>
			<node id="currentBase">
				<name>currentBase</name>
				<interior color="ffff80" />
				<outline color="000080" />
				<font color="000000" name="Arial" size="8" />
				<position>277 187 349 235</position>
			</node>
			<node id="currentIsDown">
				<name>currentIsDown</name>
				<interior color="e5f6f7" />
				<outline color="000080" />
				<font color="000000" name="Arial" size="8" />
				<position>358 94 430 142</position>
			</node>
			<node id="currentDegree">
				<name>currentDegree</name>
				<interior color="e5f6f7" />
				<outline color="000080" />
				<font color="000000" name="Arial" size="8" />
				<position>417 133 489 181</position>
			</node>
			<node id="currentIsMajor">
				<name>currentIsMajor</name>
				<interior color="e5f6f7" />
				<outline color="000080" />
				<font color="000000" name="Arial" size="8" />
				<position>523 187 595 235</position>
			</node>
			<node id="currentInversion">
				<name>currentInversion</name>
				<interior color="e5f6f7" />
				<outline color="000080" />
				<font color="000000" name="Arial" size="8" />
				<position>506 246 578 294</position>
			</node>
			<node id="currentOmit">
				<name>currentOmit</name>
				<interior color="e5f6f7" />
				<outline color="000080" />
				<font color="000000" name="Arial" size="8" />
				<position>458 297 530 345</position>
			</node>
			<node id="currentExtra">
				<name>currentExtra</name>
				<interior color="e5f6f7" />
				<outline color="000080" />
				<font color="000000" name="Arial" size="8" />
				<position>386 333 458 381</position>
			</node>
			<node id="currentStrongPlace">
				<name>currentStrongPlace</name>
				<interior color="e5f6f7" />
				<outline color="000080" />
				<font color="000000" name="Arial" size="8" />
				<position>299 350 371 398</position>
			</node>
			<node id="currentNote">
				<name>currentNote</name>
				<interior color="e5f6f7" />
				<outline color="000080" />
				<font color="000000" name="Arial" size="8" />
				<position>210 344 282 392</position>
			</node>
			<node id="currentKey">
				<name>currentKey</name>
				<interior color="e5f6f7" />
				<outline color="000080" />
				<font color="000000" name="Arial" size="8" />
				<position>129 317 201 365</position>
			</node>
			<node id="nextBase">
				<name>nextBase</name>
				<interior color="e5f6f7" />
				<outline color="000080" />
				<font color="000000" name="Arial" size="8" />
				<position>68 273 140 321</position>
			</node>
			<node id="nextIsDown">
				<name>nextIsDown</name>
				<interior color="e5f6f7" />
				<outline color="000080" />
				<font color="000000" name="Arial" size="8" />
				<position>36 217 108 265</position>
			</node>
			<node id="nextDegree">
				<name>nextDegree</name>
				<interior color="e5f6f7" />
				<outline color="000080" />
				<font color="000000" name="Arial" size="8" />
				<position>36 157 108 205</position>
			</node>
			<node id="nextIsMajor">
				<name>nextIsMajor</name>
				<interior color="e5f6f7" />
				<outline color="000080" />
				<font color="000000" name="Arial" size="8" />
				<position>68 101 140 149</position>
			</node>
			<node id="nextInversion">
				<name>nextInversion</name>
				<interior color="e5f6f7" />
				<outline color="000080" />
				<font color="000000" name="Arial" size="8" />
				<position>129 57 201 105</position>
			</node>
			<node id="nextOmit">
				<name>nextOmit</name>
				<interior color="e5f6f7" />
				<outline color="000080" />
				<font color="000000" name="Arial" size="8" />
				<position>210 30 282 78</position>
			</node>
			<node id="nextExtra">
				<name>nextExtra</name>
				<interior color="e5f6f7" />
				<outline color="000080" />
				<font color="000000" name="Arial" size="8" />
				<position>299 24 371 72</position>
			</node>
			<node id="nextStrongPlace">
				<name>nextStrongPlace</name>
				<interior color="e5f6f7" />
				<outline color="000080" />
				<font color="000000" name="Arial" size="8" />
				<position>386 41 458 89</position>
			</node>
			<node id="nextNote">
				<name>nextNote</name>
				<interior color="e5f6f7" />
				<outline color="000080" />
				<font color="000000" name="Arial" size="8" />
				<position>458 77 530 125</position>
			</node>
			<node id="nextKey">
				<name>nextKey</name>
				<interior color="e5f6f7" />
				<outline color="000080" />
				<font color="000000" name="Arial" size="8" />
				<position>506 128 578 176</position>
			</node>
			<textbox>
				<caption>Input file: majors_3\nData rows: 7441\nElapsed time: 0.063s\n\nLearning algorithm: Naive Bayes\nAlgorithm parameters:\nClass variable: currentBase\n\nEM Log Likelihood: -161176</caption>
				<font color="000000" name="Arial" size="8" />
				<position>10 418 165 544</position>
			</textbox>
		</genie>
	</extensions>
</smile>
