<?xml version="1.0" encoding="UTF-8"?>
<!-- This network was created in GeNIe Academic, which can be used for academic teaching and research purposes only -->
<smile version="1.0" id="minors_2" numsamples="10000" discsamples="10000">
	<nodes>
		<cpt id="currentBase">
			<state id="D" />
			<state id="S" />
			<state id="T" />
			<probabilities>0.5031097890751758 0.1814494321254732 0.315440778799351</probabilities>
		</cpt>
		<cpt id="prevBase">
			<state id="D" />
			<state id="S" />
			<state id="T" />
			<parents>currentBase</parents>
			<probabilities>0.5036280569739316 0.2045149153453373 0.291857027680731 0.3137108792846498 0.1289120715350223 0.5573770491803278 0.6120874410630089 0.1753107586798114 0.2126018002571796</probabilities>
		</cpt>
		<cpt id="prevDegree">
			<state id="State1" />
			<state id="State2" />
			<state id="State3" />
			<state id="State4" />
			<state id="State5" />
			<state id="State6" />
			<state id="State7" />
			<parents>currentBase</parents>
			<probabilities>0.2125772641762967 0.0403117441547971 0.1478097285675893 0.1642031711905402 0.2066648750335931 0.07927976350443429 0.1491534533727492 0.444113263785395 0.007451564828614009 0.1304023845007451 0.1214605067064083 0.1199701937406855 0.1132637853949329 0.06333830104321908 0.186455207886841 0.02486069438491213 0.1195885126446635 0.1504500642948993 0.4440634376339477 0.02614659237033862 0.04843549078439777</probabilities>
		</cpt>
		<cpt id="prevIsMajor">
			<state id="State0" />
			<state id="State1" />
			<parents>currentBase</parents>
			<probabilities>0.790647675356087 0.2093523246439129 0.812220566318927 0.187779433681073 0.5747963994856408 0.4252036005143592</probabilities>
		</cpt>
		<cpt id="prevInversion">
			<state id="S1" />
			<state id="S3" />
			<state id="S3b" />
			<state id="S5" />
			<state id="S5b" />
			<state id="S7" />
			<parents>currentBase</parents>
			<probabilities>0.624294544477291 0.1760279494759473 0.1260413867239989 0.06530502553077129 0.006987368986831497 0.001343724805159903 0.6717547778605112 0.1587242491933482 0.1095805410771903 0.05969223132290891 0.0001241002730206006 0.0001241002730206006 0.6789541363051864 0.1697385340762966 0.08358336905272182 0.06643806258036862 0.0004286326618088298 0.0008572653236176596</probabilities>
		</cpt>
		<cpt id="prevOmit">
			<state id="S1" />
			<state id="S5" />
			<state id="S5b" />
			<state id="empty" />
			<parents>currentBase</parents>
			<probabilities>0.03439935501209352 0.04541789841440472 0.00429991937651169 0.91588282719699 0.01862891207153502 0.04172876304023845 0.002980625931445604 0.936661698956781 0.06558079725675096 0.03643377625375054 0.01328761251607372 0.8846978139734247</probabilities>
		</cpt>
		<cpt id="prevExtra">
			<state id="S6" />
			<state id="S7" />
			<state id="S7_9" />
			<state id="S7_9b" />
			<state id="S7s" />
			<state id="empty" />
			<parents>currentBase</parents>
			<probabilities>0.0513302875571083 0.1074979844127922 0.0005374899220639613 0.003493684493415748 0.03654931470034937 0.8005912389142703 0.009803921568627451 0.08724249193348226 0.0001241002730206006 0.0001241002730206006 0.02841896252171755 0.8742864234301316 0.06433876035418452 0.1187517852042274 7.140816909454442e-05 0.01549557269351614 0.01378177663524707 0.7875606969437304</probabilities>
		</cpt>
		<cpt id="prevStrongPlace">
			<state id="State0" />
			<state id="State1" />
			<parents>currentBase</parents>
			<probabilities>0.4614350980919107 0.5385649019080891 0.5365126676602087 0.4634873323397913 0.4796399485640806 0.5203600514359195</probabilities>
		</cpt>
		<cpt id="prevNote">
			<state id="S0" />
			<state id="S0s" />
			<state id="S1" />
			<state id="S1b" />
			<state id="S2" />
			<state id="S2s" />
			<state id="S3" />
			<state id="S3s" />
			<state id="S4" />
			<state id="S5" />
			<state id="S5s" />
			<state id="S6" />
			<state id="S6s" />
			<parents>currentBase</parents>
			<probabilities>0.1698468153722117 0.0002687449610319806 0.1088417092179522 0.003762429454447729 0.194302606826122 0.001074979844127923 0.1865090029561945 0.0002687449610319806 0.1588282719699005 0.05482397205052405 0.02660575114216608 0.08223595807578607 0.01263101316850309 0.1675926456268973 5.727704908643106e-05 0.06037000973709834 0.0008018786872100348 0.3135345666991236 0.01718311472592932 0.07526204249957041 5.727704908643106e-05 0.2599232487542242 0.02984134257403058 0.003035683601580846 0.072283635947076 5.727704908643106e-05 0.1311383560740887 3.295761650517435e-05 0.3042317579592644 0.0004614066310724409 0.07629688220947861 0.0008898556456397074 0.1221409267681761 3.295761650517435e-05 0.1876936259969679 0.03216663370905017 0.001318304660206974 0.09043569969019841 0.05316063542284622</probabilities>
		</cpt>
		<cpt id="prevKey">
			<state id="S1" />
			<state id="S2" />
			<state id="S3" />
			<state id="S4" />
			<state id="S5" />
			<state id="S6" />
			<state id="empty" />
			<parents>currentBase</parents>
			<probabilities>0.001881214727223864 0.01478097285675893 0.009674818597151302 0.01128728836334319 0.005912389142703573 0.04111797903789303 0.9153453372749261 0.002980625931445604 0.005961251862891207 0.03725782414307004 0.0007451564828614009 0.01564828614008942 0.008941877794336811 0.9284649776453056 6.120700208103807e-05 0.008630187293426368 0.008201738278859103 0.002631901089484637 0.007773289264291835 0.006916391235157303 0.9657852858366999</probabilities>
		</cpt>
		<cpt id="currentDegree">
			<state id="State1" />
			<state id="State2" />
			<state id="State3" />
			<state id="State4" />
			<state id="State5" />
			<state id="State6" />
			<state id="State7" />
			<parents>currentBase</parents>
			<probabilities>3.838182236892608e-05 3.838182236892608e-05 0.2697858294311814 3.838182236892608e-05 0.5279803485069471 3.838182236892608e-05 0.2020802947723958 0.0001063716625890863 0.1624295287735348 0.0001063716625890863 0.83703861291352 0.0001063716625890863 0.0001063716625890863 0.0001063716625890863 0.7824091076019097 6.120700208103807e-05 6.120700208103807e-05 6.120700208103807e-05 6.120700208103807e-05 0.2172848573876852 6.120700208103807e-05</probabilities>
		</cpt>
		<cpt id="currentIsMajor">
			<state id="State0" />
			<state id="State1" />
			<parents>currentBase</parents>
			<probabilities>0.5788766460628862 0.4211233539371136 0.812220566318927 0.187779433681073 0.8576939562794684 0.1423060437205315</probabilities>
		</cpt>
		<cpt id="currentInversion">
			<state id="S1" />
			<state id="S3" />
			<state id="S3b" />
			<state id="S5" />
			<state id="S5b" />
			<state id="S7" />
			<parents>currentBase</parents>
			<probabilities>0.6233655740641234 0.2654934622962565 0.02180727207594484 0.08790077019523557 4.47787927637471e-05 0.00138814257567616 0.5474063042938694 0.0768180689997518 0.3158351948374286 0.0395879870935716 0.0202283445023579 0.0001241002730206006 0.7502856326763784 0.07590688374750072 0.1294630105684091 0.04334475864038847 7.140816909454443e-05 0.0009283061982290775</probabilities>
		</cpt>
		<cpt id="currentOmit">
			<state id="S1" />
			<state id="S5" />
			<state id="S5b" />
			<state id="empty" />
			<parents>currentBase</parents>
			<probabilities>0.0774449220849006 0.04412950026867276 6.716818914562064e-05 0.8783584094572811 0.006706408345752608 0.03055141579731744 0.03800298062593144 0.9247391952309985 0.003963153384747215 0.04680805484147386 0.0001071122536418166 0.9491216795201372</probabilities>
		</cpt>
		<cpt id="currentExtra">
			<state id="S6" />
			<state id="S7" />
			<state id="S7_9" />
			<state id="S7_9b" />
			<state id="S7s" />
			<state id="empty" />
			<parents>currentBase</parents>
			<probabilities>4.477879276374709e-05 0.1980566003940534 0.0005821243059287122 0.01320974386530539 0.02610603618126455 0.7620007164606842 0.2637130801687764 0.04480019856043683 0.0001241002730206006 0.0001241002730206006 0.0001241002730206006 0.691114420451725 7.140816909454442e-05 7.140816909454442e-05 7.140816909454442e-05 7.140816909454442e-05 0.04720079977149386 0.9525135675521279</probabilities>
		</cpt>
		<cpt id="currentStrongPlace">
			<state id="State0" />
			<state id="State1" />
			<parents>currentBase</parents>
			<probabilities>0.4901908089223327 0.5098091910776672 0.4664679582712369 0.533532041728763 0.4269181311615945 0.5730818688384055</probabilities>
		</cpt>
		<cpt id="currentNote">
			<state id="S0" />
			<state id="S0s" />
			<state id="S1" />
			<state id="S1b" />
			<state id="S2" />
			<state id="S2s" />
			<state id="S3" />
			<state id="S3s" />
			<state id="S4" />
			<state id="S5" />
			<state id="S5s" />
			<state id="S6" />
			<state id="S6s" />
			<parents>currentBase</parents>
			<probabilities>0.02123085192152647 0.0002687449610319806 0.2477828540714861 0.00429991937651169 0.11126041386724 0.001074979844127923 0.1338349905939263 0.0002687449610319806 0.2475141091104542 0.008868583714055361 0.01746842246707874 0.1601719967750604 0.04595538833646869 0.1713156538175153 5.727704908643106e-05 0.2025889226187067 5.727704908643106e-05 5.727704908643106e-05 5.727704908643106e-05 0.4304370238845294 5.727704908643106e-05 5.727704908643106e-05 0.151211409588178 0.03058594421215419 0.0134601065353113 5.727704908643106e-05 0.3976336431349287 3.295761650517436e-05 3.295761650517436e-05 3.295761650517436e-05 0.3834948256542088 0.01117263199525411 3.295761650517436e-05 3.295761650517436e-05 0.1722694614725464 0.03516577681102104 3.295761650517436e-05 3.295761650517436e-05 3.295761650517436e-05</probabilities>
		</cpt>
		<cpt id="currentKey">
			<state id="S1" />
			<state id="S2" />
			<state id="S3" />
			<state id="S4" />
			<state id="S5" />
			<state id="S6" />
			<state id="empty" />
			<parents>currentBase</parents>
			<probabilities>0.002956194571351787 0.02230583176565439 0.02042461703843053 0.01316850309056705 0.01639344262295082 0.0486428379467885 0.8761085729642568 0.0001063716625890863 0.0001063716625890863 0.02095521753005 0.0001063716625890863 0.0001063716625890863 0.0001063716625890863 0.9785129241570045 6.120700208103807e-05 6.120700208103807e-05 6.120700208103807e-05 6.120700208103807e-05 6.120700208103807e-05 6.120700208103807e-05 0.9996327579875139</probabilities>
		</cpt>
	</nodes>
	<extensions>
		<genie version="1.0" app="GeNIe 3.0.6518.0 ACADEMIC" name="minors_2">
			<node id="prevBase">
				<name>prevBase</name>
				<interior color="e5f6f7" />
				<outline color="000080" />
				<font color="000000" name="Arial" size="8" />
				<position>488 175 560 223</position>
			</node>
			<node id="prevDegree">
				<name>prevDegree</name>
				<interior color="e5f6f7" />
				<outline color="000080" />
				<font color="000000" name="Arial" size="8" />
				<position>472 229 544 277</position>
			</node>
			<node id="prevIsMajor">
				<name>prevIsMajor</name>
				<interior color="e5f6f7" />
				<outline color="000080" />
				<font color="000000" name="Arial" size="8" />
				<position>428 277 500 325</position>
			</node>
			<node id="prevInversion">
				<name>prevInversion</name>
				<interior color="e5f6f7" />
				<outline color="000080" />
				<font color="000000" name="Arial" size="8" />
				<position>361 311 433 359</position>
			</node>
			<node id="prevOmit">
				<name>prevOmit</name>
				<interior color="e5f6f7" />
				<outline color="000080" />
				<font color="000000" name="Arial" size="8" />
				<position>281 326 353 374</position>
			</node>
			<node id="prevExtra">
				<name>prevExtra</name>
				<interior color="e5f6f7" />
				<outline color="000080" />
				<font color="000000" name="Arial" size="8" />
				<position>198 321 270 369</position>
			</node>
			<node id="prevStrongPlace">
				<name>prevStrongPlace</name>
				<interior color="e5f6f7" />
				<outline color="000080" />
				<font color="000000" name="Arial" size="8" />
				<position>123 296 195 344</position>
			</node>
			<node id="prevNote">
				<name>prevNote</name>
				<interior color="e5f6f7" />
				<outline color="000080" />
				<font color="000000" name="Arial" size="8" />
				<position>67 255 139 303</position>
			</node>
			<node id="prevKey">
				<name>prevKey</name>
				<interior color="e5f6f7" />
				<outline color="000080" />
				<font color="000000" name="Arial" size="8" />
				<position>36 202 108 250</position>
			</node>
			<node id="currentBase">
				<name>currentBase</name>
				<interior color="ffff80" />
				<outline color="000080" />
				<font color="000000" name="Arial" size="8" />
				<position>260 175 332 223</position>
			</node>
			<node id="currentDegree">
				<name>currentDegree</name>
				<interior color="e5f6f7" />
				<outline color="000080" />
				<font color="000000" name="Arial" size="8" />
				<position>36 148 108 196</position>
			</node>
			<node id="currentIsMajor">
				<name>currentIsMajor</name>
				<interior color="e5f6f7" />
				<outline color="000080" />
				<font color="000000" name="Arial" size="8" />
				<position>67 95 139 143</position>
			</node>
			<node id="currentInversion">
				<name>currentInversion</name>
				<interior color="e5f6f7" />
				<outline color="000080" />
				<font color="000000" name="Arial" size="8" />
				<position>123 54 195 102</position>
			</node>
			<node id="currentOmit">
				<name>currentOmit</name>
				<interior color="e5f6f7" />
				<outline color="000080" />
				<font color="000000" name="Arial" size="8" />
				<position>198 29 270 77</position>
			</node>
			<node id="currentExtra">
				<name>currentExtra</name>
				<interior color="e5f6f7" />
				<outline color="000080" />
				<font color="000000" name="Arial" size="8" />
				<position>281 24 353 72</position>
			</node>
			<node id="currentStrongPlace">
				<name>currentStrongPlace</name>
				<interior color="e5f6f7" />
				<outline color="000080" />
				<font color="000000" name="Arial" size="8" />
				<position>361 39 433 87</position>
			</node>
			<node id="currentNote">
				<name>currentNote</name>
				<interior color="e5f6f7" />
				<outline color="000080" />
				<font color="000000" name="Arial" size="8" />
				<position>428 73 500 121</position>
			</node>
			<node id="currentKey">
				<name>currentKey</name>
				<interior color="e5f6f7" />
				<outline color="000080" />
				<font color="000000" name="Arial" size="8" />
				<position>472 121 544 169</position>
			</node>
			<textbox>
				<caption>Input file: minors_2\nData rows: 7396\nElapsed time: 0.047s\n\nLearning algorithm: Naive Bayes\nAlgorithm parameters:\nClass variable: currentBase\n\nEM Log Likelihood: -111204</caption>
				<font color="000000" name="Arial" size="8" />
				<position>10 394 165 520</position>
			</textbox>
		</genie>
	</extensions>
</smile>
